0.0
0.4134891151546846
-0.106223749937936
0.1153268025265079
-0.0978915462303782
-0.198010284365058
0.2761762912220808
-0.255154384780585
-0.4318115693794364
0.0689742805138252
-0.06194484389664456
-0.378674240146895
0.188984656789758
0.1862762663414394
-0.391235274946475
0.3627399096296316
0.220329583705155
-0.2182219127622301
0.050155453505275
0.162281160060303
0.1935635179403879
0.1247155084169894
0.0403972069351162
-0.042486316160389
0.02520021509796299
0.0
0.3824756307484976
0.3267962325216403
0.1134963293415903
-0.1092071602205473
0.0687897091490781
-0.4700629483640157
0.0003824999442083587
-0.2190162693192031
-0.150828102887031
-0.46482716177739
-0.0882833492458584
-0.462425325270251
-0.1832369375803769
-0.31191494273419
-0.158892667446887
0.03084130770313697
-0.1927583685167072
-0.379890260051854
-0.4325251966509543
-0.2254005001639
0.0560775462971319
-0.3780131332981403
0.455615940973911
-0.1524410961957366
0.0
-0.219182266200731
0.1363715638791983
0.0325333665227409
0.1034824004741422
-0.4984066814335793
0.367473375129168
-0.1846858036674131
-0.1449265753405932
0.091247772410859
0.134052091973249
0.357350748628381
-0.1955566223693031
-0.0567852953075287
-0.457305284888404
0.094374920992139
-0.209047924771062
-0.0798752276155979
0.3617273616115894
0.1928710093430123
0.463434555615281
-0.19385899212784
0.40918336911749
-0.386170989735542
-0.1236293279931537
0.0
-0.4578446093610759
-0.477527743159169
0.1125211972690092
-0.053222216670929
-0.1804012429142096
0.2676999189394645
0.374942212021896
-0.35688480718452
0.122599792380847
-0.1261060216377437
0.32988226641915
-0.1883977093144019
-0.0545764184937789
-0.229380138449345
0.4472734686196816
0.1135499061845677
-0.1864718405957922
-0.41598602913674
-0.110639880094775
-0.452883613892919
-0.3766966323288528
0.4145576115224
0.3214650328949566
0.4867061457377257
0.0
0.04625038185408658
-0.2030568133659197
-0.2432192939126108
0.0620013879388374
0.1565329079763455
0.459635534728337
0.108822824984448
0.226398252028779
0.441093045896281
-0.085844644452407
-0.2144593623354491
0.0660779558785049
-0.0845787841698855
-0.1341709713490438
0.0988798586205412
0.4955573865577489
0.1908682756785372
-0.0921674922255079
0.2988428205717963
-0.0568121726615771
0.1676778839515492
-0.1857008105677787
-0.4688513419333184
0.0353801126514186
0.0
0.249344919142861
-0.4106647632430354
-0.0977783530822993
-0.0468381865610754
-0.0925394569565672
-0.00523352640263963
0.230911343084079
0.1960488706741261
-0.0613216947272231
0.0154282418930975
-0.26051489770275
-0.2395814024990862
0.20566805519795
-0.0956630567243305
0.2603903533885154
-0.4128037269113481
0.12777197401905
-0.2016153590526391
0.1029694397155913
-0.0547202833202
0.1650470395365141
0.047936247394778
-0.186054083852016
-0.1167210136583768
0.0
-0.0471356929693839
-0.1132679112155868
0.00805179613593087
-0.003334885716555491
0.2621643045462792
-0.223984675701895
0.2757145436181428
0.1144633972049928
0.03111496681248204
-0.4018242588870034
-0.079668957803349
-0.4042381336420731
0.215794336379978
-0.3592402397632158
0.4510914722877915
0.2769705739209906
0.301603506695249
-0.487521655880322
-0.4303074179217011
0.1950404875018404
-0.1926129940302194
0.209140301367925
-0.149201354574761
0.3991973306763536
0.0
-0.2449420079392463
0.3655947174233251
-0.454460694618617
0.2734733031090048
0.035911803338032
0.133376279084041
-0.0475728152036202
0.2529028374089158
0.2550295041031619
-0.2709590964214151
0.3239822494059001
0.0429204864091731
-0.311083105841312
-0.141660029309685
-0.0686092320814397
0.210248403679858
-0.03181512865468727
-0.146293756182898
0.1011957241806027
-0.1955303767431375
-0.240302361567872
-0.49197239459798
-0.4596854515017302
0.0229551096444192
0.0
-0.4028116836241355
-0.303536306821793
-0.29501005475359
0.229464684042842
-0.234970345352618
0.348980357951948
-0.0917045723397228
0.1969779858347571
0.46740603657501
0.4119895489288033
-0.358564807984928
-0.0670095905631201
-0.308010567850673
-0.2224914430854613
0.3858958659473491
0.3995711648409604
-0.1714769697870682
0.29362565248468
-0.398814725145195
-0.2214425042360288
-0.346358806094537
-0.0698943971206311
0.1439959321432492
0.2025414686210068
0.0
0.2009937616115298
-0.4488023465952951
-0.0996000814478031
0.0890449980807707
-0.134204556259144
-0.4338384447181269
-0.3355246522506506
0.4391833242877082
-0.465097287831075
0.306689139857991
0.3014256517631632
-0.431128588805762
0.3574790330154037
0.098505512975218
-0.2226793013038542
0.454449797450522
0.1152141362973767
0.00895709856303816
-0.094650199974124
-0.4102790834118731
0.10050324190504
-0.3785526206377236
-0.37588648810609
0.365776378073524
0.0
-0.1226040440212146
-0.318668332466524
0.1903868492016962
-0.02867761831828474
0.105937680731156
-0.2103162033546389
0.1764833832120894
0.3680470642610489
-0.1039896123154819
0.1007861010382502
-0.3625541487702903
-0.489945084274454
0.3454407040014445
0.342220677471722
0.121426027748114
-0.284443278014798
-0.083922708623312
0.492188164640155
-0.262551742335381
-0.258169287669964
0.4161002237672146
0.1116989993673257
-0.13610176086299
-0.0721342035133578
0.0
0.4642135380425802
0.039704087069015
0.4756681007061297
0.344869225006166
-0.3490633505417801
-0.0984588665449169
-0.353239920087629
0.0621359570576363
0.1888865479964311
0.331950492233281
-0.0732228637562831
0.2677810945571842
-0.0220888497333625
0.1130667043292172
0.2767663852984698
-0.3579367418561336
-0.1848213113342195
0.4667996700700971
0.2448677241935666
0.04877613803390068
-0.403486050144585
-0.00030085071692997
0.347540801582962
0.4386803267776756
0.0
-0.0675601507953901
0.259558550102224
0.2529597189501282
-0.1177640244861782
-0.3708018234767166
0.4920467956893479
-0.17124912913486
0.259529417908981
-0.324745153001827
0.4449607202182994
0.3925181595657478
0.2063711908098896
-0.3118391234893579
-0.1170001854642607
-0.3748071028974775
-0.0705467461322475
-0.341095331625843
0.1186831788964718
-0.4677461182449489
0.3470035350201804
-0.49897788844271
-0.1920639193332047
0.285398076252208
-0.3578433493625172
0.0
0.441352101679662
0.0456681919269488
0.1745941375064681
-0.474701251109289
-0.10591148973161
0.4266955467221398
0.159419078272124
0.419759856138764
-0.1033393237160062
-0.153587431801261
0.1123633726187536
-0.3040717259313421
0.4157689189840849
0.1443437005921508
-0.205518261062465
0.02069958288015949
-0.1462445627437529
0.0470820493500074
-0.1064462898953029
0.171907378303903
0.385476912800391
-0.0460556860518851
-0.2009367054046349
0.03853029474838587
0.0
0.2024117388754098
0.3824065414871825
-0.049689329961267
0.441534266320413
-0.2310987860214419
0.0509952922949016
0.351694527887104
-0.332082236860996
0.17030635074053
-0.4972131083754992
-0.059791195154403
-0.11626450787055
-0.1459082955319359
-0.1951232674098043
-0.2265067705199871
-0.03227912474104277
-0.367575706703373
-0.307870603162254
-0.1048278323009056
-0.33126587418548
-0.3213970684112862
-0.0947831842916062
-0.0118608264718066
0.1854275031571466
0.0
-0.2850855966611679
-0.22029002448672
0.336147179072809
-0.00494617224352933
-0.454707280812167
-0.25387964686591
-0.428264580930053
0.1212398203242901
-0.423488693476524
-0.477228196556295
-0.3931325494594025
-0.1880194786358374
-0.01384541240423142
0.1866714821918332
-0.246643130389761
0.0938138820947893
0.048681204362627
0.3274640555389972
0.493259840004861
0.4119628661405889
0.3010560627334152
0.3610736883763131
0.351258927318031
0.0426821516716093
0.0
-0.226707594402409
0.2344276548877186
0.336252978215033
0.159034714311529
0.4581578932230432
-0.2696147632643789
0.2682888243896548
0.006892601055765057
0.36203467445077
-0.2863244604419893
-0.389676282695075
-0.195803975943903
0.1293925362472507
-0.467781461373412
0.0725645927846481
0.340071113459369
-0.360370977822894
0.311500488915527
0.359493833410456
0.3808431812288628
-0.1970249580985953
-0.1114225036151033
-0.392387474077532
-0.293304506656611
0.0
-0.1083878157795324
0.2415671289299946
-0.3855021757836768
0.133317048024708
0.0298575457282722
0.386348563007844
-0.4022849904089139
-0.1999868380448438
-0.002195980649409956
-0.467205026644436
0.241077121835608
-0.1208720313701279
-0.00752448537800531
-0.0989347512057603
-0.133355489976076
-0.365894382525705
-0.447712691748801
-0.320622924391
-0.4940600189995798
0.384873511890943
-0.25675356784692
-0.443136558931822
-0.360450536808318
-0.2207328816464195
0.0
0.1006080128279951
-0.412453068327377
0.48628035315997
0.275843127706686
-0.493485921871996
0.2913648017958846
0.206594061456522
-0.2119878062887399
0.3068051051728656
0.1618124616607132
-0.410843776877705
0.3113939708721611
0.309970413752718
0.0967439439378273
-0.491877424144942
-0.30287386383187
0.472695596230832
0.0506663327443792
-0.071291922290148
-0.3215601046670708
0.194136022216517
0.02920130178585167
0.28963051476096
0.2911511585395144
0.0
-0.1161796071448346
0.4158610545675608
0.259118095932624
-0.376828120335459
0.0620578116610555
-0.2617293522889748
-0.438810079978593
-0.2493501754892735
-0.0512610916525511
-0.04614947764615362
0.01500129780207859
0.3390288881793651
0.1107027033923648
0.4856892434799048
0.03585174463050133
-0.47571782966775
-0.1935857581604846
-0.0285387840159893
-0.103151150296649
-0.00891035529281125
-0.02905863677737563
-0.447225416422198
0.1722409976173715
-0.0657214210398965
0.0
0.3259640477801185
0.052750097145798
0.0155532446181037
0.0699590344194932
0.2952870927151115
0.02424863512809749
-0.4167506286642136
0.239293385977055
0.306191244344832
-0.2478064210709988
-0.0242609755900873
-0.199427011797372
0.329998808420197
0.4551187982923081
-0.211908789188828
0.089426039011327
0.1336908074673682
-0.344610681102418
0.00196059408162629
-0.350859113898673
0.237277972669567
-0.42009870862471
-0.0917026359475238
0.449740233783542
0.0
-0.356814652791709
0.0396777179892137
0.45049605581763
-0.0991725963995154
-0.28467119488905
-0.457144567598701
-0.2109580548239993
-0.18429131633184
-0.389304757493925
0.1248254948164316
-0.397471985175179
-0.250703962648668
0.336256729707827
-0.0922073014284308
-0.02684438887617324
0.04164893503644262
0.0546568192343419
-0.330644687726758
0.288925846288341
0.4126722605144317
0.3958171544339744
0.2957697684261556
0.1110581388479882
-0.2320830164780549
0.0
-0.1176135431219966
0.40747127113305
0.3644137324989
-0.100394421799436
-0.199280313792462
0.0892273116679207
0.20336283003595
-0.1348917960017589
-0.302137172286059
0.3893088612134456
-0.015353297701529
-0.203072305210129
-0.0969898501745203
0.479984328493317
-0.391076215293597
-0.1717326149550186
-0.090727764577401
-0.0398918716666567
-0.3387418816019246
0.2234015736949609
0.0782743275573751
-0.341952895009259
-0.01964790122544002
0.2637093128642269
0.0
0.0953060162780312
-0.3822343070988637
-0.0580809024086622
-0.2654435771752522
0.369018496968095
0.0481905936304607
0.0508069748076488
-0.1763612167959501
0.1390476679108231
0.312727068853111
-0.1316695430533055
0.4971470860896257
-0.020975849730188
-0.485529394587351
-0.03640945140749085
-0.133019805066147
0.3127207742484212
0.01161658565389367
-0.3689469803664492
-0.40535370458872
0.1199285803897621
0.347277827785865
0.00785846469769357
0.2331261935294434
0.0
-0.268775290633324
-0.1406152549944902
-0.4600057264361031
-0.250873000718856
0.4755989847435204
0.0796377484993849
-0.0780137412843124
-0.0584194783686047
-0.385544538433603
-0.2670641368737456
-0.480130603850876
0.405400481558999
0.441228914985401
0.4467976563979114
-0.196021588457406
-0.1421203773394256
0.4943661853510258
-0.01573696789048373
-0.1743775851095309
-0.264355824724314
-0.4495792872227726
0.32672535047302
-0.4232796309529156
0.4644643429018776
0.0
0.442433522720994
-0.35009495677488
-0.0576937186694518
-0.4329958939202701
0.02799694405964692
0.274855729669298
0.0989982448195065
-0.169873449048844
-0.0908218610735733
0.313561582295541
-0.376106960274949
0.2809993734747059
0.452945783730889
0.362382525069107
-0.0660536033340689
0.2037912821996685
0.1756982467757286
0.39756139690793
-0.359098454092335
0.36784644254001
-0.44339693158115
0.1572316725719863
-0.2869694778057859
0.00112299241222935
0.0
-0.0972012338091535
-0.224816915638177
0.26298281698086
-0.1030697598495897
0.1019280634860978
-0.383484161522455
-0.00774012139925528
-0.155592327118319
0.00841405391755478
-0.4922419765555857
0.3158511990577642
0.401629034348251
-0.153001052168505
-0.2004850223035706
0.257247451049146
-0.3863375356469078
0.216440134553177
-0.389189424847684
-0.4704705331936226
-0.3262386740434619
0.3944313635224264
0.108399475102207
0.0869910709577966
-0.1647753404369364
0.0
0.21847816927365
-0.08023575265277
0.4704627080295764
0.2248281843461258
-0.05929488100703994
0.462503624881218
-0.3060905266712292
-0.11914249980716
0.4530671939852365
0.252001758006603
0.072219697109052
0.1937966523269647
0.2752839880171803
-0.1421875865450399
0.446261702633031
0.0409101831352135
-0.1345184037535095
-0.200222130011801
0.386373098814381
0.2911502600379568
0.1288329817592094
-0.1416590692553101
-0.272075279772342
0.4071781259002832
0.0
-0.308882181536752
0.12306414713822
-0.43179126212836
0.020985127224584
0.306085350930887
0.3326594862896675
-0.287599450578362
0.252425944476179
-0.3940613314769364
-0.3226228436498833
0.425838092194694
-0.04937018481079813
-0.2224330484754832
0.291213252285114
-0.2228729544269277
-0.2869005161444143
0.1620662825896578
0.04278557838711971
0.222852145344636
0.04184710875692987
0.05974440713730222
-0.136623983289962
-0.181284791753012
0.02002704781071462
0.0
-0.2192045501712973
0.262067369242462
0.06187424807389041
0.1873944002988958
0.300677481174959
0.0396512022752036
0.4914494750647324
-0.0798609190059504
0.2448272591367611
0.02499645373989367
-0.1951645108888585
0.396208705221282
0.1561972308264847
-0.3282007660743483
-0.4993473142219173
-0.4405119539530578
-0.252846025884352
-0.2651135542610376
0.2360527696335639
-0.48505699896818
-0.144518558470195
-0.491890535873624
-0.369224668751652
0.3269857379812003
0.0
-0.429934999662521
-0.1070617922504669
0.3567095343681885
-0.2333743846700445
0.0957798928222053
0.128529560743552
-0.1793579630127807
-0.3398279674397597
0.1476526839428334
-0.1846478262872918
0.453181062681928
-0.32561421367848
-0.251906649316964
0.0916662719257409
0.494607602001997
-0.2914973548318242
-0.1740550312977606
-0.486112646405704
-0.0569552940128188
0.325555470689256
0.2309519494751588
0.1068723759619173
-0.419892423164073
0.25992032299532
0.0
-0.466657173419286
-0.364657005503584
-0.2541015659277632
0.2248219287469114
-0.1326207166784287
-0.347324931575674
-0.0623921189107403
-0.1131686716710997
-0.330590581055894
-0.064989925412853
0.0916362109968805
0.32507461974178
-0.1784306675538418
0.16555147914317
-0.1005231526618305
-0.219382366828282
0.4398535157448484
-0.0949949063479473
0.0529658342867622
0.31487185688206
-0.381000567188861
-0.4248026605035807
-0.082555823548817
0.2466010549063096
0.0
0.0240549993797222
0.1650409741782585
0.4326359099629667
-0.02467950164356791
0.068365528733525
-0.1608208073690019
-0.164028869719115
-0.00512027365835043
-0.2178640042972522
-0.02873395077705864
0.02702360718681262
0.4173965122190602
-0.373919795713938
-0.315762367702765
0.299498242399119
-0.375013131229034
0.0695509318149124
-0.0416367785972442
-0.46966246449041
0.3128255620459833
0.2236441723397659
-0.343662052490354
0.0651845618006717
-0.2993582571579632
0.0
-0.498078859360625
-0.355795884181433
-0.3625886635895083
-0.1063969384118551
-0.127512459211694
-0.3896270863073104
-0.489685439792484
0.3611915736011
0.0288910641380224
0.439101431635663
0.4772852682424464
-0.328980536591799
0.11770344418158
0.2077684744576494
0.1411214806528632
0.1067692352498681
-0.247042125291624
-0.289554620156341
-0.083170734286083
0.1685814574497268
0.496793291250784
-0.1517297637703469
0.350862167472443
0.242919883134579
0.0
0.1128924160309979
-0.1582212614260296
-0.402265207818503
-0.4307849631890632
-0.2656399421131878
-0.329254901307363
-0.06209346936144921
0.072887564189462
-0.395787504935207
-0.374119068669524
0.156440312481054
-0.365442003668516
0.433405536000806
-0.152996125621711
-0.0003471951699767217
0.0946126646579935
-0.1808837805742781
-0.1756814844026162
-0.206771818753455
-0.0278254091010025
-0.349172175669784
0.1264602873748491
0.4171440894977742
0.49799062494055
0.0
-0.425507710938891
-0.4127963485932053
-0.318960011769188
0.496535186810956
0.00541163447345138
-0.3534504768763655
-0.017612040729245
0.0554603101184569
-0.4355667495085221
-0.49742129684337
-0.2178524855085022
-0.316765891215239
-0.426333333752226
-0.1273881930406992
0.1625327552579647
0.301541711233081
-0.424175401312008
0.408974791015928
0.0183795233246464
-0.4364061233766479
-0.3334048118695056
-0.340701179004175
0.0799982514050329
0.0139469003891815
0.0
-0.04228714073532935
0.2958449058322395
-0.4107613169656003
0.367551853257349
0.3171249432826893
-0.127366261897534
0.0437466661809505
-0.4280069193643758
-0.001420263643994279
-0.0639135712747769
-0.45842404643299
-0.407029272768115
-0.00606355321581464
0.490211873120667
0.143259378921584
0.371976914406
0.1303083384559683
-0.270960811889859
0.1590292343078116
-0.0580766749483322
0.3942055264857834
0.3546867339436282
-0.1750881709439712
0.244123964038846
0.0
0.04376471848367602
0.1924768031148533
-0.4929282008945986
-0.3579327846668197
-0.4317331677429937
-0.41521484993562
0.3241746218513733
-0.0520327752485458
-0.3704357445417907
0.2392683246681389
0.327359084899543
-0.382170193747215
-0.29352644513075
-0.4097802548396
0.3281418136518138
0.089091122506138
0.158931237723706
0.1747917622829765
0.0621576260556192
-0.375517168052796
-0.370451483532681
-0.455522776207501
0.4319590111469613
-0.12261748408542
0.0
-0.494364494786878
-0.1002356702657792
-0.4111481686013257
-0.2291821299406192
0.3691649382095263
-0.1521811001146198
-0.225548269019289
-0.2303891756864254
0.093393419775126
0.079653148704788
0.075059740570098
-0.1613672124088629
-0.2269761951349955
0.343151129796847
-0.18410817959129
0.39528341142029
0.461903824809301
0.2223828386939561
0.4657150445220231
-0.385545333945854
0.1343096250973635
-0.0948402417162009
-0.0954473793357246
-0.4706003113768012
0.0
-0.1761527392535957
0.062769317159943
0.3738293314086945
-0.480238305387528
0.317467448393555
0.000694841945845459
-0.2409738714718239
0.04136685238614845
0.2577342960889108
0.0722574693885544
-0.374760587550651
-0.298424382852821
0.01180307699452087
-0.311916498065469
0.2808811565515665
0.091258500071133
-0.254602835632549
-0.1067856391549569
0.3647069101737334
0.1454372590082276
-0.4649223545920222
-0.4464683058014222
0.355711577921792
-0.1678645901642944
0.0
0.3651042344237127
-0.115303006457613
-0.056858850084794
0.3536300157834516
-0.1200820492050682
0.0402904291625296
-0.1733082010608244
-0.081861882388981
-0.3651434773984
-0.3313962491362263
0.245730429424597
-0.02536768775901454
-0.108366469966476
-0.2047903900768013
-0.2540595660278184
-0.157121151152743
0.0626496601419573
0.079840451482277
-0.0854043475396836
0.1821509658479947
0.2655011175374415
-0.1633356188988804
0.397007783027121
0.114040992447334
0.0
-0.3463610291751636
0.1165282777693562
0.2105877787136428
0.05833420172782
-0.39342373373779
0.2742068142440211
-0.40697976129889
-0.2864652748887275
0.2119761308575728
0.378999316798958
0.053287862859769
0.1191576155206435
0.076318510877
0.470323383677178
0.264991182676695
-0.364074662515611
-0.2964164618551875
0.180894549331661
0.4253968488731618
0.1194685838992948
-0.02734134671508281
0.2521533060943541
0.268233334017401
0.0299640421459584
0.0
-0.379022281987276
0.02237427538688008
0.3586138563354437
0.239755940641939
-0.420361305547482
0.246871400994176
0.0411405727557659
0.3251109538371672
0.2195310381133429
0.2868716225942794
0.249066262131337
0.42368963045514
0.434836211547877
-0.329292248898045
0.318896473954203
0.1341711678466659
0.0925537455282755
-0.3414679377103888
0.1016420909260399
-0.23624147979609
-0.0318392269276863
-0.3436171025725802
-0.424613572478396
0.187719764448738
0.0
-0.4129498083526792
-0.0976247933636019
0.0897592208963039
-0.1534288034355114
0.472590364962803
0.3581866784829901
0.02621216766969114
0.1648758997456999
0.1763856884333003
-0.0948806496029271
0.170719569203348
-0.04727096747402026
-0.152399784268009
0.1046571299595092
0.1486058283891957
-0.38243219193568
0.2471229881398602
-0.4825943373825749
0.1758733200981933
-0.02794774960539869
0.1292486931946771
-0.00391485448492756
0.212879677310656
0.1910272170462837
0.0
-0.082673795269452
-0.0265002069750602
-0.1673234341208624
-0.08330328735224
0.1692559141347558
0.256208913232016
-0.3192715636924199
0.186732601095524
0.375036238460236
-0.321184136825493
0.434950024081229
0.2708027928975582
0.201156697139059
-0.4832001958453442
0.3457265974783141
-0.1836756677357187
0.1969067269103772
0.3037194560509891
-0.4616879543492209
0.1359017263968982
-0.04345211443141494
0.1653663755047257
-0.428802396697174
0.429170949673222
0.0
-0.145110690949905
0.433548320408565
0.298737951073549
-0.2658171408850791
0.0731670334029083
-0.1002970018851406
0.066145495719232
-0.330760679753212
-0.1717038881985559
-0.2212153795577572
-0.4584336308631945
0.384426765966769
0.122222279043182
-0.4972619563359793
0.306934226740874
-0.071956987708266
0.2898621490816293
-0.047555159223063
-0.1274272507927918
0.0903685139159717
0.1811953371997414
0.4024762330359221
-0.385039673907104
0.0995087693666623
0.0
0.02344563506000818
-0.409464808782653
0.0698258646103051
-0.42307777999539
0.0498921184083813
0.032209193827489
0.081867703791463
0.02301193809192236
0.4579552442859501
0.289235966177249
0.49494076261701
0.4950349334371011
-0.01358036588827626
0.3321780093344053
-0.322663689536122
0.120939688883008
0.4076443827388731
0.4130943790051845
0.0808874219497089
0.18934481918489
-0.3038624939202515
0.1721057396433468
0.252657321600174
-0.238730314842441
0.0
-0.2727791737787
0.35994665692421
-0.28775911222906
-0.300289536009362
-0.1270532340368578
0.363817423040697
-0.00794477271997806
0.0826888584637757
0.101788198131929
0.439487853678252
0.04970875523483142
-0.389023680350952
-0.0690424951743333
0.25355505036326
-0.4957711301636189
-0.160743687133382
-0.3224244006133314
-0.3527876064899506
-0.2246497631578783
0.093215051129324
-0.139798876594296
0.1767813352433463
0.4609276903995236
0.2570801551830308
0.0
0.00399526526014815
0.225231092718854
-0.4473939533367917
0.0440356455330677
-0.0338696317873878
0.2331604482226866
0.0444792760308387
-0.0944764007902759
0.00688316367224983
-0.0059637859655599
-0.0181285583332663
-0.0280944017789174
0.337962245422509
0.0654766958162815
-0.0918917087228823
0.2497036342473716
0.0607858245212417
0.257162432160872
-0.423949853948286
0.182852468544389
-0.149961377792275
0.23342567167661
-0.2432986846552228
-0.270041935121813
0.0
-0.146562766368245
0.441687294892738
-0.26716750312454
0.252491235456209
0.2308852723904917
0.0961847522020117
0.4160773729244877
0.0957037395829564
0.183369804635207
0.1913618386616059
0.1051285449891725
-0.1551533967027828
-0.2189054311348499
0.2200575622386893
0.396883187563557
0.3370971090019204
-0.107246394877247
-0.1767783607369206
0.319241316015138
0.1486200812188793
-0.4302165894130556
0.02963138729319825
-0.133437823724533
-0.0996181663859998
0.0
-0.0379955559165371
0.39115216735546
0.276682965932832
0.05870698888378622
-0.4535289817977957
-0.04812290002157
0.1939276649020784
-0.3422356080687
-0.3696466945013917
0.387807609238362
-0.334817391179973
-0.1954661291932021
-0.4456070022309158
-0.323851737522562
0.207342107413188
-0.242177261245652
-0.2963686692836735
-0.465201617150715
0.0907753791738821
-0.049073978490391
-0.418435839696381
0.131220557500466
-0.1925288516276433
-0.0653438371429977
0.0
-0.4344870902497446
-0.1993604721532572
0.1352602262634854
0.203591217529643
0.127211300340038
-0.4737960762820524
-0.296694490738334
-0.1092518435504704
-0.2018501638938857
-0.3404452604963277
-0.29920967049556
-0.257131193061195
-0.400704743305821
0.1323251720025766
0.31320379152777
0.460757852818938
-0.29022300878018
-0.1579766983866932
0.174829569814323
-0.123403434598008
-0.2000005924909328
-0.05758463915488476
-0.0971384535552942
-0.2447100600877769
0.0
-0.1795144670674202
-0.1876455694892433
-0.362118768626411
0.1483149021182719
-0.2273762851573809
0.424291220573602
-0.09004978122759
0.483132556785457
-0.298409337721808
-0.0684029057554771
0.356689028846738
-0.184340924459284
0.00641111327894161
0.287186743383006
0.368086460937749
0.403622740828086
-0.0447404284787428
-0.454090439333438
-0.2732039884370194
0.270519483186221
-0.00423465917452403
0.2647336436621976
-0.2726933107718605
0.01736448427731729
0.0
0.01090074520512218
0.0764469079148326
-0.1856846364805947
0.432871644919885
-0.465411310641041
-0.1418079251423459
-0.2028834096554167
-0.2057293696862343
0.226025570252207
-0.440855095153542
-0.3717616970531465
0.1233028779982459
-0.124756369128296
0.0420019997130909
0.223241127732079
-0.4057777371792824
-0.1912942044925742
0.4203578997775615
0.4727936590401553
-0.2290473949088319
0.2055024147981211
-0.3870338120296634
0.0942364955812711
-0.066056568591766
0.0
0.0869309849476734
-0.1237604891522744
0.3068661469649973
-0.349972285253971
-0.411694878571135
0.0177844556195119
0.4861307766332111
-0.4152925274660499
-0.1192527454460925
-0.0617846095726265
-0.314700337017689
-0.45433810008012
-0.0910059798244968
0.3098507962020441
-0.208910327507152
0.3631413671379567
0.171019194452049
0.02470839559053461
0.4310055398171278
0.0676193296334716
-0.2625621178925572
0.319750930725521
-0.09137863343064
-0.075632804531908
0.0
-0.489767863279021
-0.40248247759611
-0.1281862733356906
0.154865127611066
0.483141885213056
-0.24550536587634
-0.332770065636489
0.3518819278518169
0.27019427316283
0.3300097832407292
-0.473336276992591
-0.313758408863494
0.274275274045533
0.2666839162985361
0.4726600466648198
-0.0651508119492363
-0.0798855802841829
-0.4630958557847074
0.3331765809423178
-0.42736264245499
0.268478417028112
-0.356168986715893
0.0781407286690396
-0.0905940847698625
0.0
0.442819677788068
0.460744843284208
0.02072264538146906
0.112758169373823
-0.01419508523316259
-0.03670769231594539
-0.4665052270164047
-0.3311313783781747
-0.38997642139875
0.459355752945906
0.3653153290772449
-0.4954999593942578
0.3492083334385339
0.4924919297312473
-0.02272105760798337
-0.278816275273393
0.1651415737791538
-0.377879730931002
-0.429648306890676
0.236148313095832
0.1983440010739895
-0.487156220351919
-0.3727357611321714
-0.397992910813166
0.0
0.4617436895837029
-0.1137009339980635
0.02948108230607282
0.1911017017416192
-0.457812608236894
0.1166821383373676
-0.289339847355564
0.2065296076836399
0.46459408361338
-0.3349360165717578
-0.3308270623231862
0.0719200339616119
-0.4153714986839057
0.0391537781604034
-0.130348879803394
0.301737238589239
-0.2852134260360763
0.1560344834945863
-0.4399149902551544
0.1887127252297632
0.1290412340754828
-0.0883580475477452
0.1229011872991885
0.4076384289788995
0.0
-0.4921876801261073
-0.2113486883770131
0.3234252822073445
0.0805650198493775
-0.374571773183949
-0.145770652021523
0.02122067041520725
-0.48023657766287
-0.394694786971874
-0.4084244846354996
0.01365166790598926
0.1535878759766722
-0.079257849174988
-0.0661274876609444
0.4910509943479307
-0.0747431367612174
0.325467483059968
-0.3697819571411249
0.0396132171139943
-0.0445083563570565
0.445994688293458
0.436115278692534
-0.3061354534969671
0.05033644811633819
0.0
0.0658378675367137
-0.4876663607815343
0.124618120401054
-0.274992009726057
0.090320754669824
-0.1449337772694574
0.268752072360466
-0.2402609387939812
0.2553955913126131
0.2910711649672711
0.2135118113662374
-0.3882898596731023
0.462334967122527
-0.3415419978936685
0.1399763917117765
-0.01757135543376209
0.1517927517375636
-0.136148973725182
0.072449837595025
-0.4474386053172486
-0.0940936169744942
-0.2348992886845783
0.1076533861451466
0.321669866914488
0.0
0.2264796077126638
0.04369746530369289
0.0860108905585671
-0.151627683429239
0.401517588477291
0.263885118511009
0.2676030084517636
-0.38353169476116
0.2371682960348907
0.04792125222822285
0.450241626466905
0.3643376179999683
0.1639522950194144
0.077941608959278
0.437147588328613
0.32027066116444
0.283387022869588
0.1441948866002534
-0.1598205223899754
0.298855882300392
0.13618183376489
-0.05037583635045428
-0.038490926216028
-0.2029795457220322
0.0
-0.350928776470076
0.442733563574332
-0.1018876723245688
-0.03879084527745968
0.0464926340096751
0.0316700678467636
-0.4600593049325435
-0.131821942362831
-0.494581685486497
-0.1452014713888607
0.1928866829562044
-0.2841764909996775
-0.3956156129675867
0.272398387182482
-0.3354115003568256
-0.01289843220251152
-0.0648495591931499
0.28980852268688
0.2388937039408981
-0.3549187192136601
-0.367868558288957
-0.1738979296043259
-0.1858965420998048
0.244802397986114
0.0
-0.2751657369141786
0.0636665861156382
-0.076071588913997
-0.265285705770835
0.44475364763044
0.322518838653229
0.05549333815983792
0.147551594980231
0.43327107046625
0.1504264253984851
-0.2822663320980054
0.478181391200675
0.34453485583195
0.0651465330591588
0.25994546958449
0.3091557065714415
0.2069369149111348
0.201662429256862
0.321229194178499
-0.3236075358023754
-0.1308188791203146
0.249684278432273
0.156363878336707
-0.4110834211816286
0.0
-0.0265145445020846
-0.435140573473064
0.2431966231954454
-0.253900209606998
-0.2521138748104
-0.2616468000812366
0.34462943083704
0.2160089021937784
0.394772936054107
-0.4633944151406
0.291340451993109
0.498704111950974
-0.455984958233874
0.208749666488362
0.469561361310485
-0.23286671294535
0.3603565516701535
-0.1756433776623438
0.1033865755685936
-0.0245513985875872
-0.1260220887832427
0.215347838661193
0.349736938311709
0.27595820648067
0.0
0.38611770109677
-0.1850909485215869
-0.31315039859156
-0.264904149623092
-0.195712231870301
-0.092383475428842
-0.1295476629156665
0.4426909179696678
0.3432462572237674
-0.340938924003976
-0.425458522945829
0.22723408143824
-0.036963181293901
-0.2531783454391869
0.3869652357971029
-0.2593937537642392
0.2427505195632969
-0.43547761975065
-0.238645189271303
-0.0794128791841559
-0.3577797764288478
-0.0546139111165978
-0.2433030102530768
0.1350337456238238
0.0
0.338539153552137
-0.437075084486114
-0.1266623134142379
0.148407912075973
0.396686870600912
-0.000704301687544761
0.0302187583864556
0.363848364418187
-0.076972396956177
0.227202779382661
0.362681703053992
-0.121777097128189
0.354436383940809
0.344981831259718
-0.220673838214649
-0.3721090888129594
0.2341849012373372
-0.4104040075408993
0.0805108600316373
-0.3821809728325491
0.1341060875214891
0.3178395444478051
0.0929937705291629
-0.47328763557144
0.0
-0.2363292336541337
-0.439586000843598
0.258351563930926
0.405028509372076
0.457904770164915
-0.0325272449538298
-0.071074700016211
-0.34636414380505
-0.0721203862194795
0.184469128673352
0.342119302626725
0.1628884429375899
0.0695266068856191
-0.398910254453951
0.2779958502360725
-0.421936743682339
-0.0630862437185013
0.1429063392662647
-0.0350513156451338
0.2419604753797807
-0.110471851520076
0.262398713687355
0.033594766141101
0.00562898941479728
0.0
0.448059396755087
-0.1756901401071507
0.1539164219449764
-0.436577549385968
0.358600531579115
-0.4941490925991941
-0.067282368580445
0.301354792027097
0.1210235831120247
-0.355856155378842
-0.324721084872354
-0.2031119825182574
-0.465971345174829
-0.433881764815278
-0.1230383247174032
0.213538560187224
0.03161080806956384
-0.0392741065765295
-0.3002817868313678
-0.4790558234604984
0.4642958136099898
-0.456044828896304
0.4348068126742705
-0.3906536337500552
0.0
-0.1781180601418396
-0.3571939701680012
-0.247587346914163
-0.325009789833833
-0.297140320806304
0.0432055521169298
-0.01555842706166554
0.404631306128244
-0.4006972758392236
-0.05965577617191586
0.4043866401927944
-0.285493168299686
0.06121526071360927
-0.43840999272419
-0.49468489252247
-0.2175749427173124
-0.1233041082127094
-0.3960820858570598
0.02535276885680304
0.103104281617757
-0.3413592904270389
-0.476480447453626
-0.2713985570795469
-0.05762462063774309
0.0
0.43654377320575
-0.0988150767323605
-0.303259034911471
-0.272111787839193
0.2340231426876502
0.488108533713386
-0.253193808627364
-0.1312705341951808
0.03412913239228343
-0.27101349012401
-0.320410175170216
-0.412468163258993
0.2417367798167683
-0.09668520036729
-0.403117713189105
-0.380684087737362
0.251206247743121
0.2863334605868227
-0.0421888841611982
0.2592510858639388
-0.0880596283546731
-0.1616489097458484
-0.2342701221469528
0.4077293268493503
0.0
0.433504708652081
0.02781541774791185
-0.0432922865390086
-0.1915756531665293
0.0369991672505858
-0.4675176513680713
-0.349516887172507
-0.099389970048394
-0.244027806414546
0.0972437326115855
0.330484406921776
0.2233338108603811
0.273247977322382
-0.2087198083572957
-0.1823208814308894
0.3109920374083794
-0.0444053760220629
0.3099369723572815
-0.4177416798231684
0.3086275986854629
0.02872375482433742
-0.13395390289792
-0.498196856998386
0.449719126945178
0.0
-0.006476731675016278
0.0902447339647277
-0.2491737210668942
0.358126256215517
-0.468049404691865
0.355123444224206
0.268340817802401
0.4229759643473003
0.0356449100354246
-0.1619486435575723
0.2455541532267707
0.1331515000047961
0.1664986425377814
-0.300429194503713
-0.3808567633568483
0.170615583678643
-0.04084117587013
0.0704493914908441
0.3616470192249102
0.188098036245479
-0.392432518164498
-0.4219111773746614
0.179387124086577
0.0816467522745373
0.0
-0.2023190783773477
0.1348628107691873
-0.0958499016340952
-0.385161287281569
0.1692127830133279
0.0241824595228454
0.1192532363200046
-0.122964862484678
0.244828877942824
0.137850937461071
-0.40627593543747
-0.1376584632705177
-0.006618111222326028
0.00413971973017124
0.00222675893835455
0.3029681428191
0.2840829557519
-0.0979915871173592
-0.322131560504948
-0.033257237845934
0.48442876559755
0.3164942423931219
0.156370672637868
-0.496401100227367
0.0
0.1211452025957363
0.2814930981674752
-0.2364257054092261
-0.2349475641259708
-0.376582047632328
0.01495547869863167
-0.3942466540466935
-0.2879765683411701
0.1631625560719688
-0.3545986804610866
0.1829086723116
0.130005439990361
-0.1645764881969028
-0.375726187066916
-0.2688902833556231
-0.172226387858796
0.0799119798207622
-0.4044238147386993
0.1563205026954215
-0.0744775047088309
0.3988339347610032
-0.45330861380109
0.1459095007892319
-0.447304152717498
0.0
-0.238134657802489
0.2723710899161576
-0.0864879531616419
-0.0761756009037667
-0.0847272010539393
-0.186991351787488
-0.255591872420353
0.1392280907516366
0.3944810236929253
0.2381842417261417
0.2932349757868353
-0.2607560765426125
0.357019996687536
-0.2031144028734125
0.0259008763369175
-0.0379126911883159
-0.1575872335778817
0.360994809960655
-0.350009592115275
0.417658425094117
0.4920633056856835
-0.4448877386321178
-0.175715112582682
-0.163953800554251
0.0
0.411631909508441
0.2999901230746817
0.02978266692374076
-0.2442073162988117
0.0914848891180739
0.3283321942808483
-0.199955118219004
0.345093280706631
0.05851251554126446
0.1863264241383191
0.0586829729836593
0.1435087445265691
-0.296120289514967
-0.0803731046887324
-0.48911332806994
-0.0956433573535353
0.2646488060575924
-0.4642500913534972
-0.2002283994877255
0.398760402509588
0.307426032965088
-0.362979742828741
0.289097956826772
0.1990436806965658
0.0
0.2677248978884081
-0.01078938894598158
-0.318700503407778
-0.07738218043642
0.4028906262146191
-0.169449111878562
0.2931913852400429
-0.3229145930874375
-0.4781539910959816
0.1546766185279363
0.2507448200498413
-0.137496895519229
-0.2546899664468843
0.287770581034326
0.02236011292765305
-0.4315021885666664
-0.156291537137024
-0.1862133511272039
-0.1876966149422376
-0.1820892230087253
0.339157114971892
-0.076216120794893
0.1625495916966809
-0.2075942058512656
0.0
-0.388832649573606
0.414069224948093
0.2461328773495413
0.4223824175168876
0.05278563339655728
0.1197304487448154
-0.407221782867273
-0.1686164008632684
0.0636508303468034
0.496448901507036
0.491349186370891
0.252664847712438
0.1577738251792031
-0.201418558194065
-0.394250540675719
-0.2078256445689056
0.0817908220774419
-0.3790438122228596
0.1447348984205598
0.00567838144969734
-0.495926915981172
0.4755910985866249
-0.02543520733720583
0.265568700609899
0.0
-0.281192481226068
0.1008550331240998
0.289388134653008
-0.3730277773105007
-0.3028785652537875
0.1987734877341341
0.345591553981581
-0.2659809118196201
0.1977096780012841
0.4389271241064597
0.0938399906981951
0.4504514303336071
0.129710491943739
-0.06125707322301765
0.348280074667952
0.407021929774907
-0.1604584411017513
-0.3703781027359086
-0.148419641268872
0.3408032226584075
0.05057225100755946
0.1724901215607014
0.0002391668390286927
-0.0347594029744853
0.0
0.4712995965824854
-0.492676968178636
-0.01193102089597475
0.444506755063451
0.0986924582266598
0.3242165624275342
0.291641974802148
0.169615760181858
0.2428592615742274
0.443728076803852
-0.1079533704081153
0.0750969444110302
0.0906883269797421
0.216600818093172
0.2091932432498584
0.37804938288539
0.1593018284574623
0.0706210218931404
0.2180107162396
0.3521153895216666
0.336337142065929
0.01839478317427867
0.38237513587798
0.2177091707684294
0.0
0.477636764705392
-0.488311598858004
0.4036967252967458
-0.266695402566216
0.2759239755376966
0.2509707995218497
-0.301417345890739
0.413888710739313
0.0648101142229362
0.204809191670037
-0.341915844546064
-0.4264262649393496
0.294511679349642
0.00575889770217152
-0.476102390973014
0.4998624780676007
0.1592904457399281
0.01373958941221031
-0.1927955252141169
0.4139578554351751
0.487128872258196
0.003761144945257033
0.01177795330110165
0.212563535700618
0.0
-0.3264584183259796
-0.005261740367115
-0.2178936517298448
-0.2956396693700147
-0.1388210909300455
0.3930565708715144
-0.2139528043082782
-0.1391278031971748
0.400211146351101
0.1216090734371708
-0.05385460074720671
0.0452201766167783
0.0539749845367126
-0.4930767103615093
-0.474432702233284
0.402637122523321
-0.0761332581461534
-0.139998899249337
-0.2875883333987091
0.0746274363459019
-0.1110643813890942
0.391467338468164
-0.2657111657451669
-0.2992493617388
0.0
0.078969748179263
-0.0966864172203069
0.4568438810760444
-0.3821377352203062
0.1419241966554378
0.298006798091463
0.200282631423702
0.0547443098437719
0.01251327678092695
0.37733330527251
0.289825847273352
0.0363194221693123
-0.3429580493881101
0.02693744127192987
-0.3151527439839054
0.01164286645123846
0.04397745827884691
-0.147956286215425
-0.216794723379741
0.378161296900756
-0.1497089146158365
0.163196769302306
-0.367471665951338
0.123315517208288
0.0
-0.0192917678457275
-0.0721574252405049
-0.0466203888555704
-0.2487059366660798
0.1652930482476908
0.0599087051666048
-0.3379591520580824
-0.1223266941432732
0.1704403104940118
-0.172125847390359
0.0854797908926547
0.2080304862909643
0.04546311236281
-0.232411146192219
-0.0807389215990972
0.343013348782007
-0.3078086861227291
-0.446515789634161
-0.476256606312629
-0.4533288018108523
0.281313195515043
0.23863490901117
0.377751033442395
-0.3458901765299491
0.0
-0.1587384310810204
-0.207673056033606
0.4120682604439377
-0.02824719244573803
-0.2645455173239713
-0.197404008499149
-0.1887728845666647
0.2121173553999088
0.1130480753771571
-0.2129911924958386
0.1917199493659175
0.25263704177487
0.2697054951418643
0.2647963772401251
0.1260065438814543
-0.44067194901815
-0.402273847405845
-0.301888582137345
-0.118203436550052
-0.1036647532844677
-0.47614726917897
0.1378412198293136
0.3309221397636318
0.2446970176807816
0.0
-0.1109941126156244
0.374914974152207
0.488842299227561
0.084171856479168
0.4681722836063053
-0.139694362600202
-0.203979433571641
0.462932942546008
0.35706790899994
-0.346483738921706
0.01414591058686209
-0.2785742139219251
0.454913982265856
0.0821803477080358
0.287655516070362
-0.0204954483289678
-0.489479295099769
0.1090249185320448
0.3515427983697304
-0.4075488140733475
0.447579633390084
0.2427566178997826
-0.215745893671644
0.4334584156342957
0.0
-0.415114419690903
-0.398880313443909
0.4168062608027325
0.0664216046904401
0.04072593608329555
-0.3572512844997166
0.292280017637313
0.491528910225677
-0.3390741325762
0.1433914538244501
0.0507804269821825
0.452472244298413
0.00971652747529527
-0.1596597315922231
-0.384717090340633
0.232929249502525
0.3626378799447479
0.3140852781580001
0.3308997897461679
0.147794205525492
-0.3707345528860671
-0.1751799196824613
-0.325264989244566
0.0346669061290351
0.0
-0.155972602670527
-0.1726055802622692
-0.02304411383831794
0.01595846176998616
-0.46341906848365
-0.0231077761923361
-0.1240782152527815
0.339447716187072
-0.017086270130491
-0.378802640012005
0.34986552385025
0.3732309836740862
-0.2169653003067818
0.14249855158853
-0.0780108194557729
-0.441424632460549
0.00147228482383676
-0.0323699773176315
-0.4953886488292087
0.403481929352202
0.205907600554667
0.3890750461878076
0.262715709498427
-0.2798857433476088
0.0
0.02383858836662566
0.2299652264178487
-0.314445575527412
0.0697259358552394
0.3912726885942181
0.29644280978568
-0.307004864559028
-0.389983682466786
0.1210035488043652
0.315429004369772
0.0526074211178886
-0.2058809297329158
-0.495679754063454
0.29488436744072
-0.044224021980468
0.493970377368728
0.398476890804347
0.427381011514097
0.3108863263913027
-0.26835070509181
0.307520328585365
-0.01382544223921489
-0.1472863777480947
0.1634035785631492
0.0
0.399338988744668
-0.311675649168699
0.3890306531614634
0.01870435293066263
-0.05065571606501717
0.302100885158637
-0.471556552011468
-0.1505905826222575
-0.105566336409796
-0.0598302901670427
-0.339414172205392
-0.4452103169643415
-0.3542533649829464
0.49847705812485
0.421239722910161
0.206576558802444
0.3430529991820484
-0.435689453114535
-0.0876828568567982
0.1606855375715409
0.1862584603669732
-0.203232968435386
0.4162463240337388
0.0806843638729555
0.0
-0.2417770728204924
-0.2923104689622336
0.2222895794000482
-0.3540609157948041
-0.4899226049934749
0.2251316850875224
0.44472058817378
-0.0754206557325949
-0.1491352436740819
0.32239831319148
0.358948695145216
-0.496459364438474
-0.3451190386785908
0.4446354436964601
0.2944151587160428
-0.349802510624908
-0.00821279833120203
0.158662098672035
0.362099298603496
-0.424740257851591
-0.427676277225395
-0.1960923454942581
0.449530152576067
0.4610163018213281
0.0
0.1038849151130981
-0.45318927153819
-0.1484815490697192
0.1480819790873065
0.05260178254296654
-0.183046920451882
0.01443131503424033
-0.2550974313263597
0.2874545473721472
-0.4916431607412714
-0.107101804776396
-0.1060351586290526
0.4731807582363992
0.339654512127844
-0.0782286993452093
0.2444438426092645
0.338185145359914
0.295821559565625
0.2561899552201004
-0.07924627998499
-0.0271651664879385
-0.2197088588711404
-0.3111610653488028
-0.391798550649392
0.0
0.483189781501214
0.181924636351653
-0.1660067664112376
0.318863775149669
0.1454767268852177
-0.144722066657695
0.1588988540265883
0.2333856581070894
-0.474504429778939
-0.314064255575288
0.28967462406068
0.0677690664588572
0.156283488560946
0.1636044811394944
0.474701575079314
0.4047210391036999
-0.49025054936877
0.085743537973839
-0.458351947581896
0.4565570590862245
0.2209480418061506
-0.2200430607393866
-0.1369556657430479
0.0270139036945866
0.0
0.1446292063351196
0.3507516710090342
-0.0811801736456749
-0.00331284701083789
0.1180095464274211
-0.27736078807334
0.0259281721502168
0.37676985953276
0.0775960049971191
-0.37860251539002
0.05827577504576697
0.109993561470979
-0.4409410247567485
0.143865722248901
-0.43643545650671
-0.11352131883189
0.02531494669345679
-0.263245416155619
0.456191934093824
-0.326995425963785
0.436453900912136
-0.383916658070187
0.4110162262336085
-0.215986227724113
0.0
-0.365937516350655
-0.483828491365
-0.2443309449666182
0.265366680353539
-0.368747691442475
-0.475343505839767
0.442968685195017
-0.426906126472178
-0.322064743114902
-0.332663654860163
-0.2973071734368638
0.1085730322332779
-0.0825598497901706
0.37218479714309
0.19502354228355
0.485156608530189
-0.4363650874834583
0.482971848665306
0.38589140519619
-0.388384116071913
0.0754185409116013
-0.0966186507932196
-0.1155674229156797
-0.2313800987860875
0.0
-0.2413035819066545
0.2042998175711491
0.4822820912816211
0.269729157025925
-0.394049638008887
-0.1607136544920744
-0.4684008965688578
0.2035438835241033
0.3946185853725281
0.0476331590615725
0.03854296857322181
-0.44646777781069
-0.16244326336885
0.1057631936858209
0.0929682918326322
0.363393238602296
0.2715776518340067
0.1124584176017031
0.353359264726337
0.1201276065139368
-0.06213568411946
0.2459580493696161
-0.14852178984528
-0.0167778567626242
0.0
-0.46347491302291
-0.1049800652003851
0.362383931681952
-0.3135525032057553
-0.48758412992706
-0.4455343373267931
-0.3592042438142719
0.4118497672116653
0.446445174272213
-0.04428421918804137
-0.257311764651055
0.283591164230163
-0.283808301240697
-0.4562866745747359
0.0435302230726837
-0.289268799830583
-0.4006040857733421
0.02539052035089939
-0.2712097619120251
-0.268826470018355
-0.1671824600231627
-0.2057571493036012
0.0860403267567361
-0.4191433159396411
0.0
0.289639049735707
-0.407937301716013
0.275988295367588
-0.4454396311818764
0.384734203059953
-0.48286330587177
-0.3308188198756165
0.0921138711974657
-0.2766159556377366
0.080553848176002
0.2951627156897883
0.1431078112046976
0.2039988237333951
-0.490887439227156
0.0792207163295086
0.4416644515509763
-0.2492571720564308
0.3327320995310454
0.379892612746243
0.47599736300961
-0.3895800977419796
-0.2368263848055879
0.02683177905843081
0.3821054700314956
0.0
-0.2166041413345406
0.4447374196975517
0.4856458471354061
0.204440969436292
0.400854689890005
-0.432562164871154
0.2899581078664744
0.2518684750866787
-0.280517994460888
-0.440213985297567
0.4091465253099655
0.4832425601688541
-0.02427601242548149
-0.4613635730294808
0.332657727262661
0.3409984250479547
-0.04786651085244375
-0.1627773904365469
-0.2867600347730804
-0.00050475161981478
0.415803937482691
0.4777827626158245
0.2280450779615467
-0.1872991799748151
0.0
-0.0442176664708853
0.2729600556113066
-0.0655004301384821
0.2806640339858359
-0.05032860230069
-0.238919714225396
-0.473085777340241
-0.4609550297697949
-0.47763204930397
0.0265591055612258
0.4811538487794435
0.455013453579412
0.0124095104798683
-0.0984641830846679
0.2806557251748551
-0.29114211803554
0.3914392774816539
0.015233814964045
0.284393333402798
-0.0184608560558753
-0.4726542270047251
-0.029373605383537
-0.105917551844444
-0.2484792447461847
0.0
-0.41420572297072
0.3363753770505395
-0.0089343015366738
0.0364250205789469
-0.376514458247138
-0.2925484340658
-0.478589591856622
0.145787753072281
0.474379101449179
-0.24085528151998
0.01408291351421142
-0.102940475454792
-0.00707000110624778
0.384459246296544
-0.25565284840689
-0.3627070320522216
0.1005319970805448
-0.269140574879526
-0.488391389117091
-0.0761514023309195
-0.0659354483935923
0.2704927793574568
-0.430702223745
-0.0466760987061629
0.0
0.1099102667105479
0.3159484813972397
0.00704947451250703
0.0568530545043892
-0.1314981075152009
0.197721331478626
-0.251533069953214
-0.1517698355377724
-0.310788163065165
0.341102223091586
0.332291764496491
0.387067556701052
-0.455454843425269
0.1299929468007979
-0.3992269242134
-0.391035441230927
-0.1693059377619987
0.3801800494062319
0.0479526771478101
-0.44701790214234
-0.2387755321312133
0.486942771766136
0.0534845383366703
-0.46122817576888
0.0
0.417829230248811
-0.1180410202812177
0.368567925962964
0.3849135125168391
0.429697844585158
0.0672401273770106
-0.2513872383563958
-0.36912038399514
-0.0207908459298866
0.02120399622593083
-0.4324606053076961
0.04418666178845498
-0.203485380322631
-0.30463278476474
0.363319585878385
-0.484859935360981
0.474060858081731
0.2356715348665765
-0.458295331663148
-0.1022911786620005
-0.1001223946783872
-0.3979925868407966
-0.17686141390967
0.2524508340358432
0.0
0.367522137413206
-0.4250196083312539
-0.0083715190305833
0.2398201621906662
-0.246921345240587
0.0675384125394472
-0.399358734613811
0.398135442051918
0.4012541000565692
-0.0808346595641303
0.4206677785237834
-0.2150446986230555
-0.2086228151098479
-0.439432514594224
-0.294726507092988
0.1676672468212857
0.4609395620310773
0.00674666128348266
0.422855018296178
0.41276364377252
0.4981259626761659
-0.111057530662184
-0.2021202391707466
0.00572641684752173
0.0
-0.14598690455892
0.0979439399279258
-0.497573083060626
0.3595909342475841
-0.183504853162589
0.04632178377267548
-0.3939752260625827
0.48935981084319
0.420490349481916
-0.461181321460663
0.2616235314699507
-0.454702950115091
-0.333431092295432
0.3636886790503336
-0.2477006248479771
0.433989046011309
0.485633615918242
-0.061299992651
-0.1207099745195233
-0.1649615541601566
-0.173944522194505
0.08015895566214
0.4127522019083925
-0.4077289657652315
0.0
0.194013746970475
-0.062806927934383
-0.477306635093912
-0.410903903811515
0.144435152346639
-0.069039431668374
0.2524842477132591
0.1509989425902307
0.340588762150724
0.4122480569556109
0.03049729582423754
0.434063508533149
-0.0754803307003223
0.397609804101302
0.396919420721555
-0.2703300966696775
-0.274002994228393
0.334422892870707
0.1946753002182759
0.4353280232686
0.2169615048382843
0.27313821026427
0.24180262706969
-0.4911878555713734
0.0
-0.42031346169493
0.234290431393005
-0.427218895429283
0.314618604349776
-0.318314349015
-0.4821625104120489
-0.208997839965344
-0.1982036968866084
0.2668992788405658
-0.0469922357083177
-0.0377554349656915
0.399755341484745
0.3905115141724656
-0.42858361670066
-0.4235675979890266
-0.315646179503922
-0.4911335243551213
0.472358333895947
-0.3244113613565071
-0.4929318441819491
0.1966964443050258
0.27419091918299
0.203072586689928
0.30945339363216
0.0
-0.1557968627310045
-0.0675978932180674
-0.1003847019120247
-0.148369456404076
-0.365324820263716
-0.0861647718552236
0.228011905893618
0.4783059047261649
-0.043065191621351
0.365143064110542
-0.25024827241988
0.1361288305132509
0.1061085721165254
0.132468908403866
-0.4449571364081813
0.0812917872017301
0.3238213606332459
0.469780829514016
-0.156373080375904
-0.338066213804234
0.2327744935138891
0.435196458916471
0.2490937183001288
0.4757673869747709
0.0
-0.311890256528626
-0.3387294622605022
-0.2274839449340004
-0.424251018179912
0.2223515441633229
-0.2774606324658357
0.482862624715403
-0.02359658068880554
0.002136855929602998
0.2901325416649618
-0.0905310955987396
0.147452476175284
0.1854309244046219
-0.0382761405440696
0.01453477977766293
0.3777467352399
0.02187211312585335
-0.269575677740171
-0.03922115010686
0.1517330456476839
-0.368728903914228
0.165964737593496
-0.3439246750893606
-0.476161883256959
0.0
0.324118409368016
0.1214046634449693
0.2185194466493942
0.4655106581946474
0.1106579874508997
-0.363539896640457
0.1325658954126771
0.2252041465409365
0.4720839475333764
0.2534821174538818
-0.044667629559649
-0.0396938834050311
0.167709766849588
0.463213210366175
0.01469525904711466
0.37693055299066
-0.03959985922251174
-0.3556880001431569
-0.4622749064577391
-0.2953905946019249
-0.437715764274249
-0.2458989024993605
-0.0488623249245224
0.3441680523998
0.0
0.3429340017000551
-0.2904853030827765
0.3444663285797394
0.0726486222420772
-0.0952119164448
-0.24436229235451
0.402553444826361
0.443562969185847
-0.4379632807807891
-0.104311021358064
-0.108170728785644
-0.1778717704362611
0.1299338895743881
0.1030770058806358
-0.189344553976917
-0.2530850992430533
0.2514953960038409
0.0184397265744679
-0.480398832921179
-0.0678601479318938
0.0496030560964593
0.2393244787927595
0.0875184356354876
0.3810317510709455
0.0
0.1786212980014122
0.058515107302011
0.316306925692742
-0.0779532020157451
-0.4520686170634592
0.276648502302197
-0.417646420658444
-0.4577677812641589
0.374355067128319
0.4998965364740759
0.1752472568414774
0.0867435749113352
-0.0419316502733102
0.273114540954507
0.0891807677435021
-0.2902584351156025
-0.33482979342534
-0.3363509629351
-0.1461414818264019
0.03661583105325616
0.426024214315057
0.0980425025587908
-0.153873973986808
-0.306253067961125
0.0
-0.0812543081749453
0.496089875439653
-0.480889864168823
0.2264075712346612
-0.1665524003734023
-0.299516686393636
-0.16188263197413
-0.453816998922737
-0.0061621739635271
0.0683516144983423
-0.1503491497460068
-0.33843740413808
-0.2059998001530054
0.2435607552172626
-0.3287431336180768
-0.45139055985701
0.4391954501129856
-0.2940427176198524
-0.261570724351276
0.00943586442855615
-0.2456978376543408
-0.4106999855224824
0.1228793300579599
-0.1533746817512279
0.0
-0.378870789638822
-0.0470139674938647
-0.267449694817105
-0.1185412900557131
0.0974809054381083
-0.130087757626171
0.3944924356093465
-0.496547543268005
-0.28427435428585
-0.427469011794547
-0.20303730109092
0.4239351196716789
-0.2847774866240183
0.4645831255690232
0.4170851060644217
-0.164499431193808
-0.1850632655735687
0.390416815712451
0.0594190784718163
0.24454533501649
0.0838047820615185
-0.428898442656421
-0.437922547420914
0.3683687500222181
0.0
-0.375419308722086
-0.1834909628472087
-0.168766438000357
0.29117094689506
0.211653918305405
0.0792891633522172
-0.2671271674450901
-0.3536705021452367
0.1809341757255291
-0.2333997493492294
-0.415213159557448
-0.0569296043173178
-0.3467135743078817
-0.072253050304919
0.03575611286079083
0.401567404384878
-0.148428984063238
0.303181628989657
0.327146178591261
0.0705818024362803
-0.493090910171604
-0.48618128341971
-0.375953032346448
0.2075612234539606
0.0
0.0563737781172372
-0.3664836965606831
0.164603797001893
-0.281804096516187
-0.378332901221986
-0.487811841204314
-0.464394004141074
-0.388571145493632
-0.0937654116281105
-0.3775644031989815
0.214085443385224
0.3992437885375722
-0.247591192751229
-0.01100372791330517
-0.324689695427225
-0.1366544732062726
0.0953506183215494
0.1762751194501429
-0.2072273199763353
0.461589271414735
-0.4543700027297602
0.434383936352894
0.4736467313691893
0.2040769712137293
0.0
0.0622395201238237
0.4438480189043275
-0.126727106733498
-0.33566188907986
-0.0675925841011318
0.2271022615775386
-0.197209421505754
0.2242876958767212
-0.1226503738445375
-0.198598785875992
-0.0365848343405507
0.284691327054352
-0.2058215466651236
-0.06046105408113
-0.390344068387904
0.381028510768579
0.0439601706971719
-0.492520215458958
-0.0521480872664342
0.1666258283130023
-0.1629980217086701
-0.3204435021241164
-0.487748942106819
0.00381443217483012
0.0
0.03078154490843909
0.331771058106441
-0.18976134081097
0.367629036487533
-0.364378150244062
-0.2861938153862748
-0.282801737192731
-0.2298276614343763
-0.0470220314433608
0.339407743925673
-0.0664253262742761
0.1779574004564824
-0.3676914103369919
0.17191596848626
0.462818942628433
-0.4657786322833755
-0.4768417151335
-0.174234237697654
0.0323988659952313
0.318683330508611
0.16818947024588
0.359415102847414
0.426992677576446
-0.000430465124945156
0.0
-0.4299368517053201
-0.295577282781273
-0.1301693937549832
-0.192566524304052
0.0733260144079489
-0.354260535283326
0.187278423706052
-0.459753192923556
-0.1921646207814673
-0.498538172277672
-0.1743999241977092
0.265681193789651
0.268520465976563
-0.442972720421618
0.1827895488819505
-0.135275855584134
0.453844133676312
0.2721332884020568
-0.1352626607075775
-0.0446650081042375
0.1140469524562401
-0.1158336898870407
0.1931288986072435
-0.3650140940900442
0.0
0.272801015349644
0.193674486727283
0.0660848671561323
0.3943722211764658
-0.01957317914494416
-0.2113252730011333
0.01395883746582615
-0.457251176613559
0.1873789493340174
0.378188942844858
-0.389790477631855
-0.3820046269969883
-0.413305613822608
-0.2523808725082271
0.02881035412854193
-0.306981299153352
-0.33156903804157
0.331464247018779
-0.0770088101936584
0.0636994663774682
0.146093228765302
0.0280763240947629
-0.409192967790249
0.3052197146243561
0.0
-0.1976077002263636
0.325138706713816
-0.130988866387803
0.0639216400362051
0.29251593029388
-0.00613333034260243
-0.2867089524475673
-0.01212770372475813
0.3306564798889045
-0.313785167064831
0.3868336361952139
0.01120644247999125
-0.1849898174164901
-0.0185728562351308
0.3312792286400424
-0.0920847143835086
0.2062797222579827
0.398953170021839
-0.36686153036646
-0.107896678658876
0.0931534424589612
0.0567065455262633
0.1652690523109562
0.0104092885687534
0.0
-0.2670010746828368
-0.0927998288182493
0.232967493848482
-0.2989773169471101
0.001388687342431138
0.484782972800422
-0.1892187952671425
0.4794252506559938
-0.01763738109501278
0.410078970784234
-0.321595095774697
0.3325238933192513
0.0815988947247939
0.4827072835044855
0.302983432959151
-0.214620822227828
-0.33634046998335
-0.3960164489717451
0.44505120652451
0.06741529887085
-0.284556495012611
-0.466591218148358
0.074609021155056
-0.2218027181891244
0.0
-0.129865974840265
-0.356407223960994
0.188741530794127
0.430555690216112
-0.01248450900507447
0.297187882613233
-0.2009853554189963
0.179188810270449
0.1407324261869583
-0.453600387134518
-0.133428426198773
-0.093406606211398
0.450098932732895
-0.3851570197819632
-0.440367003092144
0.258499204519972
0.1107528891835741
0.3149813019766032
0.01015028011601204
-0.3507400408702493
-0.3746581231487502
0.04017637328609946
0.1951180000322608
0.0411422763331861
0.0
-0.2671156452637
-0.4018229733692859
0.02999241939109953
-0.179601971359528
-0.252816071838137
-0.064885842119821
-0.3748917251151082
0.04229457604909292
0.4992182248131964
-0.3609051749330045
0.0554925309669177
0.3679348477839974
0.1394017860661833
0.0364787705514805
-0.4011045546085423
0.155347277372225
-0.01963754577998644
-0.1188559472155837
-0.0299912192722169
-0.401930274148901
-0.266481041264456
0.4811054704015902
0.1362078865893735
0.32742083652128
0.0
0.1781145547208099
0.470482362194045
-0.3300720969907716
-0.0626866853755234
-0.02212794124259598
0.02580145339832773
-0.1906838540805334
-0.292561592565918
0.0307789825728425
0.271180353221993
-0.410840896998772
-0.0531818326431043
0.1284214323518165
0.346244602283824
-0.1404071339517133
0.2027466295637123
0.461809164099714
0.300916986304573
-0.412365902360436
-0.1276295136258467
0.485532984531081
0.2547117754082587
-0.400342387782249
-0.1915645643837635
0.0
-0.424496596477585
0.1383531811869396
-0.318663091461103
0.0187050712267753
-0.1887748988061164
-0.1357725998857837
0.01479766512233582
-0.3964524213597915
-0.236289218681337
-0.001571773747688354
0.32978933458058
-0.1764816610788689
0.1367036486991708
0.3053880389798956
-0.188236945545828
-0.0632773929459555
0.230538992298412
-0.1351669349650291
0.00802523315385705
0.02188184477801524
0.01909503882941354
0.4652134883544273
-0.129390627395084
-0.00323521322231412
0.0
-0.188660576772263
0.0596862494248737
-0.302166578332834
-0.180256946167388
0.03430786563228016
0.1524509072239191
-0.080290015211594
0.2296188716556559
-0.0370955203995818
-0.197298172465552
0.2221529714457726
-0.403685346776222
0.250459352180012
0.432110846734673
-0.2818185202399856
0.3492260502493038
-0.349060460912968
0.4308627731465226
-0.1797750612763324
0.319008554341036
0.163980938281066
-0.02016160929991783
0.307026738796287
0.4627967013560041
0.0
-0.2117882833509602
0.2123710556989916
-0.0628428217041414
0.3636524279900329
-0.2693013242777323
-0.28264173724598
0.353599588120299
-0.3330110985980264
0.1522783476465536
-0.279135852268474
-0.1145114319401259
0.421205376530338
0.2855753076145
0.1147626287086187
0.4797674587632082
-0.105451752852218
-0.4797113767001688
0.492635444374462
0.0549155196181337
-0.3407068707322621
-0.393286319509332
-0.1646946350372333
0.2549480009205211
0.304185936872102
0.0
-0.431272701920144
-0.303325729411742
-0.220913029224186
-0.370681922135408
-0.4291028661711051
-0.129643303533811
0.040381449332939
-0.0451506427814916
0.2039091189331789
0.4248218922618949
-0.1087401422832913
-0.1274312703622011
0.02799993457848026
-0.3204246736180249
-0.3105744684027308
0.267047317040725
-0.074830380931671
-0.473794274451548
-0.4540775982068717
0.202447834344135
-0.300345581884717
0.1653912179525637
-0.3085742053080867
0.2959481890836802
-0.271827464673995
0.363869543937349
-0.2480658998412471
-0.4000245046539341
-0.170052883660979
-0.2217541785512834
0.2512254068412562
0.436576792635567
0.178216238523602
-0.1358141290908956
0.129856403565391
0.463268548349099
-0.232088039706466
-0.477181385074692
0.0924828590583394
-0.00837817355206582
-0.0514051772196576
-0.2972077405654597
-0.318366516278534
0.168037210261596
0.02010141655661512
0.412928835606174
0.469470073711546
0.0413297031461484
-0.1397142706781442
-0.3074744809992021
0.3628199785161143
0.253072003189857
-0.083521460580355
-0.00468813493334541
-0.275703118717609
-0.1215663387231368
0.2595727411694016
-0.35020682492131
0.312500658675165
-0.234285441499636
0.3937891598759989
-0.13566536876989
-0.0162410791709718
0.396645731343764
-0.0703104505999574
0.01425859622073255
-0.274013992679821
0.1372521858366182
0.3400220684294812
0.319919925968122
-0.0821664715658904
0.06168421440829996
0.3610460733816973
0.0414749039429803
0.214717317556612
-0.476051614960813
0.269314650709955
-0.4673937002477398
-0.343967542155872
0.4028332757557304
0.307048855792082
0.144942416967902
-0.237189729061856
0.1233094823095799
0.3986954032360826
0.283975789667349
0.1352429645835455
-0.3146373912352531
-0.49341551461375
0.00991145784046232
-0.313829679279877
-0.3128416015047188
0.0067057905443536
0.1498131607514938
0.465935786232829
0.2065085949025783
-0.0788402849596804
0.226162475801057
-0.325750997574603
-0.2325314107133882
-0.322287497529684
-0.215693924514515
0.2678280630285432
-0.327445515162133
0.1825471101742638
-0.1539099515458016
-0.3515028647392488
0.2290393186345177
-0.1105043399653171
0.1859258577584801
0.18316405219567
-0.337795339281648
0.083108099987014
-0.2014983075391634
-0.305618433856708
0.323276067367853
-0.283905934745533
0.1734884645941282
-0.298704605439853
-0.403957100324556
-0.2895814043726868
0.4573748349014611
0.3780940187611082
0.386163994498848
0.3194674030033255
-0.4510865592700503
-0.05931814790024847
-0.3927909977552358
0.0
0.2848238307722793
-0.18914606873939
-0.267754427855678
-0.4469758894313894
-0.3600961279491604
-0.0887383404547378
0.0448734062026041
0.474984424512265
0.1466762807003212
-0.133766757637874
0.0841118692376632
-0.457797247172184
-0.0996709786401156
-0.1349659999154797
0.1312973707013088
-0.108101987999562
0.284560156377003
-0.01256998954601673
-0.3622471941902959
0.153978841139604
0.3389112184332655
0.0667258266912212
0.1286759358674136
-0.302446945351641
0.300412886595622
-0.20184913946977
-0.479093853741708
-0.01134165081260285
-0.364908836961381
-0.419998373081264
0.1132944428834591
-0.1142997993171472
0.327036872034809
0.1026256407408411
-0.381543978839075
0.456338867044701
0.475599938429024
-0.1232709678447464
-0.2237699853367569
-0.2025652470862713
-0.077918587398015
0.2114895394796225
-0.409478542964437
-0.441768945240066
-0.074754375043957
0.306707181054468
0.404027989351177
0.3945231713840502
0.01941213902736971
-0.2992556373186061
-0.03838221679012987
-0.475627904895686
0.2803231948869445
-0.3935597039125784
0.097444834572125
0.399544456429004
0.461344705796758
-0.3984899902119055
0.3193484887129305
-0.2363237027581265
-0.499435799940052
0.324698615869055
-0.0391446210972896
-0.487498099500375
-0.385649544733444
-0.0542171062984523
-0.256643928647811
-0.476284425215832
-0.3947878986327386
0.2426732377931011
-0.2441722456393102
-0.3301975117486929
0.244765455428626
0.2447232329694025
-0.01024225703854786
0.1255356948349306
0.2472915590297781
-0.16137595206067
-0.0638728429328515
-0.204891168428524
0.372431900219705
-0.0681718214663058
0.438362992291844
-0.274284391798514
0.4188597214997602
0.353761821470616
-0.3977738540933979
0.1246327952433908
-0.131628517478069
0.3393787920311873
-0.05485147657341893
-0.4205934698367
0.306988679317494
-0.006709775590736
0.39734491172179
-0.03094143269080973
0.1741632172829762
-0.204994510904509
-0.251190486140471
-0.3636818735423218
-0.4863350492859478
0.252817887552418
0.00845961462122235
-0.4647917599086477
0.0739435877160077
0.0661426235920835
-0.434673743462426
0.4385762216252292
-0.0322295623142427
-0.499913545679706
0.3906520421758804
0.3188040750810069
-0.087340495964313
-0.1671189271689201
-0.03647356494898179
0.449764105148231
0.48094885459183
-0.4061898737540735
0.466600836777872
0.358805608717869
-0.486642378178013
-0.48183558816519
-0.4715923822799502
-0.20741743887745
0.272617216676293
-0.3410359125627553
-0.3780630458626
-0.2831508208364793
0.0
0.3544087473294048
0.2705906040219495
0.1637370052879344
-0.05658207308394
0.2386884873354755
0.132646062545944
-0.33569450158863
-0.4068454764751948
0.0865655060684681
-0.428733642743452
-0.3721514249164973
0.1081054996523315
-0.1115970656678638
0.085795244271018
-0.1089048142110459
-0.355067074267729
-0.413363359371851
-0.497578467079751
0.358001870175134
0.0504515030299803
0.03588119864721317
-0.2487870863297464
0.484131031714349
0.249017485874906
-0.1043378034443346
-0.286741267355215
0.1788806713171702
-0.434807640862165
0.0983786679442537
-0.1306003396657
-0.364146084045134
0.2583650822280436
0.36532997031571
-0.101387821673203
0.4636046236249531
-0.46108617058902
0.4173381075180302
0.37532743554465
0.1398977519159805
-0.0953255707816438
-0.492481229403249
0.088873778142811
-0.0974622528006177
-0.167326055592023
-0.2127096740462258
-0.331462640527574
-0.180203738940685
-0.1114995555065226
-0.495109584160429
0.0281864334748999
-0.133379295040285
-0.0767927260546077
0.332947304592859
0.2780321646612864
0.1095279419434277
-0.332398266087232
-0.4406876253181497
-0.180589473138347
-0.467127981331271
0.354978061198972
-0.3399111046361047
-0.1418747743806838
-0.267971939489894
0.147972514189476
-0.3467081384432675
-0.02876289133783549
-0.1993949160612078
0.03405130730748484
-0.219604135684414
0.2782881579930831
0.34496946900058
0.315117840924608
-0.0681134232841792
-0.2451768597102579
0.193382397886112
-0.292330752258353
0.25807659858
0.2197553604838983
-0.296734283629798
0.427828775832022
0.3905265290185
0.01216887431398461
-0.1890881666869873
-0.406929818742476
0.324850313301165
0.3728357755218806
-0.4587562953179351
-0.1775126477478106
0.1937614717352451
-0.2390044650726321
-0.382363296469914
-0.3280909402413443
-0.430109228553162
0.129120813329564
-0.462461798723881
0.2834837224315408
0.28137463883189
-0.43148278933771
0.2728165937275587
0.4181102811441037
-0.0639067908627217
-0.064944780636782
0.49602060831319
0.0587705875290386
-0.2828025386421315
0.0812260593656561
0.259504384424128
0.01161228883385745
0.1796383748178023
0.0722361869589647
0.156958467182193
0.1359383284822751
0.1559315108645986
-0.315987509889869
-0.221453601595157
0.4528964958412673
-0.4048217553497839
-0.4904171393486659
0.4696743389437809
-0.340061302567468
-0.197649347965086
0.474218669481135
0.122275373107111
0.377999473254901
-0.0388308835686472
-0.1335251148280347
-0.442155844500787
-0.261044030654236
0.0
0.2258316924904791
0.231933951646931
0.448684267333069
0.1497821821588429
0.4379949838855947
0.1434258687520494
-0.0744770198138884
0.3453746295070776
-0.0642245864124306
-0.174382402648481
-0.171054072654057
0.0328758703076295
0.200343649217141
0.4963344748713307
0.0628350829663998
-0.2891089413538956
-0.2792914710785353
-0.497412966057795
-0.03457698798578956
0.332403578605129
-0.2980099767346092
-0.2896010308479186
0.0837262709334817
-0.49461469291729
0.474237926818839
-0.333581389267451
0.154147916571632
0.0880832939536887
0.096147086488588
-0.00508487556087744
0.3608111560433745
0.3595010718842346
0.2764941178891059
0.403720860623807
-0.2177209344648386
0.339218572160319
0.0168234552000455
-0.0362270091791772
0.466948971189498
0.1569904596544581
0.272680985340426
0.1653557505359317
-0.292354058814568
-0.2883558887930127
-0.452624253271654
0.212344744339996
-0.4565984051229361
-0.467610132118538
0.28174834364737
-0.0687907282285533
0.0652188258800336
-0.209682371595528
-0.2608450222232562
0.0409435518787972
-0.484829406653387
0.483868507304892
-0.301906807450611
0.4410705071821613
-0.1177290162161014
-0.322721369318449
0.400244171221093
-0.0543600353769289
-0.1881562027136313
0.419978812689314
0.2125440325807925
-0.4380676800105931
-0.30038681639241
-0.16448317311145
-0.275247569047389
0.345265790867096
0.3204689717736499
-0.296372702058103
0.0383975468723668
0.1006026181583197
0.1818970977566758
0.273509935144089
-0.1452867373200268
-0.0048153514345087
0.0483650748070011
0.0895376076212088
-0.3811709269834261
0.02915918958107599
-0.4933078149092877
-0.203381928445246
0.2333815778889314
0.1519091894010011
-0.4585428942297279
0.1587642694484524
0.332503462858243
-0.3615724547922205
0.261294009883903
0.203046398711705
-0.321037784309775
-0.229457559692602
0.179434681255575
-0.3434290688072172
0.01495349044457394
-0.0766334443877996
-0.2475918132586063
-0.1842902123103564
0.397179810831819
0.044985484665837
0.02184247128796934
-0.12111907273384
-0.099253418560363
-0.3885267605612048
-0.171297500022453
-0.2452548599200914
-0.264575673124791
-0.0818766352986868
-0.442855905449961
-0.293326983282135
0.0667170751620244
-0.165247974728977
0.4536409483199431
-0.1434355199949963
0.1851108193312204
-0.1068732480596972
0.2508148436047248
0.0909019592030005
0.320881850298134
-0.213393397668536
-0.497495718353621
0.3531450287089955
0.05172390557509054
0.323372598768281
0.391951771141111
0.1863699720528034
0.0
-0.146800786608711
-0.0639971678890475
0.1310697239749304
0.2716046856586652
-0.124767019041888
0.0175865948545597
0.13600684542402
-0.191652304351193
-0.353387439807151
-0.2682317633607208
-0.437154142096663
-0.05736281449195368
0.4577954679605551
0.0992962540020172
-0.2759598167802057
0.296680721069857
0.4449169732659409
0.0506291886356257
0.466309775988305
0.253879486212659
-0.328575614500499
-0.0447036597072071
-0.312946858747057
-0.3009850229118572
0.1248970148659586
-0.3653606446486027
0.0699219620758153
-0.2575481870745557
-0.297826209331104
0.122213660417738
-0.3516125167197564
-0.430819896259751
-0.2261177185477668
0.3148085448922268
0.458499803890739
-0.1580372578648547
0.2528187181721327
-0.20948796712189
-0.2038492276884494
0.0482783414574264
0.02051483853668334
-0.152954094624742
-0.346620562599751
-0.2239034935605381
0.1007461350656231
-0.04732713425961665
-0.1891351439927165
0.2823739001813434
0.4738775577735867
0.0844918264536055
-0.2719152773248364
-0.1809360447350426
0.179435780734905
-0.4640454839898844
-0.332650349722942
0.371755157401689
-0.437416986682772
0.1376642875798439
-0.192121633876328
0.147942485831078
-0.0549726519062017
0.470472294109457
0.1210397087883444
-0.310932762527885
-0.0477591653472957
0.4736466474964502
-0.4109323331317684
-0.0893132600465216
0.4761568412997
-0.2821617670030056
0.4940541541843991
0.2928481686098197
-0.29525814050706
0.456358993478165
0.38023806006734
-0.343061973786029
-0.1226707525846727
0.1089300435821387
0.266872001210341
-0.0504071738157461
0.249765124036006
0.05963804641345027
0.4910495880446954
-0.369793961544517
-0.091647825663248
-0.240561056250638
-0.326888022032336
0.0866499777377391
0.388237411758779
0.3369010922967199
-0.0275658920186258
-0.2013009314542876
-0.3522992037402292
0.04999323082952833
-0.343119998235778
-0.381114516335456
0.3323113892434117
-0.345565285724689
0.445836695080771
0.357376571457561
0.295974836083695
-0.25412702598571
-0.270235245614442
0.252092007130514
-0.4358157371809654
-0.3782504427112469
-0.2498576704364793
-0.1472658706543873
-0.306280698841625
0.4302169451870162
-0.00127974019657584
0.2983128183066049
0.02891167007179906
-0.1987020914625999
0.01724120549925767
-0.220895777348615
0.01049566270012836
0.1954580105663962
-0.3112894650778078
-0.1559168031868891
0.208040034832309
-0.01114529850908707
-0.423678899535408
0.422525656428622
-0.147272318123101
-0.1825209766717963
-0.0565857665320964
0.1710570674758672
0.0
0.01615762504802109
-0.1088585845466093
0.1397464244349675
-0.145988250219432
-0.1931039018843043
0.239602889779842
-0.3507741235683462
-0.1521791247603051
0.489326909008204
0.0671044959256287
0.1722736492836538
0.0593831803537958
0.3800707480847851
-0.0147426505732345
-0.2223349146547006
0.4415017110339094
0.4046651570492524
0.30134097355495
-0.2779946455750136
-0.4037409879115284
0.08818519137042
-0.2320448244485603
-0.0936130176582522
-0.038771955703391
0.1923494347817943
0.4205418647417843
-0.41576185927291
0.253365138534919
0.3039135943862133
-0.0703722134137049
0.1671735208365294
0.066388844937553
-0.0481470146142876
-0.1881396579212938
0.3566317178635639
-0.1740039813867544
0.2482876745099423
0.2961931724981531
0.00173987025458433
0.05091498778113956
-0.46837986067727
0.213441308069176
0.198268408557323
-0.495135650658806
0.016549824416187
0.439921710637511
0.1202827137885572
-0.4030117311929831
-0.270931788689725
-0.24162167839531
0.4956223056115799
0.122578334667817
0.423365292222237
-0.0985781609069643
0.299522096608926
0.3450366197868
0.33111737615921
0.4912288802417329
-0.354528281726666
-0.378698054641482
0.05450785579110839
-0.3836068419622754
0.493423542521556
0.4624471669103147
0.1661387177248031
-0.26841011458177
0.2255507364664438
-0.01423763291878998
-0.3407146030815144
-0.4128704644427393
-0.0442284691379981
0.0680842321722863
-0.3073543053463758
0.170723637921229
-0.2864800983281401
0.1802708763687764
0.3577834219055877
0.364331278412583
-0.0956031158273146
0.1784765643221216
-0.2705344345382243
-0.3897660668303618
-0.3291256918148548
-0.2510205843297148
0.4821574072856552
0.2888569704451211
-0.44545537019068
-0.430917932354281
-0.4320811850821797
-0.0753865457031597
-0.478559287643695
0.428840470097218
0.26357076354781
0.3018650215013015
-0.2008991322830052
0.3036708928980318
0.1552906603298981
0.3986260405661823
-0.1890633491733011
0.0990841514071053
0.2742955234878793
-0.0567631631808239
-0.0835824782708032
0.2141279731087181
-0.02222412539593121
0.028399293828914
0.02541389875876
0.359283377212454
0.02938012530264744
-0.4364394216734478
-0.2349289733574273
-0.0887084567734044
0.1104236714633284
-0.1947136654480844
-0.3429017792589974
0.441180132158713
-0.2217982865001233
-0.0627168550633472
0.115983534374451
0.05934778880863733
-0.417463761729854
-0.4719104620136461
0.280596079989269
0.1282566179019428
-0.2267208865774591
0.49817439471201
-0.00769323857485382
0.015711113570918
0.0
0.001978418429046002
-0.2100658638918021
-0.175234851988187
0.2892486951028605
-0.01928999532455488
0.29354110313856
0.4442558866388053
-0.42532467747139
-0.1154849140820215
0.1344700211196311
0.3624475423040869
-0.41414148272278
0.00608858773621434
-0.4213721558734193
0.2751640553187467
0.155049336752745
-0.1570796541801672
0.3529087814600372
0.072418402295402
0.404592542876241
-0.351146912014743
-0.0485153026905623
0.338380937758661
-0.01482206477822711
0.3939811000394981
0.0482378540926519
-0.328453202197765
-0.1976647101724081
-0.320220746288384
-0.3315227647033498
-0.0752758130116758
-0.0974341962858331
-0.1376637042319913
0.39434234059392
-0.2133874108086949
-0.4148098350248151
0.01109002712011086
0.495530701158673
0.426144799457469
0.2027949806371739
0.0650135936317287
-0.1717709215522181
0.260468757796903
-0.1495622616674305
-0.3487307178449785
-0.258540599836997
0.1632678535387814
0.01793799840293042
-0.021693060737378
-0.4833950434572361
0.1337350018710086
0.422243016359696
0.1442079812285522
0.4906825911666181
-0.0966762210414583
0.411480420340207
0.198507594302097
0.433595108353022
0.1846985963786893
-0.23210698958401
-0.494803777056082
-0.0730109767284565
0.4571709200246363
-0.441408215565485
-0.4104278575248837
-0.209691738130702
0.29384947373304
-0.246053199437769
-0.0641742187450881
0.0127000649166703
-0.1142374252301778
-0.2311843104461853
0.056089207107807
-0.4538639855359457
-0.03046387799539
-0.202154887641229
0.235599849222302
0.41507277009606
0.444917992084787
0.459713696000424
-0.0343345617525413
0.241136719373958
-0.448087427294176
0.2023756037642723
0.00433519146448335
0.248037386558183
-0.145850389616669
-0.2307194522738328
-0.44258726289407
-0.081228772333952
0.2409339259795584
-0.436759154445887
0.1597300767552063
-0.201542252633042
0.02868087378988504
0.425277107107676
-0.118580086826838
-0.2325877302790453
-0.0703549357749209
0.2805206467274775
0.2439429063350422
-0.273822252994013
-0.3928837935005
0.093315795319078
-0.4906251260961259
-0.1851259093123256
-0.4693995021627591
-0.2350060288543258
0.3290961241492047
0.01528495788053574
-0.339285210907249
-0.3833145944010365
-0.4970001929010685
-0.1706632580497896
0.4647329043782253
0.0603959849243973
-0.1376984337670119
-0.151325602655917
0.412238611232108
-0.0842794440416262
-0.459913345968106
-0.071792256662185
-0.0543153152575622
0.0449106662049566
-0.0002683907902060189
-0.4192195490533301
0.1698625825555155
0.1356994864678935
0.0
-0.490083488914174
0.325637736303839
0.2624974225215912
-0.1738038425696364
0.02513740306392453
0.1028548932911219
-0.1150345063315947
-0.39564232140261
-0.4388397860097885
-0.0225186572097647
0.0012943124752518
-0.3346815675791582
0.3854695872368091
0.4185398102609505
-0.2915326060030788
0.180905248749082
0.153926318895914
-0.286120541730474
-0.2368096268825182
-0.2539585414181023
0.1636466055849863
-0.297161571268368
-0.2201879886763844
0.253254947797607
-0.209127973352729
0.1882261022295119
-0.1653069610791645
-0.14265768864946
-0.152372793194642
0.1375287600669036
-0.1969089886100402
-0.01328494748341402
0.268990388049765
-0.00593889538827696
-0.4452041877061364
0.377236786455081
0.0407237949250494
-0.427584950829919
-0.215113488824184
0.253721237080106
-0.3699726198638332
0.4262358022569453
0.348039429311189
0.4472830154220892
-0.12806747161482
0.3139239806524062
0.071458681180605
0.4807126841433
0.291278340111539
-0.129100589799744
0.1978053607734401
0.4065307688226351
0.313545365612453
0.291911273023134
0.0409370670116743
0.067011260842291
-0.0336279273835338
0.0218193177351347
0.3764086493811522
0.2421051050598229
0.4437358524862976
-0.435532354125924
-0.29537802267291
-0.3981846394554744
-0.480538563965611
-0.423694915963133
-0.4764128248874981
0.27742272879531
-0.3893635037394568
-0.2178198897996248
0.402952429747169
-0.134882230320721
-0.1531024866218644
0.03691470676592445
0.02737822400040634
-0.0638949023847067
-0.32514567937494
-0.357780592629454
0.1146883772787
-0.355392297469808
-0.356813754574529
0.2069256167244448
-0.1199575275945999
-0.0264667501245444
0.01097446094157272
0.1491923968721999
0.463170545234787
-0.302225085640201
-0.178138722957006
0.4296555813774358
-0.3922451315967492
-0.0146297811092213
0.23412841059209
-0.452674509555138
-0.230427568953245
0.2294492570384988
0.2497877395325405
0.353672734288552
-0.2059996784089592
0.1465685880385588
0.441485587700549
0.100689143271401
-0.2893495807035312
0.395436783860226
0.445549769180837
-0.218796041487045
0.420756917129174
0.1444114787435749
-0.3932290040108782
-0.2121870700992256
-0.452646841791947
0.1328025593380828
0.00434241053224804
-0.1800779217336109
0.01279145511905954
0.310704559212419
0.1990145733961419
0.4616975205754856
-0.039294323499543
0.132025113764406
-0.1012284375723239
0.42563777755384
-0.1460153764354561
-0.4324463890235521
-0.4259365265439478
0.1187279145666857
0.4260750809574792
-0.3606298935081506
0.0
0.1420024337378401
-0.2635642697072342
0.303515436353019
-0.125656781309887
0.1039116803184145
0.2115263335581486
0.1585437708834497
-0.119113122619702
0.472272264346629
-0.359101716317332
0.2922397181418735
0.1295125354425734
0.4107787473072983
-0.2255594137459786
-0.304987375390665
-0.293017907240471
-0.4661436771960967
0.249205169186797
0.2345887051437507
-0.479794839741978
-0.371283653082014
0.125615146736201
0.403642766469965
0.1175097829195073
0.4347751251418462
0.32704194385875
-0.045430617020674
-0.2659950547388293
-0.199285339851799
0.2731962928293999
0.383083343231667
-0.434291858650639
-0.1359545908481466
-0.1552910281136009
-0.469015871670495
-0.488002903309217
-0.490681746787482
-0.35868052428579
0.0310851101751116
-0.0278197754276545
-0.4021594306284823
-0.01196341974253556
-0.442621638016535
0.1753808181373688
0.007456887270632539
0.434998924122108
-0.04174169281521722
-0.3128826591803407
0.405729128115409
-0.46867549485195
-0.0541895897393064
0.283683248205803
-0.20663414297451
0.2331276413445002
-0.4559979717094463
-0.3551497911943084
-0.4745661310668509
-0.0235190195578454
-0.2889460623557046
-0.3450413812839767
0.0322334594080214
-0.402712018014898
-0.155655932325125
-0.499568393241221
-0.291216014707938
-0.269806144461682
0.2341526725521031
-0.31633278218459
0.464987404822442
0.05208176825269328
0.426110877975627
-0.445864261375384
0.0478136167661765
0.2335143692916068
-0.178816732009544
0.2728633823923145
0.43231165543326
-0.253057050319104
-0.2057648007058806
0.2072999838225352
0.0790599085076819
0.0770038083216555
0.096938881164672
-0.2412845494344024
0.267663701367943
-0.451991218878286
-0.1488459705425013
0.214236811671831
-0.2392712233898748
-0.181644460269077
-0.092620230863955
-0.003460144270464371
-0.1198637187479004
-0.374598692637577
0.0962091393659777
-0.4583589721166285
-0.4242205264519488
0.07164298603315
0.1883507645203473
-0.365731422155079
0.2448749325277257
0.258554319602416
0.255603463824074
0.2663175277734546
-0.291922509625345
-0.00645819625417642
-0.3621201961013792
0.271316003625467
-0.1611054737455294
-0.415957430337409
-0.2935423659990009
0.127642065153051
-0.0341463256422128
-0.03252197217591301
-0.44460197413616
0.198123908143251
-0.488739909750134
0.1551514201724485
0.231210025756553
0.4659536300408253
0.2631313876105648
0.351033655916097
0.2445294412727437
0.1714316458153428
-0.202718160854034
-0.2127761465031464
0.05215344435581581
-0.471804865861959
0.0
0.0973513611218389
-0.488379740565961
0.3913066031708365
0.4716234859832705
0.297576835489433
-0.2402275190825309
0.479379833390172
-0.2951102816377858
-0.183151930847209
0.4618335098698229
0.312398791611819
0.2653997521486727
-0.1963235566928166
0.3457206421611148
0.1747974858189893
-0.2105333625304527
0.1187634174805337
-0.4613276189353062
-0.00423104705795629
0.2386027670068231
0.3141111683147236
0.174608907053015
0.001095310256572723
-0.334522263969056
0.1150157839957223
-0.3560398640507941
0.1209815191379
-0.3301469135164588
-0.0527257591061572
0.1212870465387635
-0.0827244067426106
0.1480244314013491
-0.422844050986798
-0.2252775656732548
-0.161047482615691
0.2696058351706407
-0.147607398001704
0.455477234165458
-0.494550840819602
0.1643916021075676
0.1641141804006678
0.4405312599459264
-0.257245376126446
-0.4794788444030847
-0.34533354321317
-0.0861628566397687
-0.4877056616412459
0.1481269162957896
0.484999320285415
0.0908648836083579
0.43569604817025
0.3476866646415961
0.1619378207709354
0.0982480644890982
-0.308362960586799
0.1012962687615334
0.292866139913664
0.3587913905835631
-0.3245868320003707
-0.160747768989459
0.398492139349878
-0.435017437389862
-0.134960057350142
0.074279062460999
-0.250541438527403
-0.4082757551339024
-0.3058682049595524
0.298914340059032
0.0823205869230173
0.444967603958167
0.1515190792969253
-0.307354666341527
0.327984756684549
-0.256168827478457
0.065374516173657
-0.2399126155566202
0.48832751177764
-0.276199039218094
0.2238143408427308
0.2574148094178947
-0.392221913711682
0.293501908763982
0.05244245570704575
0.141847531301662
-0.434291640810858
-0.3444165882264381
-0.166073495717096
0.312756239255639
0.430746149685075
-0.02859311435290823
0.0830809575096523
0.1058604157736725
-0.0336935291021428
0.4540726218059465
0.3127113803325
0.3894285917189692
-0.1588783293598862
0.1899932236398943
0.1102928973910762
0.2030173406815798
0.0990533465481
-0.3861072403371713
-0.0029861795328645
-0.02678552620060803
-0.49425352845025
0.2197060529200173
0.267484110546857
0.0991254673794221
0.4693193877089072
0.301022491743655
0.2059132532942127
-0.191867413457954
-0.4816807196757685
0.16409119794393
-0.324208502481036
-0.3525552773482919
-0.459114914041914
0.212554095204521
-0.478393030060165
-0.02353466284075489
-0.34954279508226
0.3748043856860663
0.0316377986825757
-0.2041264570653671
-0.1047999071824221
0.0577703943134365
0.0210344654641577
-0.090642711622156
0.0
0.1419236293993372
-0.437387900794623
0.3664336998894146
-0.0331531681449298
0.219209654658121
-0.0318568361995366
0.04762287250254637
0.2777437247438445
0.3086436803510984
-0.266523249580743
-0.131810026440425
0.48880230629081
-0.300683306548769
0.4952714289304215
-0.227755421956224
-0.4829957168773736
-0.01626680827821003
0.0903021505137566
0.36826881306951
0.32731612210165
-0.108593310010994
-0.38291259108673
0.4497504871922014
0.304095965717534
0.4635789632992509
-0.1430989793360012
0.325938331919673
-0.01526412237753205
0.132692840027632
-0.0831852184178799
-0.4154085435076071
-0.173179063537902
0.2877685388267585
-0.38966035001581
0.489760889602539
0.332135077481366
-0.145517494656096
-0.1223210923733685
-0.3067992539330177
0.3218675182652247
-0.318640785716865
0.3486544860612821
0.2957394947677769
-0.001541773118369782
-0.458293588035864
-0.1920645448850866
0.400457917246071
-0.2864785411407214
-0.2856564986966785
0.282942654552139
-0.496363872860914
-0.192576682496535
-0.296914573501461
-0.0596920000757911
-0.02873206416635509
0.2403836163744225
-0.1342857114834021
-0.1054399039661598
0.0631703827241381
-0.0106711700353099
-0.1167176645403564
0.0570960839106328
-0.124205716165351
0.37478907742877
0.4747954052649704
0.1146266097989906
0.2454614520958463
-0.443273224542503
-0.461209009958973
-0.2218193345317427
0.3701861498290226
-0.3956504881382927
-0.280865217942542
0.3089020082148137
0.383086716258465
-0.246492854743489
-0.1354825019433977
-0.378144225587592
-0.306291709777578
-0.1763446786710638
0.3731601855406113
0.3231311717949283
0.3670090651837818
0.3393827033757701
-0.4336265943472664
-0.1004624033243032
0.413463534638398
0.0287662004028457
0.25909963695368
0.01341494939242049
-0.4552549445468081
-0.136994195970749
0.2348010764182645
0.2932282602927
0.073298845228699
-0.265727337225338
0.459749836399762
0.2359278758814
-0.3538966240553057
0.0737085177572358
0.3400547231308733
-0.03400682830453538
0.2824910016443301
0.3992713380699852
-0.0727829066044806
-0.01290865271774488
-0.333566109128906
-0.0737181362796601
0.456771550988309
0.290648983266418
-0.4312415871266146
0.4672874056950655
0.02771992952478108
0.436850520441819
-0.1998612607077878
-0.2430896809950078
-0.1105613305179473
0.161081722553522
0.4009054247745207
-0.30580006523419
0.360989898258492
0.337137035668381
0.0995521158957909
-0.335082550060662
0.01738769643377935
-0.2894356763165326
0.337880155388529
0.2511653173873039
0.0
-0.4897834919642194
-0.0234822436419813
-0.0745159728380684
-0.14351325261505
0.2092050082876454
-0.184509003766355
0.1966520997733657
0.01314104255045767
0.2334325674861201
0.364295710550955
-0.2062707878257311
0.0378942532377807
0.26699439196883
0.0099515000549537
-0.228695862026906
-0.472713697700554
0.2262254517209981
0.193875894979808
0.045692008879286
0.385724499687
0.1996064432527013
0.0998791763079608
-0.0654523558589472
0.487296122652165
-0.302923298584479
0.2090769949462529
-0.3787350838047184
0.302943722246906
-0.0776338499206129
-0.4430579904085485
-0.151198144683458
-0.3427447425330105
-0.108331555017445
0.443808192230056
0.2503569078833578
0.4442371413954143
0.2169356119643195
-0.0258975144353398
0.168836090217805
-0.344584883486158
-0.256152817530885
0.3629527779744916
0.380168604747077
0.323127482769695
-0.429635377716286
-0.462068835085747
0.0952658655598668
-0.4292343407420845
-0.262006058588008
-0.414665828206057
-0.3723643025554359
-0.0175544134966753
0.0900953546516486
0.3718383429546613
-0.0382092601925279
0.365307734582233
-0.02471715522836048
0.0688625739910081
0.1007442645573386
0.367183436902504
-0.002595958776892337
0.127372926693399
0.4544387505341115
0.405285283935047
-0.0700200886601348
-0.1899768297651478
0.0158072829518535
-0.05832330478513847
-0.482435598997661
-0.0787711550855152
0.3443736021987332
0.1403265739035265
0.2179993923018442
-0.0480005532513891
-0.499549919616108
-0.205648642933213
0.1529318355383526
0.0745831915421565
-0.3825025921680623
0.1451562174248862
-0.2166567673565824
0.1320756991077153
-0.3020005318870685
0.316420987977992
-0.2445235198708052
-0.4874417261877964
-0.1325707997398116
-0.1909540077903628
0.1595886954748576
0.202319969846281
0.357179891050533
-0.1142350421993467
-0.2057200133258376
-0.382680195436114
0.2598416681491404
-0.0390452284925759
-0.228173605327982
0.435084951896718
-0.362527204905382
-0.4845804423865125
-0.2396598569056278
-0.4104275063477351
-0.391578837649749
-0.4999889051098629
-0.0773625856633478
0.493218975979572
-0.0160011717180625
0.357880754639942
-0.2931066254049632
0.152368298597844
0.3424139245017119
0.416906804927622
0.0568485525521329
0.4909460886177471
0.4074082132677545
-0.1987779303870065
-0.437181886861139
-0.319574347134658
0.4778846805409414
0.164285631907648
0.292522546108857
-0.00739995355399902
0.2079728202568528
-0.3555849309771068
-0.2433043304420695
-0.2299530834741396
-0.1957875436450763
0.351345731792684
0.0
-0.0843360222545864
-0.39855131382773
-0.366776727247983
0.296635544566433
0.3550501448871775
0.259274869572578
-0.218332002289689
-0.087467258139338
0.00515916051814047
0.079932403546482
-0.2624368149243392
0.042032545364608
-0.1098392303989574
-0.316471156313482
-0.272286162911851
0.01557955907950647
0.185067154789674
0.450778928326459
0.389984520190292
0.1361485715604063
-0.0912901393563958
-0.1518842537287975
-0.1772349954344878
-0.4043248976669159
-0.3366514666318365
-0.1307665954418606
0.3945398208433
-0.00644224746567045
0.371899890666594
-0.0899029188023017
0.2007163451145027
-0.0522638411901785
-0.475415451063847
-0.1418332802320093
-0.0799284767350546
-0.183189893633543
0.394589288113319
0.0448250402671495
-0.4923391168652593
0.2018829434432767
0.1264275043943681
0.236229363571566
0.4087977933493993
0.264930233284953
-0.1967814262988589
0.1150159515214519
0.099022896652653
-0.1235234430378184
-0.0161663173532885
0.422544062191638
0.0637385384946418
0.303414645451535
-0.2428333938992459
0.415687114265373
-0.1495640039443998
-0.34117416554857
-0.203173167456252
0.3140016588745624
-0.43196499612977
-0.1741337560608744
-0.4587928004210485
-0.438653024517626
-0.4294673763888131
0.4108055779518099
0.0592432487187569
0.1946823364226374
-0.1321978144070006
0.2843891303066058
0.2569787367817739
-0.0363534532800394
0.2245989999412678
-0.28300718800265
0.198231731723916
0.338511212303699
0.2923536716906376
0.210881993867333
-0.4769342752240056
0.408090973800175
-0.367990636782681
-0.4371057596370022
0.0982580429506941
-0.26599030272819
-0.15263506535861
0.2052879005521599
-0.401375556584385
-0.2078707764058291
-0.0441241633416136
0.2055792764510757
0.05457085269228456
-0.310630930517837
0.354964648483153
0.4018225696923317
-0.214883697952113
0.322272564280401
0.340228252048241
0.31582117795719
-0.370021248101308
0.347761124870211
-0.4695902227788061
0.2978450954583633
0.3550776136264933
-0.2734841935811773
0.2115595908158174
-0.3102722788213234
-0.484864415970943
0.2950347515592115
-0.4667845456022239
-0.317306807165896
-0.1138705561405076
0.1415862144443895
0.172417270708942
0.1689209649879808
0.399694479259218
-0.3116729066938136
-0.0707996582075378
-0.3604289293032756
0.2393068135713228
0.02770216255509083
-0.0556592396297871
-0.235161074342412
-0.2534080906780885
0.387788959219544
0.151276966745246
0.02210742580425817
0.0709838150245093
-0.398961085980461
0.437423722385681
0.156172468443209
0.0
0.01117110880897764
0.341812074455931
0.399716828664026
0.104509596385472
-0.0274535223877536
-0.343348417919755
-0.2207692594438653
-0.1113476264791953
-0.113253248551695
-0.04220827353159
0.4307876465043525
0.377438088564007
0.4264217561474561
0.125698434855712
0.180309249854076
-0.4479388605301387
-0.354783845602578
-0.2370396109250316
0.1459891033167047
0.213733172436646
-0.463965215594218
-0.1242984551908157
-0.2893455388579776
0.45694706330374
0.3367633941889801
-0.203549683405516
0.161498913830844
-0.163221707099045
-0.437784666339277
-0.0733361358918326
0.4873623191593837
-0.373181750775473
-0.04560074899788424
-0.1770165193990195
0.0918475539412143
0.445534398114975
-0.06057007535416203
-0.187626457671824
-0.438655403569054
0.4840373267491534
-0.2538638660978961
-0.336024233752313
0.264953607529207
0.232857946204347
0.4264100739290621
-0.46083047118158
-0.1136577700689428
-0.2551905868728361
0.3901757781544197
-0.356471691663513
0.0833030100655111
0.3394557388280219
0.0871382899221565
0.4213724200407823
-0.2297646309702223
0.4368055405519273
-0.0141989008995061
0.4332270593929483
0.1795274864953886
-0.459459967068302
-0.389595894983168
-0.3171138754872343
0.37967553105172
0.4521650255108481
-0.03223287552693021
0.221055885993051
0.2297411180531473
0.153136652990343
-0.1976545336293088
0.349775206046612
-0.2263406990860651
0.485672624481046
-0.355392100255645
-0.410153446227189
-0.367832510988981
-0.0273191443945632
0.0971193837691465
0.3152300178589656
0.260805476983676
-0.4855423399792584
0.1131598663759364
0.1163139634676302
-0.077951486063671
-0.2160294864647278
0.2098093917416962
-0.02480301313848076
0.1186194380030363
0.25553248026161
-0.47268869976924
-0.474143521412295
0.2733257431292077
0.3437788984611772
-0.203213672176043
0.3429327010490781
0.274067674468278
-0.0781993948721317
0.1400649043310504
-0.2906654173817474
-0.324188271023138
0.02616043490827002
0.283206477107987
0.397968014640872
0.103721359299746
-0.491403835425127
0.103215696756299
-0.00962467798676802
0.378832159444721
-0.0475334479742773
0.309686342639781
-0.0521388902992211
0.1369676767093683
-0.33512068693128
0.42167866771452
0.162028908328009
-0.496373606751731
-0.1908749008885236
0.0826937844314543
-0.2653655846732927
-0.18110324845424
0.4174831532355731
-0.4689534964508522
-0.1334500362075381
-0.2008980240255535
-0.402503277608677
0.14694913273652
-0.218527815047255
0.113165112645848
0.0851304726501933
0.0
0.393232991399806
-0.05957413908165043
0.066984961594462
-0.4711147139747343
0.40025699698654
0.1623426504833461
-0.3126935312803197
-0.250594224385175
0.34784024831939
-0.121228194752754
0.2379312987427564
-0.0236724134351413
-0.269096094557805
-0.2215934199198761
0.1698398435025715
0.1156507645428498
-0.471996078003944
0.247851799485064
-0.02108430110440162
-0.0655017604629716
-0.444568818800035
-0.2446960106004336
0.092027782975514
0.0762527163815436
0.0030642908024353
0.47519841642642
-0.2776222918036528
0.229144255439557
-0.01643202431167045
-0.379999176722915
-0.451152786701329
-0.0578972861451743
0.285539796577954
0.2212826470881508
0.4185089242668612
-0.2210310829770696
0.0687000989428865
0.447321512740135
-0.1621372432119031
0.2502405960371184
-0.3348087626490451
0.4908516744450326
0.487765254902199
-0.066897026027238
0.04873443179834
0.371562519679425
-0.1657518246801793
-0.0949697707653374
-0.166983460537192
0.130131491350672
0.3362556313751855
-0.3758789287736753
-0.38634457508899
0.1440578772797358
-0.0514740242926271
-0.3927261317110406
-0.132468845909504
0.2345725034027542
-0.0229837822658748
-0.22270358092376
0.3833167314272143
0.0435809306995397
-0.383581245493229
0.33411097229409
0.0452159640489874
0.1561092681378013
0.180151017222642
0.419317898531737
0.02298458732851327
-0.1166923844522864
0.488562577980077
-0.3955198667871856
-0.02439610400633107
0.3156609731041679
0.0977853505712887
-0.1348218335820866
0.3980201193217728
-0.445675482908574
-0.481349792408989
0.159881235788786
0.0335220592816536
-0.482568634402107
-0.1347357791094032
-0.2034151854268204
0.05425711757836615
-0.035460689618785
-0.099478966478301
0.14139940231022
-0.4919830704100379
-0.2648435306223896
0.280839285302875
-0.448319713319037
-0.1265298301005154
0.1604643602661
0.43488268599515
-0.447828051412198
0.4931739965074626
-0.237536178313649
0.367524715915025
0.3929793960629
0.2202992220613909
-0.419942445112
-0.2021496809472411
-0.4249946987619578
-0.365217566284865
-0.40456580550123
0.07019965932371
0.319690991606001
-0.44674178333533
-0.484056647944096
0.0650662377780073
-0.3136654355147875
0.213475933655038
-0.2073801121781685
-0.485467674432748
-0.069280024524515
0.458627793627782
-0.1293615678483477
0.2802185165585734
-0.478938855345682
-0.403722671334433
-0.460639229231503
0.350036375751786
0.2372349977157286
-0.4295595923717825
0.32884251998242
0.1085570744843655
-0.086934131915112
0.0
0.254102733284506
0.256208802055226
-0.3716009548834
-0.200762524262871
-0.4658613557075883
0.1542839508619574
0.4653520801990368
0.249387099989966
0.163497072462952
0.06144776531853035
0.0664465787707193
0.464946314090137
0.1855800497826349
-0.4914147584101754
-0.1727175451543202
-0.400850491146571
0.2310978073285424
0.4392488330953787
0.0478825852633866
-0.32729137867189
-0.1939515183452854
-0.420683686575858
-0.252189338577113
0.3197594544167785
0.2164171267726221
0.1974358115828
0.1075440364567588
-0.1770830438114835
0.1577660952386176
0.081417181741923
0.4522346222959483
-0.2751291886071
-0.397482471957134
0.470844036848908
0.118501372089102
0.0861011043679391
0.30380309616335
0.342622407494247
-0.1466613073211362
-0.377264444711049
-0.01178301127382863
0.491558218718273
0.3566578223119881
0.04215768095918115
-0.381411375795352
0.365193703857801
-0.2801845799667339
-0.3447433059444412
0.4037537857308408
-0.150730174604163
-0.282263960439496
0.2061324416697151
0.406440464648091
0.1163041488818548
0.26856617501005
0.3744053911971715
-0.34173495314478
-0.1817841994017107
-0.471191150315046
0.2187878073624569
-0.1493305597325875
0.4455346117925853
0.294561562074315
-0.371030356556516
0.264810370084689
0.0015500226003536
-0.02937448485992999
0.3712190569873501
-0.334614183595165
-0.174696570722023
-0.148696668794939
0.214137804798993
0.236296504638196
0.29075940360008
-0.2341279226908926
0.0380741048310746
-0.15264297199789
0.445755564068132
-0.1427572797256284
-0.319379169110467
0.1114404235538745
-0.187008180647414
0.1689201658256376
-0.068893737054756
0.4951774994410119
0.4300327061534715
0.2164247574942613
-0.00578130818034472
0.299398441804978
0.3347486686821905
-0.3839647576592164
0.31451226779294
0.2002281573642016
0.3001913712397873
0.084467885682006
0.354538563476204
-0.336984919967946
-0.039926282792845
0.3130514733563195
-0.05826474081231447
0.492960579235353
-0.399719860648425
0.274378181849178
-0.033905583315263
-0.4326315033544635
0.0540988154963009
0.151663864138948
0.3491545658414013
0.1063496113985371
0.359116643378724
0.176562635162743
-0.389355821895616
-0.1734470494704646
-0.23584238838249
0.319990631448337
0.449705774396728
-0.1476964041661027
0.406912156721931
-0.2184823950900053
-0.1108900657951368
-0.03668560007388954
0.02262645499398496
0.2367709438409175
-0.428092005225056
0.477178018100309
0.1764392473221124
0.01305377602416579
0.2160083191538744
0.0
-0.3102075363391426
0.0290929221832582
-0.1971265103938183
-0.0647528569407163
-0.310087012700226
-0.02414443591617976
-0.39453082148394
-0.43855152824318
0.149820891757462
0.332473854839175
-0.473624405161566
0.245530624364758
-0.02181385694541615
0.38350541063625
0.409859936202358
0.2023978497395174
-0.0528706961784399
0.382173794493366
-0.3451668406312593
0.3407317918053237
-0.01042814718818363
-0.49602332845588
-0.00602829015100725
-0.25272529752755
0.4373113234231368
0.0089960634952747
0.3398495151983589
0.463469749151933
0.1622786739661049
0.1698418565672371
0.0829987102603421
0.383553796885953
0.138044283392999
-0.0505373056720271
0.270423850961665
-0.3704088544983531
0.2563242226984402
-0.445146437344016
-0.0168152944266247
0.364278622089907
0.1116056400042004
0.3635899902643403
0.1809750325501697
-0.1948415608861314
-0.330976097187616
-0.4182994849187997
0.155178533024791
0.1336778098695741
0.000890912701613566
-0.01625073939194132
0.342400464609584
-0.4586088937007869
0.0764005913971537
-0.3812062363197914
0.1101693242432916
0.4881161933855987
0.0649183262368053
0.437392819324794
0.1221983193844656
0.1516761730775716
-0.486739011451476
0.058079596002831
0.296451243300664
0.182069338378524
-0.2433478679220527
-0.358061793315933
-0.222021936896487
-0.425850190352867
-0.370726784497714
-0.29032782382195
-0.321193054887657
0.489066366998574
0.068580742330884
0.3984495134282445
-0.12493850052374
0.415421420768863
-0.444754740731693
0.414655715242985
0.1609930857592872
-0.002207410112517682
-0.0162561809925656
0.357154844680106
0.476437210440611
-0.151077139571112
0.1060753906799212
0.478520644563636
-0.1282299071846062
-0.2388895697407393
-0.181403965685701
-0.003611290997840632
0.396097809260915
-0.1135976423020432
-0.0908017437100608
-0.3588364117697595
-0.1444616444938171
-0.2840573247413441
0.049876911876284
