-7.967941082833774
0.24352112009790547
-0.1060465350022563
-2.8514257512682546
-0.10639250044917722
-0.19800828563326234
0.27617368665016806
-0.2592849062414424
-0.4399181745066274
0.06047648225263789
-0.12133238476782551
-0.6956979017487841
0.1889838182186023
-1.5885982359196413
-0.39123527494647
0.1550211757322902
0.20893874115816408
-2.56585442985658
0.05865546469670008
0.16228445544237696
0.1935674988004472
0.12471712004022197
0.040398146095511525
-0.04248375913455942
-0.0512812766754679
-0.00022670050292239615
0.3824571256874808
0.3267927956789164
0.11339578893456036
-0.10920698251549467
0.06878971094588382
-0.47006220918597075
0.0003824896721189398
-0.2190162894793144
-0.1508282087444544
-0.4648305966253752
-0.0882989487076476
-0.46242532527025
-0.1832951724690491
-0.3119149427341
-0.1589083330476838
0.030841239617026537
-0.1927626793117288
-0.3798899814160193
-0.4325252019143554
-0.22540045134914347
0.056077546297131
-0.37801313329814
0.45561568724617696
-0.1524424882970921
0.002390248307445107
-0.21937068390284195
0.13640000299875674
0.03299064719575193
0.10348406326793615
-0.4984070705618821
0.36747291041627234
-0.184686541939728
-0.14492524971753326
0.09124991304890294
0.13411037437539647
0.35787178708526474
-0.1955563454892214
-0.056051377750345535
-0.45730518486495664
0.09420691804657436
-0.20904872372420236
-0.0797395324671864
0.3617274336566452
0.19287041390565152
0.463434036300844
-0.1938589085278358
0.4091835274185097
-0.38616849774597745
-0.12361024988374414
0.00761786533400467
-0.45795865254125845
-0.477531845223752
0.11485762416569938
-0.05322421736321039
-0.18040247073502502
0.2676953794806318
0.37494006294798427
-0.3568817411623538
0.12260772433000897
-0.12595377042001232
0.33131838816797454
-0.18839664264434103
-0.052676899445971065
-0.22937991262766483
0.44714280383795946
0.11350914349316935
-0.18603359832882146
-0.41598824918583605
-0.11064208492084195
-0.4528854595899968
-0.37669632342628756
0.41455822708321877
0.3214738187877984
0.4868317027363193
-0.0015229333816054486
0.04606212185922947
-0.20305740835774475
-0.24326356238604194
0.062006007248717035
0.15653316583050472
0.4596355258194551
0.10882110568028315
0.22639487797404165
0.44109053439354257
-0.08587180530019539
-0.2145546244564101
0.066077955878504
-0.08510636887556294
-0.134170971349043
0.09877874258955323
0.4955570927590095
0.19040280703258672
-0.09217216216847714
0.298842797058855
-0.05681215171640317
0.167677883951549
-0.185700810567778
-0.4688538589750123
0.03527113763394846
nan
nan
nan
nan
nan
nan
nan
nan
nan
nan
nan
nan
nan
nan
nan
nan
nan
nan
nan
nan
nan
nan
nan
nan
nan
-19.467322130073928
-0.46253899656072006
-0.1129930365132246
-7.231568785578134
-0.023993029454277424
0.26217091229191725
-0.22398648313919112
0.26562340165018017
0.09465841519695142
0.01033705909923734
-0.5490580291839333
-0.8544658498870632
-0.4042395664041228
-4.124629623197349
-0.359240239763215
-0.055202001124043165
0.24917615030674783
-5.434050538058473
-0.46686228593186685
-0.43030320138913886
0.19504398373760465
-0.19260800878573528
0.20914426190900445
-0.14925980357789312
0.2118765887361882
1.1519275474900033e-05
-0.24494330010501292
0.3655947174249004
-0.4544604625145497
0.2734732975221273
0.03591180070209103
0.13337627908404
-0.04757281520362
0.252902837408915
0.2550295198574397
-0.2709588733345124
0.3239853945898784
0.042920486409173
-0.31107981319703154
-0.14166002930968
-0.06861056727727623
0.2102484588969828
-0.03181349520120847
-0.1462937404286111
0.10119572719300753
-0.19553037586125463
-0.24030236156787
-0.4919723945979
-0.45968544315567234
0.02295521622888425
0.0
-0.402811683624135
-0.30353630682179
-0.2950100547535
0.22946468404284
-0.23497034535261
0.34898035795194
-0.091704572339722
0.196977985834757
0.467406036575
0.411989548928803
-0.35856480798492
-0.06700959056312
-0.30801056785067
-0.222491443085461
0.385895865947349
0.39957116484096
-0.171476969787068
0.2936256524846
-0.39881472514519
-0.221442504236028
-0.34635880609453
-0.069894397120631
0.143995932143249
0.202541468621006
-4.569869327240079
0.10226735473164399
-0.4483613521752048
-1.7965097601856375
0.08427220008178665
-0.13419532712126847
-0.43382377324561144
-0.337910415559922
0.43450099997150426
-0.4699798789591219
0.2703721712760265
0.11887360341923145
-0.4311302387547084
-0.658525855512444
0.09850551297521
-0.3412394538505106
0.4483989943149417
-1.23678420938994
0.013738404604320263
-0.09464367494187469
-0.4102842870330711
0.10051120799481657
-0.3785414922244614
-0.37593582781706597
0.32208856453913376
-16.009345717230087
-0.46427206065973703
-0.31818793685946073
-5.768126141672461
-0.04567966685340509
0.10594450578044841
-0.21031814144255126
0.16817939781086116
0.35174957464206075
-0.12106611352588884
-0.020697905475342282
-0.9995247871650252
-0.48994512524047057
-3.220054110896344
0.34222067747172
-0.29502042547786145
-0.3071973920973393
-4.803317533298383
0.5091992454485103
-0.26254480064095476
-0.2581633547985095
0.41610430585362157
0.11170504371083126
-0.13612909091911338
-0.22544340009618088
-20.391156501294518
0.02978562058600831
0.03977079705396338
-7.112278663626496
0.32316478347953514
-0.3490625643441471
-0.09846433034325779
-0.3638017898409939
0.041407119716697784
0.16713302315189346
0.17828638852018927
-0.884462391570596
0.2677797520434848
-4.568101856334973
0.113066704329217
-0.2539594661497882
-0.38732353815129866
-6.189864680493549
0.4885041074045415
0.24486863991166793
0.0487760395162638
-0.4034846431436049
-0.00030111041789182894
0.34751811169705715
0.2429720028201843
0.006435496037037013
-0.06782333531902038
0.25957795659039656
0.25459316302416235
-0.11776110187768192
-0.3708018765162245
0.49204252827508754
-0.17125023473327608
0.25953069122382505
-0.324738705628909
0.4451105338983457
0.39392025752531834
0.20637175031279242
-0.30998099504509335
-0.11699983740716184
-0.3750065521852404
-0.0705386890984679
-0.34082790220024783
0.11867804634599767
-0.4677492869744429
0.34700364479425544
-0.49897750274364405
-0.19206322993781053
0.28540547058090915
-0.35776558147907256
nan
nan
nan
nan
nan
nan
nan
nan
nan
nan
nan
nan
nan
nan
nan
nan
nan
nan
nan
nan
nan
nan
nan
nan
nan
0.0
0.202411738875409
0.382406541487182
-0.04968932996126
0.44153426632041
-0.231098786021441
0.050995292294901
0.3516945278871
-0.33208223686099
0.1703063507405
-0.497213108375499
-0.0597911951544
-0.1162645078705
-0.145908295531935
-0.195123267409804
-0.226506770519987
-0.0322791247410427
-0.36757570670337
-0.30787060316225
-0.104827832300905
-0.3312658741854
-0.321397068411286
-0.094783184291606
-0.011860826471806
0.185427503157146
nan
nan
nan
nan
nan
nan
nan
nan
nan
nan
nan
nan
nan
nan
nan
nan
nan
nan
nan
nan
nan
nan
nan
nan
nan
nan
nan
nan
nan
nan
nan
nan
nan
nan
nan
nan
nan
nan
nan
nan
nan
nan
nan
nan
nan
nan
nan
nan
nan
nan
0.0005743310315315472
-0.10847877381310954
0.24156766532065202
-0.38544140740074484
0.1333172628185573
0.029857385391190833
0.3863486831946474
-0.40228502936809696
-0.1999868004150123
-0.0021953231373594406
-0.467187671198119
0.24124211714809599
-0.12087203128152611
-0.007368170109326676
-0.09893475120576
-0.13343743927860527
-0.3658937791248621
-0.4476950730428916
-0.3206229430966118
-0.4940601781894134
0.3848734396459893
-0.2567535678469
-0.44313655893182
-0.3604498873200262
-0.22072976131823946
nan
nan
nan
nan
nan
nan
nan
nan
nan
nan
nan
nan
nan
nan
nan
nan
nan
nan
nan
nan
nan
nan
nan
nan
nan
-15.173088905766429
-0.4394062902363713
0.4159451891294623
-5.388831209934668
-0.392995438645654
0.06205936226871126
-0.26173628900013124
-0.4466689707705093
-0.2647741177182362
-0.06744574521578911
-0.16004261507455675
-0.5885558938688961
0.33902850584419975
-3.271450915049905
0.485689243479904
-0.35931932967285507
-0.49757306751726893
-4.661786536258008
-0.012369872991785106
-0.10314936069504403
-0.008905762021856613
-0.029057484308834827
-0.4472247529906067
0.1722347506852906
-0.2112331450025229
nan
nan
nan
nan
nan
nan
nan
nan
nan
nan
nan
nan
nan
nan
nan
nan
nan
nan
nan
nan
nan
nan
nan
nan
nan
nan
nan
nan
nan
nan
nan
nan
nan
nan
nan
nan
nan
nan
nan
nan
nan
nan
nan
nan
nan
nan
nan
nan
nan
nan
-10.11411636492323
-0.33297739920879643
0.40760581086048014
-3.39842963703289
-0.1111264086551971
-0.1992801097688185
0.08922693052685296
0.1981238801305157
-0.14517381452327613
-0.3129302210400075
0.3121541222835109
-0.417629139330207
-0.2030722938485753
-2.351810069542289
0.47998432849331
-0.6538040855649726
-0.18624874810421407
-3.070024916097552
-0.029153396134198366
-0.3387394194501601
0.22340371283678295
0.07827438502936875
-0.3419523613892523
-0.01967611313295173
0.1667554105488639
nan
nan
nan
nan
nan
nan
nan
nan
nan
nan
nan
nan
nan
nan
nan
nan
nan
nan
nan
nan
nan
nan
nan
nan
nan
-151220793414.5054
-16476740077.969343
-28436.344121120615
-16208636346.459782
284362040.9069752
0.4756033658751254
0.0796211304568129
-138004976.23277393
-270850026.5926621
-284362041.5433864
-2843620411.846382
-10601016547.722452
0.4053968683052108
-59431666601.54988
0.446797656397911
-9508207139.960217
-662942656.2524999
-25308221662.563713
-284362041.1735835
-0.17438344110652257
48341547.24096295
685165694.4258509
-364309034.14139783
-0.42335389206047735
-853086123.0107101
nan
nan
nan
nan
nan
nan
nan
nan
nan
nan
nan
nan
nan
nan
nan
nan
nan
nan
nan
nan
nan
nan
nan
nan
nan
nan
nan
nan
nan
nan
nan
nan
nan
nan
nan
nan
nan
nan
nan
nan
nan
nan
nan
nan
nan
nan
nan
nan
nan
nan
-18.49052955720548
-0.17496851158112628
-0.08084062136588527
-6.399566760381198
0.20525400713814013
-0.05929888446049555
0.4625088157985291
-0.3156517362109629
-0.1379074308241718
0.4333247288108051
0.11145646538736065
-0.6630866724424036
0.19379056473187775
-3.855930638752618
-0.142187586545039
-0.03367225684324754
0.01401420281918907
-5.5735521252019025
-0.18065413214812776
0.38636529418185034
0.2911582404417852
0.128835433017959
-0.1416694978847046
-0.2721653409973254
0.22837956352205996
0.001859124189008961
-0.30910782728349157
0.12307182152312886
-0.4315995677521582
0.020984533143175114
0.3060848532665275
0.3326596904466924
-0.28760003557576497
0.2524271272341013
-0.39405965497704964
-0.3225741096422395
0.42648753721144134
-0.04937009469789526
-0.22190973415289617
0.29121325228511
-0.22308831225059048
-0.28689455050073376
0.16204707963050308
0.042787318335473196
0.22285166340340787
0.04184690555998863
0.0597444071373022
-0.13662398328996
-0.18128294704844886
0.02004086245233532
-2.380492129423702e+53
3.20804269843544e+50
-5.051375676561889e+46
-2.879284208377114e+52
5.0513758041703755e+50
9.629181212588792e+49
0.03963326615552827
-2.451505111458744e+50
-4.811349872941008e+50
-5.0513758041703755e+50
-4.546238223753338e+51
-1.8831528381324138e+52
0.3962083270316366
-1.0557375430716085e+53
-0.328200766074348
1.3933671476930355e+52
-5.051375676561889e+46
-4.495724465711634e+52
-5.0513758041703755e+50
0.2360470144000367
-0.4850432758396099
1.2626138013166377e+51
-6.713436193254226e+50
-0.3692423807137816
-5.0513758041703755e+50
-14.322312693559201
-0.7350192810808365
-0.10706290054261891
-4.975159233913327
-0.24865143787402916
0.09577974758984947
0.12852948492010996
-0.18677213906385182
-0.354379107812483
0.132375051421319
-0.2915985147842951
-0.11636587278551047
-0.3256142136784
-3.44492867689359
0.09166627192574
0.12128671617921549
-0.3121652672833908
-4.39053498622551
-0.47083584146220353
-0.056955335962434926
0.3255558886702182
0.23095192801903255
0.10687221204087438
-0.41989278583318485
0.12241830487753741
0.0007705821573892129
-0.46669402171315155
-0.3646503976096027
-0.25389692280842063
0.22482075330463677
-0.13262091802545145
-0.34732472030565176
-0.06239276766912444
-0.11316915666749128
-0.3305905956315692
-0.06498477390450978
0.09197277436588065
0.3250746197417
-0.17831110317233367
0.16555148626217472
-0.10056151346694601
-0.21936490349049623
0.43974330927096333
-0.0949919407513301
0.05296621236352087
0.31487257721267614
-0.3810005188329556
-0.42480260529345903
-0.08255670059334531
0.24661161346615645
-31.40688038994971
-0.6448540721149875
0.16508976488517063
-11.257318059440129
-0.05815048202897808
0.06836621187392024
-0.16083023239293368
-0.18029149099991015
-0.037037466270894694
-0.25136888777088423
-0.2642387541660448
-1.2221554360940197
0.41739651221906
-7.376046475702712
-0.31576236770276
-0.5185142319712555
-0.42031774914339487
-9.177818967732428
-0.008165171804206166
-0.4696620221724147
0.3128248638893391
0.2236442532717189
-0.343661434184388
0.06516874860846772
-0.6008138006717776
-3.175378167440562e+51
4.279261678254375e+48
-6.738114291845224e+44
-3.8407252433766585e+50
6.738114462064315e+48
1.284452547221215e+48
-0.38962143751228484
-3.270103568953866e+48
-6.41793986781777e+48
-6.738114462064315e+48
-6.064303015857882e+49
-2.5119689892052025e+50
-0.32898053659179
-1.4082659225714416e+51
0.207768474457649
1.8586356851700751e+50
-6.738114291845224e+44
-5.996921871237239e+50
-6.738114462064315e+48
-0.08317148605120693
0.16857614757221656
1.6842216149568198e+49
-8.955164544789144e+48
0.3508676886660343
-6.738114462064315e+48
-781567071743.6768
-85158113534.679
-146969.36556723475
-83772450599.67877
1469692115.3460581
-0.26563148203849374
-0.3292519351967882
-713262658.3507442
-1399856840.6451123
-1469692116.1725957
-14696921158.141996
-54790120281.945366
-0.3654424331177161
-307165652196.91534
-0.15299612562171
-49142062040.31038
-3426341964.994455
-130802598304.31958
-1469692115.952515
-0.20676476481654252
249847662.2822519
3541199154.289327
-1882888846.3739505
0.41713947539929475
-4409076346.832474
0.0
-0.42550771093889
-0.412796348593205
-0.31896001176918
0.49653518681095
0.0054116344734513
-0.353450476876365
-0.01761204072924
0.055460310118456
-0.435566749508522
-0.4974212968433
-0.217852485508502
-0.31676589121523
-0.42633333375222
-0.127388193040699
0.162532755257964
0.30154171123308
-0.424175401312
0.40897479101592
0.018379523324646
-0.436406123376647
-0.333404811869505
-0.34070117900417
0.079998251405032
0.013946900389181
0.0013523506933944404
-0.04219234173739784
0.2958524750558999
-0.4107083106834932
0.36754913259403466
0.3171252025530788
-0.12736409573352334
0.043747464939103316
-0.42800535871047685
-0.0014187519472183658
-0.06389286888821036
-0.45838011694114417
-0.40702927276811
-0.0055353316354825625
0.49021187312066
0.14332267750773173
0.37200336178739796
0.13059312952563834
-0.2709581407355633
0.15902946546422123
-0.058078016485125845
0.39420565119599105
0.35468744121045376
-0.17508681785099833
0.2442340384531573
6.625801840637208e-05
0.043773710760274906
0.19247694609665042
-0.49292712748525297
-0.3579329583806381
-0.43173318373083386
-0.4152148422229562
0.32417462400833
-0.052032775248545
-0.37043570852373536
0.23926861919150713
0.32735326447125
-0.38217019374721
-0.2935163828607162
-0.409780254839
0.3281506207741339
0.08909343433682712
0.1589700826515657
0.17479173806159432
0.06215777527783571
-0.37551699348975104
-0.37045148353268
-0.4555227762075
0.43195894138099755
-0.12261752683770369
-0.0009450717831808548
-0.4943395587849452
-0.10023466609435153
-0.41115742089800106
-0.22918321234026418
0.36916502616822217
-0.1521810389324738
-0.22554878333057038
-0.2303901914902911
0.09339163948482691
0.07965258882188735
0.07506047634141873
-0.161367212408862
-0.2273377836586228
0.34315112979684
-0.1840830805164367
0.39529002636102456
0.4613828895711818
0.2223842304754574
0.46571525814084413
-0.38554505735250544
0.13430962490537482
-0.09484024280501942
-0.0954495372224447
-0.4706052465207305
-4.409132427192904
-0.26998238875592717
0.06268457430243811
-1.267305795874587
-0.4849318298205296
0.31746685562909244
0.0007009615175479685
-0.2432533499875811
0.036893123730270316
0.25303089807550233
0.039234434203641
-0.5499582231063015
-0.29842438584083736
-0.9717806794243448
-0.31191649806546
0.16608352495097634
0.0848865957211444
-1.5517860905411547
-0.10209298662408839
0.36470581516408823
0.14543635285493028
-0.4649224885414905
-0.44646892905786983
0.35570609824363125
-0.21025554832120344
0.0011881151534816846
0.36525853480504067
-0.11530523706503994
-0.05688717610495749
0.3536271554185142
-0.12008210196420205
0.040290478182482665
-0.17330638522818054
-0.08185935194785368
-0.36514111815532035
-0.33137708272115696
0.2456939150022431
-0.02536783436815066
-0.10793242188892929
-0.20479041282415814
-0.2539674978767475
-0.15712382787073714
0.06316778480189807
0.07984367610605922
-0.08540426761223464
0.18215100921953228
0.26550118158059594
-0.163335655191807
0.3970101918727054
0.11414674871502568
-3.1642417525517157
-0.4138311135951359
0.1166095021323067
-0.9676333770768826
0.054960718605685716
-0.39342312054267037
0.2742045359051405
-0.40861953371416665
-0.28968350958277256
0.20860037913008028
0.355393130417676
-0.07252535370106339
0.11915761593699248
-0.628754140089838
0.47032338367717
0.18248226702463743
-0.3686104700404705
-1.2286015117735487
0.1842707739134446
0.42539839489048226
0.11947126805276141
-0.02734116637399853
0.2521536677533548
0.2682338698040671
-0.00039826536436265644
-9.637197965647951
-0.5829371445062842
0.021377154300711007
-3.211957982474373
0.22968128011335465
-0.4203661445473902
0.24685391827579747
0.03616576393236361
0.31534734139796355
0.2092452927521625
0.21167826252270006
-0.13390154551563727
0.4236836865671367
-1.7252462556858483
-0.32929224889804
0.07144930551384024
0.1196523429904041
-2.738030617006751
-0.3314102013085636
0.10162864319616105
-0.23620827583601506
-0.03184179548824732
-0.3436436630139224
-0.42471234535741426
0.09362557845968827
nan
nan
nan
nan
nan
nan
nan
nan
nan
nan
nan
nan
nan
nan
nan
nan
nan
nan
nan
nan
nan
nan
nan
nan
nan
-1.746046070917772
-0.12066092845051377
-0.02572151960362693
-0.8231302525172509
-0.0851829485369017
0.1692648685989585
0.25622589898522047
-0.320190471429
0.18492914304838215
0.373174705910286
-0.33427879840803026
0.3653981877693001
0.27080576631593933
-0.18078070737357882
-0.483200195845344
0.2996857603838576
-0.18558303565492787
-0.32479545782128927
0.30560920294404786
-0.46167908098864074
0.13589066708203906
-0.04344778893939652
0.16538247358783884
-0.42879150841603364
0.41329575177200634
nan
nan
nan
nan
nan
nan
nan
nan
nan
nan
nan
nan
nan
nan
nan
nan
nan
nan
nan
nan
nan
nan
nan
nan
nan
-6.689684828742111
-0.11915286229796128
-0.4098481606314647
-2.4059254645323094
-0.42998275496463145
0.04989211617519562
0.03220568956061362
0.07839680918587291
0.016199923610590937
0.45080741437891647
0.234714744053149
0.22835196297405458
0.49503048338668076
-1.5111791361843665
0.332178009334405
-0.4937044940277473
0.11115280755459117
-1.5613289738916236
0.4199914615884572
0.08088171884828974
0.18935372707638404
-0.30385973251847653
0.1720939845322817
0.2525495202586702
-0.30370884755001665
0.0005060076137261618
-0.27283264464718243
0.359951661633451
-0.28772441348720423
-0.3002891860959047
-0.1270532069235087
0.3638177121445151
-0.007944817485644887
0.08268890276357445
0.1017887253211883
0.43950055505919394
0.049846827542586014
-0.38902368035095
-0.06887081397787694
0.2535550503632
-0.49582088388855494
-0.16074189732790947
-0.32240415482398604
-0.3527877176585574
-0.22464988282156936
0.09321495997971213
-0.13979887659429
0.176781335243346
0.4609282844173388
0.2570886221020365
-523312982444.3602
-57019222002.02183
-98405.78133478652
-56091425234.08017
984060091.8621857
-0.0338624847706025
0.23314912632944892
-477578473.34549755
-937300565.5813434
-984060091.8112557
-9840600918.187254
-36685759021.75328
-0.028096421783495345
-205668559189.65268
0.065476695816281
-32903995037.14672
-2294171923.6324058
-87581348171.75682
-984060091.560986
-0.4239463044202556
167290217.55158523
2371076722.5539155
-1260723760.3966494
-0.24332041506789284
-2952180275.72508
0.0
-0.14656276636824
0.44168729489273
-0.2671675031245
0.2524912354562
0.230885272390491
0.096184752202011
0.416077372924487
0.095703739582956
0.1833698046352
0.191361838661605
0.105128544989172
-0.155153396702782
-0.218905431134849
0.220057562238689
0.39688318756355
0.33709710900192
-0.10724639487724
-0.17677836073692
0.31924131601513
0.148620081218879
-0.430216589413055
0.0296313872931982
-0.13343782372453
-0.099618166385999
2.055482911249174e-05
-0.03799357219564423
0.39115201109793035
0.27669139688003014
0.058706992640005895
-0.4535289857121078
-0.04812286554370867
0.1939276648836911
-0.34223560797848185
-0.3696466638948913
0.3878075552606462
-0.3348172446993272
-0.195466129193202
-0.44560204664415903
-0.32385173752256
0.20734448178823647
-0.24217732868747438
-0.29636809673643155
-0.4652016408616514
0.0907753942492503
-0.049073991978875825
-0.41843583969638
0.13122055750046
-0.19252884554871078
-0.06534368446921891
0.0
-0.434487090249744
-0.199360472153257
0.135260226263485
0.20359121752964
0.12721130034003
-0.473796076282052
-0.29669449073833
-0.10925184355047
-0.201850163893885
-0.340445260496327
-0.2992096704955
-0.25713119306119
-0.40070474330582
0.132325172002576
0.3132037915277
0.46075785281893
-0.2902230087801
-0.157976698386693
0.17482956981432
-0.123403434598
-0.200000592490932
-0.0575846391548847
-0.097138453555294
-0.244710060087776
0.002324420894127917
-0.17940788993955484
-0.18764671596723967
-0.36197985883137185
0.14831439009258363
-0.22737601168830748
0.4242904573600478
-0.09004996819097293
0.48313442725629974
-0.29840492877330355
-0.06833863542353576
0.3568408781416606
-0.1843405363138008
0.007346971236838704
0.287186743383
0.368217103996873
0.4036441290600145
-0.04436375250227428
-0.4540918116471721
-0.27320415065148473
0.27051816946391016
-0.004234697761811582
0.26473367349875765
-0.27269085630197093
0.01745725574016357
0.0
0.0109007452051221
0.076446907914832
-0.185684636480594
0.43287164491988
-0.46541131064104
-0.141807925142345
-0.202883409655416
-0.205729369686234
0.2260255702522
-0.44085509515354
-0.371761697053146
0.123302877998245
-0.12475636912829
0.04200199971309
0.22324112773207
-0.405777737179282
-0.191294204492574
0.420357899777561
0.472793659040155
-0.229047394908831
0.205502414798121
-0.387033812029663
0.094236495581271
-0.06605656859176
nan
nan
nan
nan
nan
nan
nan
nan
nan
nan
nan
nan
nan
nan
nan
nan
nan
nan
nan
nan
nan
nan
nan
nan
nan
-81644205422.71613
-8895802761.645882
-15353.127176778924
-8751053380.91209
153527252.4493368
0.48314451458881585
-0.24550145738897658
-74508977.35985458
-146232106.396169
-153527252.02425867
-1535272522.614533
-5723495778.599462
-0.31375840984675485
-32087195729.265026
0.266683916298536
-5133487262.704961
-357923174.3642306
-13663925454.287136
-153527252.75756493
0.3331765973809987
26099632.737221774
369921407.75440174
-196690686.7087336
0.07814560161313154
-460581756.97376287
nan
nan
nan
nan
nan
nan
nan
nan
nan
nan
nan
nan
nan
nan
nan
nan
nan
nan
nan
nan
nan
nan
nan
nan
nan
0.0
0.461743689583702
-0.113700933998063
0.0294810823060728
0.191101701741619
-0.45781260823689
0.116682138337367
-0.28933984735556
0.206529607683639
0.4645940836133
-0.334936016571757
-0.330827062323186
0.071920033961611
-0.415371498683905
0.039153778160403
-0.13034887980339
0.30173723858923
-0.285213426036076
0.156034483494586
-0.439914990255154
0.188712725229763
0.129041234075482
-0.088358047547745
0.122901187299188
0.407638428978899
nan
nan
nan
nan
nan
nan
nan
nan
nan
nan
nan
nan
nan
nan
nan
nan
nan
nan
nan
nan
nan
nan
nan
nan
nan
nan
nan
nan
nan
nan
nan
nan
nan
nan
nan
nan
nan
nan
nan
nan
nan
nan
nan
nan
nan
nan
nan
nan
nan
nan
nan
nan
nan
nan
nan
nan
nan
nan
nan
nan
nan
nan
nan
nan
nan
nan
nan
nan
nan
nan
nan
nan
nan
nan
nan
3.3227124488376294e-06
-0.3509291842148981
0.4427335635748189
-0.10188760297931344
-0.03879084980439756
0.04649263383930941
0.031670067846763
-0.460059304932543
-0.13182194236283
-0.49458168059642843
-0.145201386348414
0.192887659208003
-0.284176490999677
-0.3956145909447339
0.27239838718248
-0.33541200324378073
-0.012898405075600776
-0.06484946115578179
0.2898085275768616
0.2388937083568181
-0.3549187140990897
-0.36786855828895
-0.173897929604325
-0.1858965416971438
0.2448024514476829
nan
nan
nan
nan
nan
nan
nan
nan
nan
nan
nan
nan
nan
nan
nan
nan
nan
nan
nan
nan
nan
nan
nan
nan
nan
-18.774174526354123
-0.42641610428061183
-0.4351217432414551
-6.744440507944833
-0.27390391691776445
-0.25211373106257645
-0.2616503308331516
0.3349086365076429
0.196930768380061
0.37474402248822125
-0.6040911656778218
-0.45538053173537185
0.49870411195097
-4.641871037057394
0.20874966648836
-0.019427500214752258
-0.25994621993185785
-5.167294482168889
-0.15563969985404613
0.10338659288949414
-0.02455140271374412
-0.12602209176333026
0.21534781589383728
0.34972450250314324
0.09569392388733788
inf
inf
inf
inf
-inf
nan
nan
inf
inf
inf
inf
inf
nan
inf
nan
-inf
inf
inf
inf
nan
nan
nan
nan
inf
inf
nan
nan
nan
nan
nan
nan
nan
nan
nan
nan
nan
nan
nan
nan
nan
nan
nan
nan
nan
nan
nan
nan
nan
nan
nan
-15.911013462925453
-0.5753719006082463
-0.4394837304165158
-5.661555282165716
0.3881255018068964
0.45790726984882335
-0.03253331135366743
-0.07931865646912066
-0.3625438199748822
-0.08909485943229262
0.0639024414645268
-0.29088502286436746
0.16288728133933014
-3.4774931381186773
-0.39891025445395
-0.13569268848775834
-0.44479282908651235
-4.749593649438686
0.1598119883703321
-0.03505013061538755
0.24196350053795615
-0.11046933150706646
0.2623995024738125
0.0335639555787669
-0.1470397773338448
0.0
0.44805939675508
-0.17569014010715
0.153916421944976
-0.43657754938596
0.35860053157911
-0.494149092599194
-0.06728236858044
0.30135479202709
0.121023583112024
-0.35585615537884
-0.32472108487235
-0.203111982518257
-0.46597134517482
-0.43388176481527
-0.123038324717403
0.21353856018722
0.0316108080695638
-0.039274106576529
-0.300281786831367
-0.479055823460498
0.464295813609989
-0.4560448288963
0.43480681267427
-0.390653633750055
inf
inf
inf
inf
-inf
nan
nan
inf
inf
inf
inf
inf
nan
inf
nan
-inf
inf
inf
inf
nan
nan
nan
nan
inf
inf
-49014606138.38516
-5340541515.829845
-9217.014758924006
-5253642099.387873
92169159.36093523
0.23402131437973067
0.4880876969397219
-44731015.073493436
-87789563.14960276
-92169159.59892409
-921691596.6016583
-3436066158.929143
-0.412470115468698
-19263354363.069386
-0.0966852003672
-3081858106.7827425
-214877018.59966004
-8203055207.091732
-92169159.34671636
-0.04219085787712317
15668757.561694207
222080085.03486213
-118082067.01183622
-0.23429534320940734
-276507478.4924349
-3.9082964786414878
0.349447930446125
0.028040411377849815
-1.4938447417034124
-0.1956717421152441
0.03700272685723651
-0.46752757211305773
-0.3515500925554795
-0.10338036044788376
-0.24820465710539433
0.06711683142405027
0.17477857505791375
0.22333176680806843
-0.5986312367250479
-0.208719808357295
-0.28393510900448676
0.30547625326248334
-1.1971304886546934
0.31403939219300114
-0.417738294497239
0.3086396208170235
0.02872646297431463
-0.13395502895849076
-0.49822888124577136
0.41174978912315147
inf
inf
inf
inf
-inf
nan
nan
inf
inf
inf
inf
inf
nan
inf
nan
-inf
inf
inf
inf
nan
nan
nan
nan
inf
inf
-0.16880772597179342
-0.2059003662963148
0.13484925329891614
-0.15848057120435532
-0.38533220110029115
0.16921262566649195
0.024179671344510534
0.11916543570364459
-0.12313718090343255
0.24464984835852324
0.13640577888880598
-0.4129626236619077
-0.13765862764396747
-0.044380265110368945
0.0041397197301712
-0.0020401598530937507
0.30269089912674296
0.23461793068543405
-0.09782071179309458
-0.32213137482393583
-0.033254743347515714
0.48442836987147114
0.31649239490198056
0.15636929884423678
-0.49805645453980285
-9.349341555859418e-05
0.12115550036353517
0.2814930981543345
-0.2364276904606961
-0.23494747899702426
-0.3765820010408632
0.0149554786986316
-0.394246654046693
-0.28797656834117
0.16316242466583344
-0.3546006441501507
0.18288243839237253
0.13000543999036
-0.1646039520790347
-0.37572618706691
-0.26887924043097583
-0.17222678719009876
0.07990040591918254
-0.4044239461448336
0.15632044977852516
-0.07447745465450334
0.398833934761003
-0.453308613801
0.14590942433543969
-0.4473049045770735
nan
nan
nan
nan
nan
nan
nan
nan
nan
nan
nan
nan
nan
nan
nan
nan
nan
nan
nan
nan
nan
nan
nan
nan
nan
-1.696511307417233e+225
-1.4072947076348252e+223
-1.8580997225102314e+218
-6.429025202296239e+224
1.85809976944978e+222
0.09148522136898819
0.3283322721459281
-9.017624621485818e+221
-1.769808550429598e+222
-1.85809976944978e+222
-3.71619953889956e+222
-6.92699571368996e+223
0.143508744526569
-3.88342851815004e+224
-0.080373104688732
3.30998227254137e+223
-1.8580997225102314e+218
-5.146936361375891e+224
-1.85809976944978e+222
-0.200228399487725
0.3987604053280363
0.30742603296508
-0.36297974282874
-1.85809976944978e+222
-7.43239907779912e+222
0.0
0.267724897888408
-0.0107893889459815
-0.31870050340777
-0.0773821804364
0.402890626214619
-0.16944911187856
0.293191385240042
-0.322914593087437
-0.478153991095981
0.154676618527936
0.250744820049841
-0.13749689551922
-0.254689966446884
0.28777058103432
0.022360112927653
-0.431502188566666
-0.15629153713702
-0.186213351127203
-0.187696614942237
-0.182089223008725
0.33915711497189
-0.07621612079489
0.16254959169668
-0.207594205851265
nan
nan
nan
nan
nan
nan
nan
nan
nan
nan
nan
nan
nan
nan
nan
nan
nan
nan
nan
nan
nan
nan
nan
nan
nan
-9.721122261859437
-0.4888869265533554
0.10137304278970098
-3.3303146431224726
-0.3833504515810852
-0.30287375673038236
0.19877097566049826
0.3405461960975011
-0.27588298459154414
0.18733733499598038
0.36505589137005745
-0.29290916281783347
0.45045112303915513
-2.0341206047513447
-0.0612570732230176
0.09519439903258986
0.3933362919125863
-3.0270521817621026
-0.3600435179600431
-0.14841267882742726
0.3408093092909498
0.0505763719048635
0.172496274699607
0.00022362755162080684
-0.1277177976705669
-4.506532137332887
0.3747836138218158
-0.4926668210551968
-1.6832243079796563
0.4397809392586737
0.09869286743663325
0.3242136190769925
0.289303665683353
0.1650265699619063
0.2380430497482798
0.4085952561710502
-0.28751617480118863
0.07509478827697848
-0.9159945829234706
0.21660081809317
0.09241378973004885
0.37157292602984765
-1.1681593713163456
0.07534700155433596
0.2180108717481733
0.35211776023369884
0.3363391267964453
0.018392736609006508
0.3823326810216876
0.1738857684769269
nan
nan
nan
nan
nan
nan
nan
nan
nan
nan
nan
nan
nan
nan
nan
nan
nan
nan
nan
nan
nan
nan
nan
nan
nan
-1.4303657416080613e+52
1.9276158558729678e+49
-3.03521890555276e+45
-1.7300748198704392e+51
3.0352189822288413e+49
5.785883833002787e+48
0.39305124392276064
-1.47303529529272e+49
-2.8909946578194275e+49
-3.0352189822288413e+49
-2.731697084005957e+50
-1.131529599523899e+51
0.04522011529992617
-6.343607672858278e+51
-0.493076710361509
8.372321877933504e+50
-3.03521890555276e+45
-2.7013448941836682e+51
-3.0352189822288413e+49
-0.2875900695155277
0.0746308238465891
7.586664555459226e+49
-4.033900814293895e+49
-0.2657113354841914
-3.0352189822288413e+49
nan
nan
nan
nan
nan
nan
nan
nan
nan
nan
nan
nan
nan
nan
nan
nan
nan
nan
nan
nan
nan
nan
nan
nan
nan
0.0003294429038647943
-0.01933453517032913
-0.07215903496073284
-0.04658333932860205
-0.24870573474914554
0.1652930246745809
0.0599085212275906
-0.33795931251650513
-0.12232665375211658
0.17044071778893782
-0.17211738520000436
0.08558991897552144
0.2080305037871285
0.045546670091859226
-0.23241114522419584
-0.08077552630312149
0.3430120357748633
-0.30780041117011303
-0.4465160083733897
-0.47625676284611757
-0.4533287194705969
0.28131319551504
0.2386349090111
0.37775155579852193
-0.34588861242996694
nan
nan
nan
nan
nan
nan
nan
nan
nan
nan
nan
nan
nan
nan
nan
nan
nan
nan
nan
nan
nan
nan
nan
nan
nan
-10.876191757287328
-0.343251129169635
0.3748631135538812
-3.559212764402929
0.07258077765206983
0.4681754114016976
-0.13969374244580895
-0.20961707219715808
0.45186845332352776
0.3454672623167262
-0.42813304127956625
-0.41892210370587263
-0.27857593970956024
-1.9692653282257804
0.082180347708035
0.003935142368067968
-0.0360962444148175
-3.692362084439716
0.12061446257639856
0.35154150850594923
-0.4075549507659715
0.44758377660055454
0.24276127787563903
-0.21574908856629504
0.32923653066524683
nan
nan
nan
nan
nan
nan
nan
nan
nan
nan
nan
nan
nan
nan
nan
nan
nan
nan
nan
nan
nan
nan
nan
nan
nan
0.000891577848707634
-0.15606522216017488
-0.17260382819401085
-0.02293939090293383
0.01595933857663495
-0.46341918672199
-0.023107813445611986
-0.12407863269491458
0.339448165345611
-0.017085308387681453
-0.37878528199330347
0.35013627970945466
0.37323106985254145
-0.2166944948694312
0.14249861137023315
-0.07808317266666456
-0.44142444900525735
0.0015202029232895418
-0.03237063800779739
-0.49538924200760537
0.4034817972134047
0.2059076090523338
0.38907505439391543
0.26271689753555455
-0.27988022869045404
-0.00015937948875494268
0.023863155951382636
0.2299654945187041
-0.3144488874586144
0.06972523340094067
0.3912726597208585
0.29644282281965967
-0.3070047902576854
-0.38998353844720485
0.12100325774247717
0.3154268087368369
0.05260784981908549
-0.205880929732915
-0.49573705345287317
0.2948843674407
-0.04420842775250699
0.4939731319236609
0.39840023479094183
0.42738171869865965
0.31088632585717285
-0.2683505353874803
0.30752032858536
-0.0138254422392148
-0.1472867828718825
0.16340286409492671
nan
nan
nan
nan
nan
nan
nan
nan
nan
nan
nan
nan
nan
nan
nan
nan
nan
nan
nan
nan
nan
nan
nan
nan
nan
-1.3709472245968923
-0.2709899688039867
-0.2923087412250758
-0.2880152112129257
-0.3555229738101277
-0.4899225406680812
0.22513134634820148
0.4440105188497175
-0.0768142453016118
-0.15059763677764593
0.3121424067949249
0.3044160923365925
-0.49645936443847
-0.6507450380200775
0.44463544369646
0.2586826467340056
-0.3517803459929647
-0.41191141372722356
0.16012428433411133
0.36209937044103024
-0.42474058291811806
-0.42767626713048157
-0.1960922683709253
0.4495300150317409
0.4478613926914754
nan
nan
nan
nan
nan
nan
nan
nan
nan
nan
nan
nan
nan
nan
nan
nan
nan
nan
nan
nan
nan
nan
nan
nan
nan
-338196642602.12305
-36849285401.910934
-63595.75823568283
-36249686763.478714
635959417.2190846
0.1454768416705329
-0.1447238416611459
-308640224.13882
-605740569.9242238
-635959417.3747259
-6359594169.316325
-23708566285.433002
0.06776701487335667
-132915518131.99069
0.163604481139494
-21264560641.1336
-1482633276.8837101
-56600388104.61
-635959416.8144772
-0.4583526922408293
108113102.46677963
1532333830.7804952
-814756288.325611
-0.1369558632290218
-1907878250.6736677
0.0
0.144629206335119
0.350751671009034
-0.081180173645674
-0.0033128470108378
0.118009546427421
-0.2773607880733
0.025928172150216
0.3767698595327
0.077596004997119
-0.37860251539
0.0582757750457669
0.10999356147097
-0.440941024756748
0.1438657222489
-0.4364354565067
-0.1135213188318
0.0253149466934567
-0.26324541615561
0.45619193409382
-0.32699542596378
0.43645390091213
-0.38391665807018
0.411016226233608
-0.21598622772411
0.0
-0.36593751635065
-0.48382849136
-0.244330944966618
0.26536668035353
-0.36874769144247
-0.47534350583976
0.44296868519501
-0.42690612647217
-0.3220647431149
-0.33266365486016
-0.297307173436863
0.108573032233277
-0.08255984979017
0.372184797143
0.1950235422835
0.48515660853018
-0.436365087483458
0.4829718486653
0.3858914051961
-0.38838411607191
0.075418540911601
-0.096618650793219
-0.115567422915679
-0.231380098786087
nan
nan
nan
nan
nan
nan
nan
nan
nan
nan
nan
nan
nan
nan
nan
nan
nan
nan
nan
nan
nan
nan
nan
nan
nan
-0.0005886150095046331
-0.4634849407453737
-0.10498546817229548
0.3621172851302796
-0.3135521499443902
-0.48758411176909366
-0.4455327081734633
-0.359204255676654
0.41184974393042656
0.44644478068864424
-0.04429654772104652
-0.25735987798516485
0.2835911181989382
-0.2839657387634186
-0.456286674574735
0.043520300132659666
-0.28927051942658594
-0.4006247862176941
0.025390617370482767
-0.2712097387125285
-0.2688266537864985
-0.167182453531567
-0.20575729661167624
0.08603983010869815
-0.41914894741732617
nan
nan
nan
nan
nan
nan
nan
nan
nan
nan
nan
nan
nan
nan
nan
nan
nan
nan
nan
nan
nan
nan
nan
nan
nan
-19.319805959911758
-0.6275827533882687
0.44436182794927964
-6.702576114748226
0.18387590429063339
0.40085237194244133
-0.43256145830275616
0.27996136708651526
0.23224876584895018
-0.30112659255056123
-0.5855269799958365
-0.35937354698847096
0.4832410712385589
-4.334156974275579
-0.46136357302948
-0.16979020315979543
0.31297619115525277
-5.733628253044745
-0.14222210492336104
-0.28676706900887494
-0.0005075977915963123
0.4158032316362554
0.47777840924880666
0.22801908848635943
-0.37283081556223796
nan
nan
nan
nan
nan
nan
nan
nan
nan
nan
nan
nan
nan
nan
nan
nan
nan
nan
nan
nan
nan
nan
nan
nan
nan
-0.054832531346193
-0.41544427674546375
0.3363492526203903
-0.029599206431977547
0.03636493532324599
-0.3765145316452556
-0.2925460901467764
-0.4786185561255732
0.14573103211874588
0.4743208902857422
-0.241289192991306
0.01187070436222564
-0.10294042133046645
-0.019218990163015044
0.3844592475232086
-0.2571333369119275
-0.36277516179847513
0.08450071226247106
-0.2690820163559447
-0.48839192591408825
-0.07615389324615504
-0.06593525645765737
0.2704936995659298
-0.43070127638362665
-0.04716792843393401
4.0382485569167345e-06
0.10990991217353595
0.31594843642720577
0.007050510237811804
0.056853058550190974
-0.1314981075152
0.19772133147862
-0.25153306995321
-0.151769835537772
-0.31078816306516
0.34110227973280766
0.33229264987971696
0.38706755670105
-0.45545399785264784
0.12999295489240095
-0.3992273383698134
-0.39103547845198866
-0.16930567478486983
0.38018004536042904
0.047952676257734105
-0.44701791104306454
-0.238775532131213
0.48694277176613
0.05348453833667
-0.4612281595855921
-20.162796673240592
-0.012250353653670887
-0.11810589339399487
-7.127764496116775
0.36356251299338394
0.42969788486735117
0.06724452570147335
-0.26183155248551865
-0.3896185054241198
-0.042310248430054126
-0.13239649626754046
-1.2345760371703447
0.04418424488555038
-4.701520650910987
-0.3046327847647
-0.1605102213980647
-0.5138855068708479
-5.463395317963099
0.2570229222862556
-0.4582980832460882
-0.10229092703756523
-0.10012039675964855
-0.3979946542016673
-0.17693949914181156
0.05827625060247643
-6.07673562799878
0.2376083604944812
-0.425066401075115
-2.2644914012520982
0.23343850179553235
-0.2469204655400164
0.06754415368552798
-0.4025099388426874
0.3919508552869494
0.3947651903249207
-0.1280092104347732
0.17879321070627943
-0.21504564383117888
-1.565168654889078
-0.43943251459422
-0.45207598089113676
0.15895069139163692
-1.329106746790123
0.013128906316305802
0.42285471657439466
0.4127637030967659
0.498127597827402
-0.11105849382127789
-0.20216866869424058
-0.053018598636022145
0.001028699964409223
-0.14620391631962726
0.09794321820973323
-0.4975543401164022
0.35960097284525094
-0.1835037431465608
0.04632175971862642
-0.39397739680101884
0.4893555489314377
0.4204916588293284
-0.4611614067134802
0.26168409184482255
-0.45470295011509
-0.3331576752455648
0.363688679050333
-0.2477461546142976
0.4339940616482753
0.48600265882754246
-0.06131021633105291
-0.1207099411245567
-0.1649611519665027
-0.1739445221945
0.0801589556621
0.41275319994108994
-0.40773213088897076
0.00011650130992974245
0.1940308459791974
-0.06280688144492964
-0.4773021844430555
-0.4109041218512772
0.14443515285396127
-0.06903943590196232
0.25248426116900524
0.15099894259023
0.3405890036698201
0.41224966740943453
0.030514367990751017
0.43406350853314
-0.07542905407087093
0.3976098041013
0.3969329162559604
-0.27032963663350373
-0.2739990960541921
0.334422838342515
0.194675300218275
0.43532799786444243
0.216961504838284
0.2731382102642
0.24180284152058779
-0.49118592621505747
inf
inf
inf
inf
-inf
nan
nan
inf
inf
inf
inf
inf
nan
inf
nan
-inf
inf
inf
inf
nan
nan
nan
nan
inf
inf
nan
nan
nan
nan
nan
nan
nan
nan
nan
nan
nan
nan
nan
nan
nan
nan
nan
nan
nan
nan
nan
nan
nan
nan
nan
-42301966028.87818
-4609144571.607664
-7954.981232768813
-4534146188.731093
79546423.935443
0.22235070687041505
-0.27747325236440146
-38605019.90684322
-75766621.54875919
-79546424.35756776
-795464243.3070531
-2965490603.1178484
0.14745165036362473
-16625202690.995634
-0.038276140544069
-2659791992.4750905
-185449216.52353242
-7079631767.991294
-79546424.62927696
-0.03922281976896713
13522892.435129927
191665810.22736886
-101910511.29289174
-0.3439312795149904
-238639273.5555808
-0.6329109781169393
0.30986644176559347
0.12216451167640169
-0.01990630474773425
0.4648559219142221
0.11066411862358913
-0.3635416411274001
0.1322225595073468
0.22453031186020592
0.47140555717070676
0.2480483107299335
-0.06995979967840642
-0.039692422168625695
0.031700812089406644
0.46321321036617
-0.0019478406405083228
0.3764624780363566
-0.23226392056234507
-0.3550194148503352
-0.46226360493425567
-0.2953844460773456
-0.4377133513161534
-0.24588974577342396
-0.04886669402583843
0.3385630288282258
nan
nan
nan
nan
nan
nan
nan
nan
nan
nan
nan
nan
nan
nan
nan
nan
nan
nan
nan
nan
nan
nan
nan
nan
nan
nan
nan
nan
nan
nan
nan
nan
nan
nan
nan
nan
nan
nan
nan
nan
nan
nan
nan
nan
nan
nan
nan
nan
nan
nan
-0.0022628907691038002
-0.0810349299877763
0.4960922381008064
-0.48093450763171486
0.22639913838284195
-0.1665529676470365
-0.2995166516326551
-0.1618815797293482
-0.45381492866214584
-0.0061657450310711156
0.06832633168256383
-0.1504849095955276
-0.338437404138
-0.20672923286730271
0.243560755217262
-0.328641373216412
-0.4513905097904444
0.4382172587227475
-0.2940344128354714
-0.26157054235089783
0.00943573526576712
-0.24569783765434
-0.410699985522482
0.122875888534239
-0.15337929237283213
0.0
-0.37887078963882
-0.047013967493864
-0.2674496948171
-0.118541290055713
0.097480905438108
-0.13008775762617
0.394492435609346
-0.496547543268
-0.2842743542858
-0.42746901179454
-0.2030373010909
0.423935119671678
-0.284777486624018
0.464583125569023
0.417085106064421
-0.1644994311938
-0.185063265573568
0.39041681571245
0.059419078471816
0.2445453350164
0.083804782061518
-0.42889844265642
-0.43792254742091
0.368368750022218
0.0
-0.37541930872208
-0.183490962847208
-0.16876643800035
0.291170946895
0.2116539183054
0.079289163352217
-0.26712716744509
-0.353670502145236
0.180934175725529
-0.233399749349229
-0.41521315955744
-0.056929604317317
-0.346713574307881
-0.07225305030491
0.0357561128607908
0.40156740438487
-0.14842898406323
0.30318162898965
0.32714617859126
0.07058180243628
-0.4930909101716
-0.4861812834197
-0.37595303234644
0.20756122345396
-2.644302561232939
6.0606358685738604e-05
-0.366486800522676
-0.8197642543350423
-0.2846230941521947
-0.3783329911877263
-0.48781133111946784
-0.4657628223837763
-0.3912576026612455
-0.09658607589953905
-0.39731461657636974
0.10893379057808177
0.399243788537572
-0.8371313470262983
-0.0110037279133051
-0.3935781960069792
-0.14046985284628616
-0.6831560420089641
0.17909400335938608
-0.20722738669478252
0.4615894384845345
-0.4543700150721759
0.4343838420589933
0.47364589429239357
0.17869169193076423
0.0
0.062239520123823
0.443848018904327
-0.12672710673349
-0.3356618890798
-0.067592584101131
0.227102261577538
-0.19720942150575
0.224287695876721
-0.122650373844537
-0.19859878587599
-0.03658483434055
0.28469132705435
-0.205821546665123
-0.0604610540811
-0.3903440683879
0.38102851076857
0.043960170697171
-0.49252021545895
-0.052148087266434
0.166625828313002
-0.16299802170867
-0.320443502124116
-0.48774894210681
0.0038144321748301
0.0
0.030781544908439
0.33177105810644
-0.1897613408109
0.36762903648753
-0.36437815024406
-0.286193815386274
-0.28280173719273
-0.229827661434376
-0.04702203144336
0.33940774392567
-0.066425326274276
0.177957400456482
-0.367691410336991
0.1719159684862
0.46281894262843
-0.465778632283375
-0.476841715133
-0.17423423769765
0.032398865995231
0.31868333050861
0.1681894702458
0.35941510284741
0.42699267757644
-0.00043046512494515
nan
nan
nan
nan
nan
nan
nan
nan
nan
nan
nan
nan
nan
nan
nan
nan
nan
nan
nan
nan
nan
nan
nan
nan
nan
0.0
0.27280101534964
0.19367448672728
0.066084867156132
0.394372221176465
-0.0195731791449441
-0.211325273001133
0.0139588374658261
-0.45725117661355
0.187378949334017
0.37818894284485
-0.38979047763185
-0.382004626996988
-0.4133056138226
-0.252380872508227
0.0288103541285419
-0.30698129915335
-0.3315690380415
0.33146424701877
-0.077008810193658
0.063699466377468
0.1460932287653
0.028076324094762
-0.40919296779024
0.305219714624356
-5.05260367691427e-05
-0.1973554735607204
0.3251338367030855
-0.13144492285479964
0.06391876379339148
0.2925164649218205
-0.006131251077660046
-0.2867049110751329
-0.012126033319355614
0.33065855368813935
-0.3137916701339997
0.3863661584063453
0.011205742647616854
-0.18464710400128265
-0.01857286688301376
0.33141776066576506
-0.09207145976747859
0.2068218730944122
0.39895632103986467
-0.3668610071320201
-0.1078962309378302
0.09315337303573214
0.056706545526263
0.16527145915735825
0.010542151790302356
0.0016168204137281008
-0.2668561759074654
-0.09280806248714928
0.2339429742397707
-0.29897908335568496
0.001388708188355295
0.48477879533676166
-0.1892186166452598
0.4794256132298279
-0.017636878968345322
0.41011896044224466
-0.32145730697113506
0.3325239334655056
0.0817889497182063
0.482707283504485
0.3030952786445921
-0.2146283993757439
-0.33625678182342267
-0.39601918282195764
0.4450504811196606
0.06741475127092271
-0.28455650692518847
-0.46659102261667507
0.07461028078577266
-0.22178450822443727
nan
nan
nan
nan
nan
nan
nan
nan
nan
nan
nan
nan
nan
nan
nan
nan
nan
nan
nan
nan
nan
nan
nan
nan
nan
nan
nan
nan
nan
nan
nan
nan
nan
nan
nan
nan
nan
nan
nan
nan
nan
nan
nan
nan
nan
nan
nan
nan
nan
nan
-66373259358.12118
-7231908508.302536
-12480.640491317625
-7114233431.745883
124811112.7691219
-0.022125750217442133
0.025804608518889795
-60572622.96435255
-118880470.71196786
-124811112.80103344
-1248111128.047975
-4652958134.423667
-0.05318295976255585
-26085522581.720043
0.34624460228382
-4173306357.477257
-290976285.928378
-11108189041.57507
-124811112.53089274
-0.41236475910270065
21217889.27694936
300730338.8365457
-159901144.85420048
-0.40037883554957887
-374433338.6874414
-22497742773.531948
-2451312757.383557
-4230.433119030346
-2411425856.4339247
42305716.792651914
-0.18877329601442158
-0.13577321867327713
-20531570.97416559
-40295478.87915762
-42305717.01023908
-423057167.74121195
-1577157069.3602178
-0.17648168148496474
-8841894805.618153
0.305388038979895
-1414575295.2769418
-98628720.45280956
-3765208792.6532702
-42305716.90911034
0.008025847633593595
7191971.9491017675
101934933.78381976
-54199761.10508672
-0.1294031100791793
-126917150.32515481
-4.585325888963087e+53
6.179361425402475e+50
-9.730006404274496e+46
-5.546103790542829e+52
9.73000665007514e+50
1.8547817637309063e+50
0.15244297627626047
-4.722111749732379e+50
-9.267666488188136e+50
-9.73000665007514e+50
-8.757005985067625e+51
-3.6273463603735167e+52
-0.4036853610743775
-2.0335713898657043e+53
0.43211084673467
2.683916647392681e+52
-9.730006404274496e+46
-8.659705918566873e+52
-9.73000665007514e+50
-0.17977571676118576
0.3190173189362591
2.4320583459945583e+51
-1.2931482696514009e+51
0.30702238615212935
-9.73000665007514e+50
inf
inf
inf
inf
-inf
nan
nan
inf
inf
inf
inf
inf
nan
inf
nan
-inf
inf
inf
inf
nan
nan
nan
nan
inf
inf
0.002126007676807579
-0.4312053524476657
-0.3033230333739492
-0.22090733649681543
-0.3706645631788665
-0.4291077479051914
-0.12955617335794034
0.040614217980401705
-0.04515058250554065
0.203909118933178
0.4250245967575388
-0.10852717974361126
-0.12724582169103488
0.028012300155067248
-0.3201599744349401
-0.31057446840273
0.26719531310430406
-0.07477369778622443
-0.47379427445154
-0.4535274942962037
0.2025397241485113
-0.3000976773838462
0.16572999991569284
-0.308457748089613
0.29602803908786074
-0.27170970180805587
0.3641397162721329
-0.2479481962660119
-0.39969423457430214
-0.1700717177272456
-0.2217280846728714
0.25125559032098793
0.4365295614602318
0.17832435776683114
-0.13580354481842846
0.12993253221414422
0.46326854834909
-0.23208120519636463
-0.4771811336871508
0.09241025683318325
-0.00830962405629649
-0.051399979748934656
-0.2971841865326146
-0.3179925748413685
0.16807547776675083
0.020212763353657334
0.4132573675810899
0.4696126619000624
0.04132976609144184
-0.13968460117504483
-0.307474480999202
0.36282212918675977
0.25307200318985
-0.08351906933843664
-0.0046881349333454
-0.2755314889562854
-0.12154058762104561
0.2598461519275431
-0.3502068249213
0.3127086442951545
-0.233812063169876
0.3940375254215178
-0.13566536379456867
-0.016067441559895857
0.3967442331770614
-0.07028394509591414
0.01444433755475181
-0.2738926195135188
0.137252185836618
0.34002479768051624
0.3199821436279508
-0.08201782503479908
0.06169079667901636
0.36107150716021574
0.041475073432163174
0.21477039258504232
-0.47601909587647373
0.26931465070995
-0.4671752066560983
-0.34379532697146703
0.40298109978125474
0.3074950574805174
0.14495375931379892
-0.23705841807774897
0.12330953700641699
0.39884922596068
0.28426545377921886
0.13553689199638505
-0.3146371278101595
-0.49341915821222126
0.010125211859835436
-0.31381665254572266
-0.3125968718470346
0.006716565880215218
0.149813160751493
0.46593578623282
0.2067595560362798
-0.07883176008467668
0.22639717861846592
-0.32555226451657127
-0.2324416880397938
-0.3222914329387105
-0.21569392451451
0.2681217818407352
-0.3273769946665758
0.18248911831464393
-0.15390993377332315
-0.35146570154894763
0.229143800273232
-0.11050780521048145
0.18616421924859533
0.18351608742237763
-0.33776943309276336
0.08305510685003122
-0.201498307539163
-0.3056184338567
0.32330567047002684
-0.28390593474553
0.173488464594128
-0.29855476453379093
-0.40395710032455
-0.28959758915258044
0.4574213523426338
0.37843439335962886
0.3862172449080674
0.3195493169179594
-0.4511074355674715
-0.05928476616526678
-0.3927684710303381
-0.00012399111112423994
0.284823830772279
-0.1891460687393
-0.2677545082076847
-0.44697637255122996
-0.36009612794916
-0.088738340454737
0.044873406202604
0.47498442451226
0.146676280700321
-0.13376675763787
0.084111869237663
-0.45779724717218
-0.099670978640115
-0.134965999915479
0.131297370701308
-0.10810198799956
0.284560156377
-0.0125699895460167
-0.362247194190295
0.1539788411396
0.338911218433265
0.066725826691221
0.128675935867413
-0.30244694535164
0.30041288659562
-0.2018491394697
-0.4790938537417
-0.0113416508126028
-0.36490883696138
-0.41999837308126
0.113294442883459
-0.114299799317147
0.3270368720348
0.102625640740841
-0.38154397883907
0.4563388670447
0.47559993842902
-0.123270967844746
-0.223769985336756
-0.202565247086271
-0.07791944332148265
0.211489539479622
-0.40947854296443
-0.44176894524006
-0.07475437504395
0.30670718105446
0.40402798935117
0.39452296654955815
0.0194121390273697
-0.299255637318606
-0.0383822167901298
-0.47562790489568
0.28031953500631873
-0.393559703912578
0.09744483457212
0.399544456429
0.46134470579675
-0.398489990211905
0.31934848871293
-0.236323702758126
-0.49943579994005
0.32469861586905
-0.039144621097289
-0.48749809950037
-0.38564954473344
-0.054217106298452
-0.25664392864781
-0.47628442521583
-0.394787898632738
0.242673237793101
-0.24417224563931
-0.330197511748692
0.24476545542862
0.244723232969402
-0.0102422570385478
0.12553569483493
0.247291559029778
-0.1613759520606
-0.063872842932851
-0.20489116842852
0.3724319002197
-0.068171821466305
0.43836299229184
-0.2742846341990955
0.41885972149976
0.35376182147061
-0.397773854093397
0.12463279524339
-0.13162851747806
0.339378792031187
-0.0548514765734189
-0.420593469836
0.30698867931749
-0.00670977559073
0.3973449117217
-0.0309414326908097
0.174163217282976
-0.2049945109045
-0.25119048614047
-0.363681873542321
-0.486335049285947
0.25281788755241
0.0084596146212223
-0.464791759908647
0.073943587716007
0.06614202216012231
-0.43467374346242
0.438576221625229
-0.032229562314242
-0.4999135456797
0.39065204217588
0.318804075081006
-0.08734049596431
-0.16711892716892
-0.0364735649489817
0.44976410514823
0.4809488545918
-0.406189873754073
0.46660083677787
0.35880560871786
-0.48664237827640655
-0.48183561223924803
-0.47159238227995
-0.2074174388774
0.27261721667629
-0.341035912562755
-0.378063045862
-0.283150820836479
5.456127189673326e+210
0.35614888457359045
0.2705905718035745
0.1637368279700067
-0.056582645518921754
0.23868718150396784
1.393806614429312e+293
-0.3293817098166265
-0.406845476475194
0.086565506068468
-0.42548992784858586
-0.36690061012049513
0.1153014710235109
-0.1115977061558698
4.0241600315439205e+299
-0.108904814211045
2.1757909394899224e+298
5.951834294135588e+295
-0.49757846707975
6.508493371421795e+300
0.05372278921902001
3.4398781849629955e+299
1.0801515520798229e+299
0.48722882677074186
3.9562676387444646e+297
450369.695105936
1.471776813850954e+300
3.8707922295914844e+295
-0.4270787850856384
0.09837831802858155
1.9702606795229476e+43
-0.36125279307896313
0.25836489044028116
0.3710058727666495
3.737086699376468e+42
881795.8860052895
-0.461086170589
0.4173376211067989
0.3753274355446
0.13989440117179347
-0.09245826866461236
-0.4924821953247658
0.08974159013002023
-0.08815348999025394
4.576079388598536e+297
-0.2068723848418007
1.4337530084184922e+297
-0.17818449784842166
-0.111499555506522
522963.6029194305
0.028186433474899
-0.13337930933432263
-0.076792726054607
0.33294724959633676
0.278032164661286
5.189294179896233e+297
234963.9336234983
4.883936424752488e+299
-0.18058947313834
6.229356966547761e+298
inf
1.1128375358003575e+300
-0.141874774380683
2.9788736645513677e+298
0.15455862434744602
3.6786354726515956e+289
5.108149826659631e+296
-0.1945230464877883
0.0340513073074848
2.132227033356283e+264
512014.23447906313
0.3466822634875106
6.357475496540958e+289
-0.06689717475030628
-0.245176859710257
1.8304232839976007e+292
7.52463731933756e+208
0.2580765985
8.13339583392147e+297
-0.29115875739191077
0.43038571342861826
6.415503368655872e+298
6.993309532523814e+42
7.9338371734645445e+298
-0.40692991334189715
2.3960435347972845e+298
0.3816168455825556
3.013707876867393e+300
-0.17751264774781
0.19376117646990218
8.80967073339351e+298
-0.3807016540452567
8.538699527178851e+300
380984.22155612597
0.12912081332956
-0.46246179872388
1.4855292205526407e+298
0.28137371466415045
3.480069408343935e+300
0.28146472136932715
2.0641617960102723e+293
-0.06340067559238353
-0.06494478063678
0.5054843254636455
0.0620372936768509
-0.28280570573387337
0.081226059365656
1.353841195020112e+264
5.997614964070604e+298
49780.51713245005
0.08026046764803829
3.206636787308778e+299
2.002965201118043e+296
0.1559284362219858
-0.31598750988986
-0.22145360159515
0.4548636321230776
-0.404821755349783
-0.490417139348665
1.9867254166881116e+298
-0.34006130256746
-0.1976508793035278
0.4742171377856681
2.9798776419578935e+301
6.019588840361837e+296
318686.0393600768
99642.87338296656
3.401233128900471e+43
1.0036896873271333e+290
-0.008684053574859667
0.225831692490479
0.23193110818954357
0.44822211655678884
0.14929535205869823
0.43794037100615796
0.143425868752049
-0.074477019813888
0.34536060030779514
-0.06422458641243
-0.17438240264848
-0.17105407265405
0.032875870307629
0.19996893519104383
0.49633447487133
0.062835082966399
-0.289108941353895
-0.279291471078535
-0.4974805937684502
-0.0345769879857895
0.33240357860512
-0.298009976734609
-0.289601030847918
0.083726270933481
-0.4946146929172
0.47423792681883
-0.33358138926745
0.15414791657163
0.088083293953688
0.09589829024650584
-0.0050848755608774
0.360811156043374
0.3591941926191712
0.276494117889105
0.4037208606238
-0.217720934464838
0.33921857216031
0.016808395776148743
-0.03626078256693218
0.46672418865214493
0.156990459654458
0.2725557442396771
0.165355750535931
-0.29235405881456
-0.288355888793012
-0.45262425327165
0.21234474433999
-0.456598405122936
-0.46770235382134656
0.2817483436473
-0.068790728228553
0.06521699882596717
-0.20968237159552
-0.2610822983802371
0.040943551878797
-0.48482940665338
0.48386850730489
-0.30190680745061
0.441070507182161
-0.117729016216101
-0.32272136931844
0.40024417122109
-0.05436431045257637
-0.188156202713631
0.41997881268931
0.212544032580792
-0.438067680010593
-0.3003868163924
-0.1644831731114
-0.27524756904738
0.34526579086709
0.320468971773649
-0.2963727020581
0.038397546872366
0.10058957788877824
0.181897097756675
0.27350993514408
-0.145286737320026
-0.004815351434508
0.048365074807001
0.089537607621208
-0.381170926983426
0.0291591895810759
-0.493307814909287
-0.20345180017453274
0.233381577888931
0.151909189401001
-0.458542894229727
0.15857744653645925
0.3324744984438927
-0.36157245479222
0.2612940098839
0.2030463987117
-0.32103778430977
-0.2294575596926
0.17943468125557
-0.343429068807217
0.014933503140433615
-0.076633444387799
-0.247591813258606
-0.184290212310356
0.3971542923555273
0.04498502140123445
0.0218424712879693
-0.1211190727338
-0.09947062755297405
-0.3885268059468879
-0.17129750002245
-0.245254859920091
-0.26457567312479
-0.081876635298686
-0.44285590544996
-0.29332698328213
0.06660490130453009
-0.16524797472897
0.453640948319943
-0.143435519994996
0.18511081933122
-0.106873248059697
0.250814843604724
0.090901959203
0.3205516924667602
-0.21349711564979795
-0.49749571835362
0.353145028708995
0.0517239055750905
0.32337259876828
0.39195177114111
0.186369972052803
-0.04706584946385411
-0.14817702882147962
-0.063997167889047
0.13133714903394872
0.271896182678046
-0.12477205933231897
0.015938605710063235
0.13092718835702366
-0.19165204518827753
-0.35338743980715
-0.2709773977816719
-0.4413898801660628
-0.06305057219903143
0.4580424917728809
0.08322177566359415
-0.275959816780205
0.28905088716789784
0.44327056921941865
0.050675036544697315
0.43317578394000916
0.25128348060417954
-0.3438810163079611
-0.058250091426883796
-0.3154288916293567
-0.3055853180427324
0.1247554401019304
-0.38446009245671847
0.0632182140454858
-0.26369636702694044
-0.29771465377465844
0.12218973069514602
-0.3538741281505485
-0.4308332100399486
-0.23057576250882272
0.3147931111484739
0.4584220436592246
-0.158037257864854
0.25281399455884646
-0.20949250972004727
-0.203848547995782
0.04603618874730061
0.020545715077127293
-0.15364820052144335
-0.35409728219370246
-0.22877173054719574
0.09602105778461544
-0.058682462865011484
-0.19084595040770647
0.28241976617343534
0.4738223501286962
0.084491826453605
-0.271915277324836
-0.180936044735042
0.17955801570604438
-0.464045483989884
-0.34037675726459904
0.3717283530370007
-0.4554409806566835
0.137664287579843
-0.2051202285782319
-45.06794249719107
-0.07485176156163066
0.47047256538333593
0.11269038197210496
-0.31610722489192367
-0.04778297279375491
0.46728538961020816
-0.4148137649727672
-0.089313260046521
0.4761444378668658
-0.28222766929322374
0.4925878755598575
0.2928083644320919
-0.29624727920376315
0.4563590991090301
0.38009594562324567
-0.3430983216151883
-0.122670752584672
0.10011519638257788
0.2624173302931923
-0.05250193090494993
0.23334212514228983
0.059625247363616664
0.4809930744808708
-0.36974198551104065
-0.09880317100917727
-0.2475332222867478
-0.35150614546267883
0.08676012360374101
0.38823741175877
0.3256494773977471
-0.028867732405488948
-0.2316631536185867
-0.35230106545541257
0.0499932308295283
-0.34311999823577
-0.3923902868406975
0.33233677241376597
-0.3726597176759334
0.4390303870500611
0.35316393646849104
0.29555640375066516
-0.25412667075147166
-0.2777549335056744
0.249448190059285
-0.43581546664532594
-0.378250442711246
-0.24989925597361554
-0.15506349041188272
-0.3062924280168688
0.4237889983825418
-0.0193556077232745
0.29684506086278034
0.02891165491470275
-0.198702091462599
0.0172412054992576
-0.22243677686445368
0.0104956627001283
0.195458010566396
-0.32018025097000824
-0.155916803186889
0.20813684948878491
-0.011098197055357873
-0.46728022399867675
0.41922971750128
-0.14738862660795546
-0.18259524245036862
-0.056616596200296535
0.1710303346323977
0.056138100645043945
0.01852699228852024
-0.10884623336207482
0.140308180683135
-0.14520284084384652
-0.1931769259928856
0.24174006051091326
-0.3453927084450109
-0.15216863491240223
0.4893269090082
0.07530003445350356
0.17883447187662524
0.061658266331666635
0.3805228570208363
-0.005811580475242009
-0.2223349146547
0.4432049694303431
0.4067837386030012
0.3014040275487052
-0.2673078658760702
-0.4008235625463659
0.095784954072722
-0.22434036147581002
-0.09190973340538816
-0.038197926413049345
0.1986289809540087
0.4284756467978138
-0.4152814195339262
0.26025914108096987
0.3039401083756246
-0.06790436608724092
0.1674206300567853
0.06611609676400483
-0.047656921012102095
-0.1866223612333846
0.36278238041732724
-0.174003981386754
0.24841503065260506
0.2962011694291203
0.0011732493209501075
0.05173929901794245
-0.46825227292539906
0.21533685680677012
0.20822835965716863
-0.49511291565297777
0.02150921594308947
0.4455902382285101
0.12223175386758704
-0.4026993771155322
-0.26668323271593525
-0.2416216783953
0.4956323560575445
0.12257833466781
0.4237123052647491
-0.098578160906964
0.3004681328072564
0.3481651407971161
0.33985831117172566
0.491228880241732
-0.35299734129119403
-0.36494642730101173
0.059932820082415995
-0.3836028168903703
0.4994729506092334
0.46280901054644735
0.16631124930127977
-0.26138928194031796
0.22828642078272438
-0.0142376329187899
-0.3399915557921719
-0.41022504795257303
-0.03813760476336246
0.07064733822762645
-0.3072228356720001
0.1707310766432678
-0.28081319140655375
0.18033540104562162
0.357783421905587
0.3713923346763524
-0.09068669639523484
0.18090973170489758
-0.2608153235695131
-0.38891183566489174
-0.32847440920042287
-0.2509146430682213
0.4878842773941672
0.2991010701648332
-0.4409691741531608
-0.43077527207385324
-0.4321139005864986
-0.07448899952834682
-0.4784681163231586
0.4373908319841238
0.26467184859121673
0.301865021501301
-0.200899132283005
0.3054170865700744
0.155402166127109
0.4057784412160089
-0.186362980209596
0.10053326364797996
0.27508457605882514
-0.05676280364024545
-0.08236460430200548
0.2141250762906531
-0.022690202580534755
0.028410935664092786
0.02969323490976882
0.3621223484524458
0.03098914412499691
-0.4306152157630486
-0.2290263803316991
-0.08807661995422994
0.10993776879542291
-0.194713665448084
-0.342901779258997
0.4413068076780513
-0.221798286500123
-0.062716855063347
0.12024729086022451
0.0593477888086373
-0.4174536559862489
-0.47076023319401733
0.2919073729723718
0.13155667039004568
-0.22438300356552693
0.50060643791684
-0.004338120150713516
0.019267358368885323
-0.00242082623337341
0.0018914145733903605
-0.21006623810191266
-0.1752515824556773
0.28918755061326845
-0.019290834461007978
0.2934241921310049
0.4439866399348454
-0.4253246774713
-0.115484914082021
0.13408086696690497
0.3621765879818151
-0.4141781592955844
0.006069724967956382
-0.42169561140439404
0.275164055318746
0.15498688474968264
-0.15712538502312257
0.3529092600973442
0.07196783617827947
0.404527103146302
-0.3514680260066893
-0.04883167174141129
0.33834908144144343
-0.014878050309067707
0.39357188376458746
0.04786177269713789
-0.3284571510970679
-0.19790862105125484
-0.3202207681488932
-0.3316090015379907
-0.07528003586883808
-0.09746305593584834
-0.13766669777092289
0.3942549131572965
-0.21367469520866278
-0.414809835024815
0.011069776366491091
0.49553084777047857
0.4261347238449942
0.2027809430457234
0.06500721921347832
-0.1718255557140384
0.2600285841192963
-0.14956759497768118
-0.34897054356025303
-0.2587606833132002
0.16314932146146943
0.017937304599549987
-0.021932628282560842
-0.483395043457236
0.1337349337062296
0.42224301635969
0.14417176230760323
0.490682591166618
-0.09671165063446996
0.411285894473547
0.19816951579729142
0.43359510835302
0.18462635109069064
-0.23259849972224847
-0.4950366564771267
-0.073010976728456
0.4568469643127973
-0.44140871850427715
-0.4104310430092401
-0.21002068786673236
0.29375623708819404
-0.24605319943776
-0.06420428526453448
0.012535191161863163
-0.11448395699259106
-0.23131064784639963
0.056042222382096454
-0.453863985535945
-0.030721919024121615
-0.20215633429801816
0.2355998492223
0.4147939753414271
0.44474069440195774
0.45959170037523206
-0.03471147418002532
0.24108668899650523
-0.4480958748565718
0.2023734081868086
0.004154898126884504
0.2476858690431041
-0.1460548489109724
-0.23071934991125076
-0.44258763531699347
-0.08123059884267482
0.24093231300401455
-0.4371879706554591
0.15967843786735805
-0.20154225263304
0.028680873789885
0.42522780526413545
-0.11858237816426322
-0.232803268913987
-0.07040836200811032
0.2804373749868032
0.24390013637147806
-0.27382225299401
-0.39289558415841946
0.09331146212775006
-0.4906274946815967
-0.18512684729442727
-0.4695804401878962
-0.23518826953567276
0.32896116796600017
0.015080729801941316
-0.33950122789457404
-0.3833321380206866
-0.4970035874390288
-0.170663258049789
0.464732904378225
0.060395928685925096
-0.137698433767011
-0.15132560265591
0.4119642524328407
-0.084279444041626
-0.4599123524056968
-0.07185940325500711
-0.05478162986215122
0.0447499960603315
-0.0004413682787536579
-0.4193939502330791
0.1697151678139129
0.13557430894187447
-0.016786967572711715
-0.4902325072078499
0.3256108421517519
0.26227138513572396
-0.17414088859288193
0.025075814253108158
0.10224262211670437
-0.11649531185987283
-0.395644318239237
-0.438839786009788
-0.024454698614631006
1.4677806664296824e-05
-0.3353975794010349
0.38517951192312105
0.41611297354513554
-0.291532606003078
0.18025659679626907
0.1537785626082013
-0.28614568852195815
-0.24145489270679063
-0.2543439155980113
0.1612053078220181
-0.2991123793573009
-0.22081502233201103
0.252291693953116
-0.210484556772985
0.18553651550992087
-0.16597617386725141
-0.14373657035635523
-0.15243562380639833
0.13737098106190898
-0.1969498348583123
-0.013660053965976481
0.26868694674634297
-0.006017673016880788
-0.4458145011653404
0.37723678645508
0.04067784570435121
-0.42758495082991
-0.2151855338728231
0.2536698551763165
-0.3700255588480622
0.42610333572846143
0.346080513544421
0.4467463984819204
-0.12960340931781078
0.3118121000004371
0.07005257846143917
0.48064437787269393
0.2908097606818289
-0.12910058979974
0.19778447338552643
0.406530768822635
0.31348773926379614
0.29191127302313
0.0400094499985511
0.06681827933602093
-0.03694013136497635
0.021819317735134
0.3749686796099161
-0.0645616791225127
0.4410960082665403
-0.43553364947042345
-0.29699911471040463
-0.3985531927578451
-0.48077762524345014
-0.42611359129244797
-0.47718707608293165
0.2774227287953
-0.38943125545230234
-0.21846658421282758
0.4018313750758762
-0.1351924407706196
-0.15353569950056967
0.03691363702908202
0.026829014143951557
-0.06424493601908009
-0.3251456793749
-0.3598723238189174
0.11374030006863368
-0.35635070678823266
-0.3602461487409813
0.20684805190314237
-0.12081252551340213
-0.02649202410103964
0.010277553828051934
0.14821066820120793
0.4604373939937501
-0.3022612706526604
-0.178144469112272
0.42868996533068704
-0.3922927614177586
-0.018296515038047228
0.23411254679633994
-0.45267450955513
-0.23042756895324
0.22806068414119698
0.24967201266310762
0.35041825335722976
-0.20658919418956018
0.14536653388641754
0.4412553713459176
0.1006890482363603
-0.290732081026922
0.3944385593409236
0.4454856990779386
-0.21879608153201602
0.42051562328544523
0.14303267348309312
-0.39332630874735947
-0.21371173725413659
-0.4553458329115744
0.1327173736991463
0.004282626359076595
-0.18007792173361
0.0127914551190595
0.31063252142501147
0.199014573396141
0.461697520575485
-0.041060558680471385
0.1320251137644
-0.10131624592463086
0.4252002070975005
-0.15100315836456482
-0.4331237181790851
-0.42705325390824256
0.11806763385808562
0.4259011365420317
-0.3608094193540737
-0.0014960797842919862
0.14200243373784
-0.26356854902489607
0.30345276096464274
-0.12575816718847105
0.103911680318414
0.211526333558148
0.158543770883449
-0.1191131226197
0.47227226434662
-0.35910171631733
0.292239718141873
0.129512535442573
0.41070689426473916
-0.225559413745978
-0.30498737539066
-0.29301790724047
-0.466143677196096
0.24919768530119638
0.23458870514375
-0.47979483974197
-0.37128365308201
0.1256151467362
0.40364276646996
0.117509782919507
0.434775125141846
0.3270419438587
-0.04543061702067
-0.265995054738829
-0.1993006004550398
0.273196292829399
0.38308334323166
-0.43429498905520536
-0.135954590848146
-0.1552910281136
-0.46901587167049
-0.48800290330921
-0.49068174678748
-0.3586805242857
0.03108485701791389
-0.027819775427654
-0.4021656680032805
-0.0119634197425355
-0.44262163801653
0.175380818137368
0.00745688727063253
0.4349989241221
-0.0417416928152172
-0.31288847409239556
0.4057291281154
-0.4686754948519
-0.05419269285186234
0.2836832482058
-0.20665328510585543
0.2331276413445
-0.455997971709446
-0.355149791194308
-0.47456613106685
-0.023519019557845
-0.288946062355704
-0.345041381283976
0.032233459408021
-0.40271201801489
-0.15565593232512
-0.49956839324122
-0.29121601470793
-0.26980614446168
0.234152672552103
-0.3163327821845
0.46498740482244
0.0520817682526932
0.42611087797562
-0.44586426137538
0.047813616766176
0.233514369291606
-0.17881673200954
0.272863382392314
0.4323116554332
-0.2530570503191
-0.20576480070588
0.207299983822535
0.079059908507681
0.077003808321655
0.09693888116467
-0.24129203329213308
0.26766370136794
-0.45199121887828
-0.148845970542501
0.21422148305991623
-0.239271223389874
-0.18164446026907
-0.09262023086395
-0.00346014427046437
-0.1198637187479
-0.37459869263757
0.096209139365977
-0.458358972116628
-0.4242357996478358
0.0716429860331
0.188350764520347
-0.36573142215507
0.24487449176421683
0.2585542366299737
0.25560346382407
0.266317527773454
-0.29192250962534
-0.006458205175469636
-0.362120196101379
0.27131600362546
-0.161105473745529
-0.4159574303374
-0.293542365999
0.12764206515305
-0.034146325642212
-0.032521972175913
-0.4446019741361
0.19812390814325
-0.48873990975013
0.155151420172448
0.23121002575655
0.465953630040825
0.26311550440461257
0.35094714963731033
0.244529441272743
0.171431645815342
-0.20271816085403
-0.212776146503146
0.0521534443558158
-0.47180486586195
-0.008187352457273906
0.09703029367717525
-0.488388890367646
0.39112879531160594
0.4713173603803434
0.29757442635428893
-0.24047593582854793
0.4788137234304229
-0.29511129031744665
-0.1831519308472
0.46097377396218814
0.3117419099806718
0.2651484414442663
-0.19651997111447125
0.34479955537232104
0.174797485818989
-0.21064000981912065
0.11853499399497752
-0.4613440183446278
-0.005215517410435386
0.23830507714651136
0.3133223810125359
0.17388068752401004
0.000974168712611746
-0.3345767528112247
0.11433210721070355
-0.3568917791978987
0.12097281001909034
-0.33085278146376634
-0.05277755761428191
0.12104526251581539
-0.0827301956729778
0.1479907040204063
-0.42285032778837744
-0.22541793829715667
-0.16172674768538148
0.26960583517064
-0.1476286234465817
0.4554802918410648
-0.49455613775750407
0.16431255111974952
0.16409002087097976
0.440320506899779
-0.258242607505987
-0.4794823869506078
-0.34587436746552197
-0.08671972284849945
-0.4878557412739966
0.14807582767637725
0.4845053369601893
0.090864883608357
0.4356897488411714
0.347686664641596
0.1618725697822978
0.098248064489098
-0.308401102788946
0.10094541477061837
0.2919243652408732
0.358791390583563
-0.32466704109011874
-0.16202583952080188
0.3979159394782966
-0.4350177171080244
-0.13561593015729734
0.07427445782359196
-0.25056035122045917
-0.40900979872546595
-0.30610103849944176
0.29891434005903
0.0822558514594364
0.4446664888048901
0.15085611964767467
-0.30761886253896664
0.32795048846923835
-0.25616933912827394
0.06474600070071337
-0.23991432153180367
0.4883275117776
-0.27686922273491676
0.2233224603395808
0.2571402087810293
-0.3931481006022654
0.2934205150842598
0.05243624483054079
0.14182091905184396
-0.43485799248247065
-0.34548626032002205
-0.16640696302793745
0.3127047983333597
0.43074599263294316
-0.02860830628491452
0.08307917794520461
0.10497285585964843
-0.03389518463453275
0.454072621805946
0.312711380332
0.389332038437231
-0.15891135054293604
0.18930255892721565
0.11006333400791489
0.20284884753707302
0.09896830320688499
-0.386107353966347
-0.003036347226073583
-0.02679665953466276
-0.4942556431737495
0.2197043325411339
0.26704857223325645
0.09884611400001175
0.46915001911294235
0.300424385786331
0.205373420757959
-0.19194298617420436
-0.4816822003260862
0.1640911979439
-0.32420850248103
-0.352555277348291
-0.45911491404191
0.21255409520452
-0.47881990052318574
-0.0235346628407548
-0.34958292458983403
0.37447925027141177
0.030559468660867596
-0.20442036534792055
-0.10509656679381016
0.057512316569235646
0.020688743838738494
-0.09107692697638256
-0.015886613435897576
0.1411236282364941
-0.4373925581353638
0.3664031759318859
-0.03325345061138587
0.2192029613472625
-0.0327460093856124
0.04541547656601251
0.277743724743844
0.308643680351098
-0.26904985640998014
-0.13415126269419245
0.48737570869222857
-0.3007265867132467
0.4924220843249117
-0.22775542195622
-0.48416550275041764
-0.01704671315087017
0.09030320176369251
0.3632474555077659
0.32626662246500604
-0.11123429111890083
-0.3862158302894805
0.4488124164551903
0.3034652864419499
0.46144939415490765
-0.1459502060938137
0.3251585369741054
-0.018146306859954643
0.13272680468926168
-0.08382960514864969
-0.4156310053292514
-0.17318674928315392
0.287105315822944
-0.3899458654108221
0.48827743264674506
0.33213507748136
-0.1455866348446293
-0.12232071509268938
-0.306690400970749
0.3212407133847899
-0.3186521883867019
0.34809846802788824
0.2918856298410778
-0.0019273072135098475
-0.4597930555467218
-0.1948157423446694
0.39918268319705363
-0.28649906132408914
-0.2866493299816695
0.28294265455213
-0.49636786510049496
-0.19257668249653
-0.2969484851385753
-0.059692000075791
-0.029808750472349557
0.23957798701223945
-0.1372043190791474
-0.105439903966159
0.061680470347166234
-0.016165757190463106
-0.11891479839902493
0.057096083910632
-0.12630837888929417
0.37424637290726864
0.47465876458124473
0.11230797549067094
0.24429257577982888
-0.4432732245425
-0.4613374023032913
-0.22277974589329455
0.3684459627559839
-0.396200853607475
-0.28120368095471054
0.308902008214813
0.3817610309813326
-0.2466914598759244
-0.135482501943397
-0.3806703383479102
-0.30795863204555124
-0.17745683526558387
0.36914217049539017
0.3229620198568041
0.3661951926891217
0.33937894902373983
-0.4355416927340327
-0.10374857491321515
0.41087881073542776
0.02876561030959705
0.2591063251821089
0.012279331916940806
-0.45533773900604185
-0.13995123680998162
0.2345421432045759
0.293228260292
0.07329884522869
-0.2673997708634419
0.45970078517705015
0.23370142987693585
-0.35533485890834243
0.07283883218614277
0.3397831939486998
-0.0340068283045353
0.28079610601266697
0.39872565370398394
-0.07268352943217618
-0.0129086527177448
-0.33454295537701173
-0.07500809780510388
0.4564031702624899
0.28852292702578
-0.4341656910815356
0.46697396264590735
0.027797474430619563
0.43685052044181
-0.199861260707787
-0.24325726676753398
-0.110561330517947
0.16108172255352
0.39905354936220927
-0.3058000652341
0.36101801170905246
0.3367521182175302
0.09566306519450055
-0.33607414498160165
0.016409281067145527
-0.2900057604155925
0.33712208617064837
0.2503462890615916
9.347855574088262e+212
-0.4818417638406968
-0.023482243641981
-0.07451255113755455
-0.1435155772375179
0.20922288374432066
2.3879763936870803e+295
0.2257643162206797
0.0131410425504576
0.23343256748612
0.3796277463304897
-0.18211224459525935
0.07069950512849663
0.2669944635661253
6.894499610105916e+301
-0.2286958620269
3.7277319158278936e+300
1.0197139005078101e+298
0.1938758949798
1.1150850030789776e+303
0.40063137409427146
5.893463137433971e+301
1.8505984842288845e+301
-0.05127642984875208
6.778181155567363e+299
2776905.6043578177
2.521560919475968e+302
6.631738128833963e+297
0.3382640072528869
-0.07763630697664908
5.47468699507733e+44
-0.138086585945617
-0.3426441220559555
-0.08254714713525782
1.0384097985199894e+44
5437005.3963796
0.444237141395414
0.21694065429977993
-0.025897514435339
0.16883397364018957
-0.33159699610655835
-0.2561331602152978
0.36690207178920414
0.42288119445471173
7.840090183590898e+299
-0.40263420674744055
2.4564156196683285e+299
0.10487097545622276
-0.42922941448506935
3224510.117573567
-0.41466582820605
-0.372364302555435
-0.017554413496675
0.09010089115462186
0.371838342954661
8.890696796243699e+299
1448751.2785131005
8.367534469875271e+301
0.068862573991008
1.0672612132822274e+301
inf
1.9065986184806763e+302
0.12737292669339
5.103634835050181e+300
0.435235124157901
6.302520434851501e+291
8.751674066688531e+298
0.038112143424613124
-0.0583233047851384
3.6530948905856764e+266
3156993.5322370934
0.352522063264377
1.089211462481103e+292
0.22361706618177765
-0.048000553251389
3.136021559512503e+294
1.289178577832486e+211
0.152931835538352
1.3934757555925156e+300
-0.3569823952587957
0.15708246121183736
1.0991532425926176e+301
1.943203818061707e+44
1.359285835312788e+301
0.31642292488924706
4.105085554989411e+300
-0.4474170030298828
5.163315479296091e+302
-0.190954007790362
0.15958930726688803
1.5093403582471356e+301
0.3647143418613764
1.4629154929099555e+303
2349088.323157066
-0.38268019543611
0.25984166814914
2.5451225974161024e+300
-0.22817339894097688
5.962321823907047e+302
-0.32318812007638337
3.536480305513175e+295
-0.2373185619702062
-0.410427506347735
-0.3482595563373433
-0.48484812225407486
-0.07735812280519536
0.49321897597957
2.3195045718970475e+266
1.0275573960085657e+301
306937.05795300653
0.1891998457507151
5.493856085879761e+301
3.43163360550199e+298
0.05685051772573105
0.490946088617747
0.407408213267754
-0.189845040272592
-0.43718188686113
-0.31957434713465
3.403810361261525e+300
0.16428563190764
0.2925418751419802
-0.007410875254945887
5.1053549261458603e+303
1.0313221290294915e+299
1964965.556386468
614382.1173795193
9.450874684524562e+44
1.719598153080738e+292
0.006894001840456773
-0.08431242467697596
-0.39853685834784885
-0.36662744602846403
0.29701468422008204
0.35505064611674786
0.25928598351635423
-0.2182569400580296
-0.08746708251638848
0.0051591605181404
0.08001055006397831
-0.26232148618894346
0.04215017344134285
-0.10963954852522154
-0.31635070033955204
-0.27228616291185
0.015687911535688607
0.1851411466876517
0.4507896981062594
0.3902777318779529
0.1362301208148217
-0.09119740805701645
-0.15167923264685357
-0.17712735321317874
-0.40430180709174846
-0.3366294748771896
-0.1306816713820459
0.3946070614973727
-0.006281021726677545
0.37192558898849976
-0.08987533925979199
0.20075446820780957
-0.05225341452630155
-0.4753514825618112
-0.141833280232009
-0.079928476735054
-0.18318989363354
0.3945897722407818
0.044823847294529505
-0.4923399545285908
0.20195680818886919
0.1264379841616698
0.23628002337647486
0.40899535296678957
0.2649652034192444
-0.1967562357624667
0.11517649365744345
0.09910663514822492
-0.12350867304145383
-0.016166317353288
0.42254406219163
0.06374738050630051
0.30341464545153
-0.2428090972939863
0.41568711426537
-0.1494623574179678
-0.34116507006985397
-0.2030557237905639
0.314001658874562
-0.4318423757021013
-0.1739437802567453
-0.45869915776854303
-0.43865298470796893
-0.4293996782749006
0.41083728199951336
0.059243248718756
0.19475793133806338
-0.13210746403041085
0.284389130306605
0.256978736781773
-0.036351900203545034
0.224643555243396
-0.2830071880026
0.19825198127866775
0.3385112784426786
0.292381785914579
0.2108975198168641
-0.476934275224005
0.4082514722037416
-0.3678801769517955
-0.43707730653310856
0.09848337451179165
-0.2659903027281
-0.15253304136439724
0.20530038990379887
-0.4012491581589999
-0.20769320446592893
-0.043923751369279285
0.20560118485542067
0.0545708526922845
-0.3105572933444352
0.3549770449676303
0.4019097483074723
-0.21488369795211
0.3222725642804
0.34022825204824
0.31598255452089896
-0.3699628597068598
0.34787830519304813
-0.46945629684304474
0.29788017564801117
0.3551010960645877
-0.273484193581177
0.21167367860457845
-0.3102431150355391
-0.4848642137115263
0.29503556636312406
-0.466784545602223
-0.31726046663851826
-0.1138693827911245
0.14169501006747368
0.17259008063283088
0.16896987415841735
0.399694491309581
-0.311672906693813
-0.070799658207537
-0.3604068169632663
0.239306813571322
0.0277021625550908
-0.05559971615283508
-0.23516107434241
-0.25339080387121
0.38819950182273455
0.15146494671340754
0.022155687917601585
0.0710051748138805
-0.3989606100376486
0.43742372238568
0.15618425321449816
0.03588876047951537
0.011810244531364374
0.34184132045715027
0.40046262577078934
0.10566604507256451
-0.02745125019635745
-0.34252516456525295
-0.21857629540336188
-0.111347626479195
-0.11325324855169
-0.038663938287488694
0.4333758922814841
0.37779750187521244
0.42716958729601645
0.12894223241362668
0.18030924985407
-0.44712949140316355
-0.3541088433504253
-0.2369560077683436
0.15040339683217246
0.21460624016444582
-0.46080169813118504
-0.12122636694250474
-0.2888566786942308
0.45733554676168786
0.3405860618416007
-0.20025602532581074
0.16150902947831186
-0.16106770549638488
-0.4376024143006514
-0.07190931980448935
0.487362319159383
-0.37289281560567966
-0.0456007489978842
-0.17629392542764788
0.09468417118171388
0.44553439811497
-0.060414048788604034
-0.18762801234941495
-0.43860824410167765
0.48418997838533434
-0.2537544503847278
-0.3354222463636535
0.2689139814510104
0.23288402826635765
0.4284563295435402
-0.4588927779537778
-0.11277037318202565
-0.25503771057186403
0.39222453122480244
-0.35647169166351
0.08332404349086203
0.339455738828021
0.08741673169675948
0.421372420040782
-0.22952546630113946
0.43835848211540984
-0.011360877755523956
0.433227059392948
0.17995184209475892
-0.45485836629617643
-0.38803708202619575
-0.317113875487234
0.3823139526546376
0.4521621875282609
-0.03220427539973024
0.22382743705285774
0.23051604788812696
0.15313665299034
-0.1972375493277799
0.35147476158710805
-0.22395809544480935
0.4870574113833562
-0.3551318417019416
-0.41015344622718
-0.36540490358225675
-0.02731621214592688
0.097119383769146
0.3181460466041694
0.26228812533019863
-0.4848121719904909
0.11681909867494358
0.11687503854661357
-0.07795148606367
-0.21591911231899835
0.21187995952005398
-0.021104017770786094
0.12064457032398819
0.25572450889312787
-0.4726886575572862
-0.47413879719938035
0.273325743129207
0.3475298271867912
-0.20302383255200157
0.342932701049078
0.27406767446827
-0.07790343033974872
0.14019976244433796
-0.28853097103437425
-0.3237653306338182
0.02656523684127391
0.28377885030169314
0.3979690839334858
0.10374427648081992
-0.49140536155016745
0.10320443568948345
-0.009615451635050624
0.38117562615027695
-0.04563467163632762
0.31067254187944143
-0.05024786906197909
0.13910025383393085
-0.33507927340315286
0.421677060070061
0.162028908328
-0.49637360675173
-0.190874900888523
0.082693784431454
-0.265365584673292
-0.1788322519128135
0.417483153235573
-0.46877649722897796
-0.13247417993945912
-0.19615472155245572
-0.4005797766080289
0.14818707213666127
-0.21693722874362378
0.11495443908229927
0.08645726196715793
-0.00026451235498005073
0.3931910941483842
-0.0595741390816504
0.06698495600883989
-0.47113238962977727
0.4002569969865
0.16230709920219877
-0.3127522219441848
-0.25059422438517
0.3478402483193
-0.1212937985692044
0.23788285536524595
-0.023707323982617656
-0.2690960945578
-0.22165556424582422
0.169839843502571
0.115650764542849
-0.471997368499185
0.24785179948506
-0.021139834024892418
-0.06551486057731905
-0.44463321970320224
-0.24472735732318784
0.09202778297551
0.07624241170971649
0.0030010253991802787
0.475129200821084
-0.277622291803652
0.22907374826241864
-0.0164320243116704
-0.3800110169980615
-0.45115278670132
-0.057897286145174
0.28553979657795
0.2212644441219764
0.41843477337811974
-0.221031082977069
0.06869089553057493
0.44732151274013
-0.162137243211903
0.2502391175544185
-0.334808762649045
0.4908374012674018
0.48769544471105947
-0.06689702602723
0.04867903060370773
0.3715285531003038
-0.16575351465955923
-0.094969770765337
-0.16701382834689263
0.13013149135067
0.336255631375185
-0.375878928773675
-0.386349828164834
0.144057877279735
-0.05147404304116956
-0.39276473759030256
-0.13251864207388273
0.234572503402754
-0.022988016444874693
-0.22279021884825326
0.38327875429108804
0.043580930699539
-0.3836181309465461
0.334110972294
0.04520123941970648
0.15606862158132412
0.1801324011389791
0.41931789853173
0.0229845873285132
-0.11673281975071088
0.4885056541856099
-0.3955323851511076
-0.024396104006331
0.315660973104167
0.09774805385206904
-0.134821833582086
0.398020119321772
-0.44569755308304004
-0.48137614218077873
0.15984240186235035
0.03346823634115704
-0.4825686344021
-0.134735779109403
-0.20341518542682
0.05420997453136574
-0.03554578903302863
-0.09947902705811096
0.1413994023102
-0.491983070410037
-0.264843530622389
0.28083928530287
-0.4483734695668156
-0.12656560068413875
0.160464360266
0.4348826859951
-0.4478280549525182
0.493173996507462
-0.237590137843535
0.3675245759160004
0.3929753433792011
0.22029922206139
-0.41994244511
-0.202156535414277
-0.424994698761957
-0.36521756628486
-0.4045658055012
0.07016410207206916
0.3196739655660697
-0.44674422035372896
-0.484103946115224
0.06502461653478747
-0.3136657150175248
0.21347593365503
-0.207380112178168
-0.48546767443274
-0.06928002452451
0.45862779362778
-0.129361567848347
0.28019618630683074
-0.47893885534568
-0.40372267133443
-0.460646020579602
0.34998198341481196
0.237219289478219
-0.42957211769476483
0.32883619331708697
0.10852486860925223
-0.086987790883104
5.973025930829996e+214
0.28361193981680877
0.2562135501274521
-0.3714551358159818
-0.20055568646711744
-0.46590237555370356
1.5258520853959608e+297
0.5713002636111555
0.24938709998996
0.16349707246295
0.12062717089316963
0.1557593014954696
0.5821502844874104
0.18563064419446046
4.405398074977908e+303
-0.17271754515432
2.3819194915828894e+302
6.515694986392651e+299
0.439248833095378
7.125090439921566e+304
-0.27275088748106624
3.765762945660102e+303
1.1824821902997712e+303
-0.20100749839067666
4.331073740408734e+301
11838207.4697362
1.6112089707447675e+304
4.237500622046436e+299
-0.048073334170102164
0.15759695069481644
8.205724391428911e+45
0.4986929552410234
-0.2753867390555225
-0.3062202486315699
1.5564185897159042e+45
23178456.9689212
0.086101104367939
0.30383774340893477
0.34262240749424
-0.14735934889789226
-0.33093209868557594
-0.011678108578721291
0.506771397908866
0.5133802389722775
5.009604779992719e+301
-0.28314878114471675
1.5695828927701216e+301
-0.24516624815198843
-0.3445512121490779
13746387.00649915
-0.15073017460416
-0.2822597172672402
0.206132441669715
0.4065827546555521
0.116304148881854
5.680913882999342e+301
6176159.791414955
5.346627359564607e+303
-0.18178419940171
6.8195094066005485e+302
inf
1.2182647557624963e+304
0.445534611792585
3.2610841031543487e+302
-0.26517018273761933
4.027139453384811e+293
5.592082133083395e+300
0.051122931444488914
0.37121905698735
2.334228458742423e+268
13458556.18483362
-0.11601011260302713
6.959765539800222e+293
0.2559278244514033
0.2907594036
2.003832637993776e+296
8.237501118661666e+212
-0.1526429719978
8.903931769344673e+301
-0.04945721595025429
-0.2758136772269289
7.023290815660594e+302
2.912567418324435e+45
8.68546746083535e+302
-0.06886174498592952
2.623038222391334e+302
0.5778728633769075
3.2992184145826923e+304
-0.0057813081803447
0.29935831657693834
9.644275124712421e+302
-0.3573270114103641
9.34763283889992e+304
10014382.316352677
0.300191371239787
0.084467885682
1.6262642432823958e+302
-0.3369085372093817
3.809761776900783e+304
0.45371735804824265
2.2597149048015805e+297
0.5016069188009112
-0.39971986064842
0.42795378534004813
0.019360601317703417
-0.4331611819813626
0.0540988154963
1.4821004501849163e+268
6.565812793244766e+302
1308502.4821625391
0.49280249761216277
3.5104248884812904e+303
2.1927207099335406e+300
-0.1739777384146352
-0.2358423883824
0.31999063144833
0.4813103200505341
-0.147696404166102
0.40691215672193
2.174942412225478e+302
-0.110890065795136
-0.03677602335523729
0.023205197898872234
3.262183194666456e+305
6.589868415176894e+300
8376831.797979349
2619169.0660800627
1.4165425893548422e+46
1.0987765351691811e+294
2.324172455825107e+212
-0.30249705767688706
0.029094449402782163
-0.1970835611544903
-0.06468973027776416
-0.3100769129488613
5.937264344083972e+294
-0.366795300132848
-0.4385515282431
0.14982089175746
0.3480604289723657
-0.45014357071204447
0.27620391996717664
-0.02179414299240265
1.7141905930727864e+301
0.40985993620235
9.268320175466954e+299
2.5353311693771986e+297
0.38217379449336
2.772453884764463e+302
0.3550728594011007
1.465301275237195e+301
4.601172953248129e+300
0.0074285713840655816
1.6852701475224687e+299
1440816.0749278895
6.269397711894666e+301
1.6488597808470482e+297
0.4972419177723485
0.16227241711982424
2.623423483394736e+44
0.0951803003849745
0.3836587730901151
0.16193965235261074
4.975971509008722e+43
2821025.6467222683
-0.370408854498353
0.2563644549480292
-0.44514643734401
-0.016826354580628075
0.37646273608818887
0.11161886246368503
0.36764241922155555
0.2222158824506042
1.9492943072843757e+299
-0.30524265995400424
6.107425898959215e+298
0.16436205498305329
0.1337329453187963
1673058.1208483714
-0.0162507393919413
0.34240187361032465
-0.458608893700786
0.07643063788509478
-0.381206236319791
2.2105083292258217e+299
751694.294149698
2.0804336335660657e+301
0.43739281932479
2.6535488224238763e+300
inf
4.74040699309712e+301
0.05807959600283
1.268924986506338e+300
0.20975676234453167
1.5670058529317227e+291
2.1759428830435557e+298
-0.2009613230011274
-0.42585019035286
9.082748932011361e+265
1638026.3161706186
-0.3126290906332086
2.708124082152897e+291
0.0738219129929233
0.398449513428244
7.79714114293379e+293
3.205305556435373e+210
-0.44475474073169
3.46462131698487e+299
0.18543110351564562
0.009094464110876744
2.732842490898002e+300
9.311667560007029e+43
3.379614365014766e+300
-0.15106980430054312
1.0206540633938368e+300
0.517392146914536
1.283763481645986e+302
-0.238889569740739
-0.1814047951781165
3.752697353205887e+300
0.4030811053359525
3.6372704593831425e+302
1218839.7247482678
-0.358836411769759
-0.144461644493817
6.327979492975322e+299
0.04990375599691578
1.482421721865472e+302
0.28926667560336666
8.792808202370363e+294
-0.19020729347942103
-0.10924591721879
-0.23428637298044255
-0.1005896634279676
-0.08960843936032059
-0.080508739786335
5.7670217457219595e+265
2.5548325791452056e+300
159256.14194153305
0.40390693783975357
1.3659463274617675e+301
8.532126155756779e+297
0.026821290398942682
0.109563381115308
0.33345327616316
-0.3606178745558868
-0.17344571223955
0.289246197228784
8.46294877343325e+299
-0.395179865129868
0.49598491172911313
-0.38732383561936246
1.2693526555384922e+303
2.5641928957669396e+298
1019535.4893643785
318776.57247211534
4.5287788339856206e+44
4.275464710383897e+291
-0.019217746880851455
-0.09549157543362255
0.316320519022782
-0.0403475490470812
-0.20025212203370116
0.2645231330246449
0.3848078166242678
-0.26486869594461815
-0.48177141827180187
0.37768687057067
0.39098499182756824
0.3410597321285477
-0.43092083888592747
0.42293932632069947
0.2588919185839965
-0.262243306575888
-0.43498800241498975
0.35830945647967943
0.025051973862110184
-0.04138025685302621
-0.48754112261537685
0.13035324757984268
-0.2903766408852913
0.17321068712354834
0.27662227582478655
-0.08974005455905673
0.42282462657221964
0.24299126329374737
-0.04664141295499564
0.07663700523731959
0.28784336920505366
-0.1863831702385332
0.477719490655572
0.028770519696197695
-0.3348318376404339
-0.4138059340056573
0.38233152044417
-0.035860023119228396
-0.22115475850642557
0.3685662498207749
-0.2746509064813791
0.05331121767261722
-0.38659035687914384
0.07478877689869659
-0.21205378769277797
-0.2007565634376755
0.0054664331543633005
0.49459927241605717
-0.0014957214047379465
-0.09373993065111194
0.23533181439262
-0.32131467630233
-0.17875098228352
0.19744350283304635
-0.075107888271925
-0.06362580828756702
-0.24765655977242118
-0.14718877280265816
0.066493588928682
-0.08765134902003394
-1.2348713625610286
-0.29763963510909525
-0.19078074352956087
-0.03216162879831744
-0.19466284788583083
0.09681708626538868
0.2376399183961735
-0.3002750405269526
0.307967195402252
0.15869250700774398
-0.48010899804777585
0.45878001554674713
-0.49613939903268645
-0.1487636420025037
0.019966352251306232
-0.49050041007084216
0.14292249574658242
0.00120754536236522
0.018846266302514833
0.3837560607388319
-0.40308069449886114
-0.3769468185867796
0.46441677908413964
-0.21022360688507413
0.3226432299482434
-0.31801174044414987
0.11102929482965991
0.05306329590170551
-0.19208697026516605
0.2700143717428662
-0.2648424556497721
0.17367232935530227
-0.0761397226564188
0.014079481257974993
0.164587701150271
-0.33388026520942
-0.22746350229802845
-0.4890918566861
-0.371119424418647
-0.3092546724020247
0.38676521004460207
-0.0765190724089822
0.356806244286211
-0.05613836190121575
-0.31216160495822726
0.33035424366745436
0.09895174747056297
-0.07935569673075794
0.450126643417291
-0.37157359983619687
0.24314242481913692
-0.2951367208183493
0.4268258741820473
-0.018385051026562838
0.439651398175146
0.24529342478224
0.3827736058531221
0.27350555813618
-0.19005023023712
0.44230851283532185
-0.246594747296394
0.42379719363661794
-0.10508408373304141
0.09694942432705267
-0.46741133038844196
-0.11459446531065397
-0.12339789251657961
-0.4297214925659289
-0.4665281562794796
2.7261358063637588e+215
-0.02376950471643375
0.2540167211956457
0.3514863671276122
0.13401852697268096
-0.13871360482489425
6.964108398964748e+297
0.3900126150611618
0.45351716421355
0.246671145480922
-0.23566918468269543
0.4541433425617586
0.5923140957345563
-0.23573815273083404
2.010658177707662e+304
-0.26547563105258
1.0871267074806694e+303
2.97381421267019e+300
0.17001879356843
3.2519470695067254e+305
0.4873391955619496
1.718723696050543e+304
5.396941310307867e+303
-0.27370497458475274
1.9767359694166575e+302
18971552.079055097
7.353683907532368e+304
1.9340284654756648e+300
0.010133958095878887
0.13737050287194963
2.3369697875938345e+46
0.14066106071760842
0.41302938379507004
0.368919299117617
4.432641223990813e+45
37145091.66152234
0.133582939953336
-0.33894898568850584
-0.176210676396489
0.35793973568835297
-0.17620405544567067
-0.38984222505243005
-0.2591105664394189
-0.12433972578602803
2.2864228490920797e+302
0.06258093693255788
7.163699228143234e+301
0.449089531188135
0.4626410811399535
22029541.99801684
0.31963100454453
-0.08026102603194255
0.31272776481504
0.03879910504845087
-0.4374840014484
2.592813580362518e+302
9897725.794451484
2.4402425934500845e+304
0.31807494415314
3.112477493059348e+303
inf
5.56025574101876e+304
0.238618919987145
1.4883843204640773e+303
0.20339934639610652
1.8380179808740526e+294
2.55227007410753e+301
0.27164838910222644
-0.33598652158965
1.0653601466496169e+269
21568274.429782275
-0.1095580140149764
3.1764914905215396e+294
-0.45696871022683094
0.114943754174135
9.145649069091007e+296
3.7596600139696e+213
0.35111539668415
4.0638241813990205e+302
-0.19513997059918575
-0.1943763159493612
3.2054849238562636e+303
8.294919176257036e+45
3.964115360319617e+303
0.019477372243887372
1.1971751842919104e+303
0.5860124091791581
1.5057891188091246e+305
0.4378582643532
0.23548889241484666
4.401722686016939e+303
0.35527289919370425
4.2663328239269414e+305
16048745.207004996
-0.39747221117967
-0.49698782647832
7.422397350291004e+302
-0.14968998148992152
1.7388051071598214e+305
0.04903088585155055
1.0313515771557086e+298
-0.05586611149026368
0.406287393059605
0.559666740441461
-0.35790370466095633
0.34898473504468774
-0.366657403134011
6.76442250990781e+268
2.996688372162912e+303
2096965.7210865172
-0.1255291132090935
1.6021854073400186e+304
1.0007749020226583e+301
0.22726505884425466
0.47436944533182
0.42613522933121
0.471388546070617
0.129777572038412
0.291294534704263
9.926607477364723e+302
-0.10999253537103
0.43437914404627587
0.13691503147347217
1.4888859544365936e+306
3.00766754637929e+301
13424455.463585278
4197400.934845699
4.0342778726763246e+46
5.0149021457550877e+294
1.6887894252463882e-06
0.021930740516689
0.307274648296468
0.2979920157815744
-0.4884657427191
-0.14296350080391
0.261424416820336
0.148479388881
-0.109026588912259
0.48891790351903
0.18474908096494
-0.224630754329
-0.237983070445439
-0.03821348741851
-0.063389484031562
0.05142947707438
-0.311235762037689
0.48335575070968
-0.141633848925284
-0.16070315234725
0.12441939796906
-0.293633232031717
-0.060426830117171
-0.0051718467142772
-0.47439762858372
0.39762677633442
0.317519242270595
-0.3407334092414
0.4484611162856
-0.374814143953646
-0.122962644827091
-0.465435940899189
-0.215340193197548
0.1731154456725
0.074240835940296
0.0540262970418162
-0.39723204796385
-0.4118978010591
-0.38700647769595
-0.24153755221392
-0.4674882440227
-0.409929115210723
0.28909507053659
-0.00057224209732387
0.08287117402646
0.469410856010563
-0.29184071189866
0.42632588792961
-0.14412291441336
-0.159440169440291
-0.479824189700039
0.409529954965742
0.094917244741016
-0.31537040873763
-0.103598767302016
-0.41172494651189
-0.277723125776
-0.44464677665296
-0.453752258799356
0.165810226397088
-0.360248753890032
0.21343416041668
-0.178031712079073
-0.066678480006831
0.4176730021859
-0.070575493511931
-0.12025108862285
-0.00066979227554131
-0.34185349155392
-0.482157000586531
0.2889334160582
-0.32761340090651
-0.40034812897711
-0.460235348298763
-0.0373030372406197
0.14702752172379
0.25715173723277
0.2685505051891
-0.20937104485963
0.444142795322862
-0.17611374942801
-0.29647226743583
0.27282180255759
0.33799477553046
-0.05765068533173899
-0.29973610044167
-0.481604920401147
-0.402544242324017
0.050448327946654
0.377631585476932
0.42714206457404
0.36642501094186
0.489793572204631
-0.40684793895618
0.292337915196371
-0.44840869316555
-0.022192790864709
0.425400876348
-0.06950161869614
-0.45301579235077
-0.132143182450101
0.1378913517847
-0.30756778810825
-0.18117131257501
-0.2624795370711
0.047192586348547
0.47483401227652
-0.32005153603987
-0.182823578367436
0.46128062321801
-0.312919852488015
0.089791651022027
0.133284493114874
-0.326025181315162
0.46605410547652
-0.002957343746824
-0.3784478433751
0.005070263054492
-0.41909829180326
-0.465149858697794
0.015409433490221
-0.317963573345518
-0.38259393737915
-0.35044016312414
-0.28369826478912
0.409096821249966
0.2847057846823
0.30644326324472
0.491728577180489
-0.027680242390345514
0.4124217006601891
-0.29145951577203
-0.1446874556418
-0.3673189011325257
0.21235562699368052
0.3119271579294832
0.1545006384492911
-0.11059448854092
-0.054285904828863
0.01606077096488829
-0.40826161028940705
0.25619362110878274
-0.04032127842304036
0.25418077607561923
0.31524011052135
-0.17381938907021227
-0.41815685162262217
-0.469891979896074
-0.051101466110911084
-0.15844005786478232
-0.3025387559696538
0.3953464858023585
-0.024360714906421246
0.05983600591309899
-0.41956903473781065
0.38810293684755565
0.31242961351128645
0.3521965740172276
-0.39460403802824
-0.247732084859129
0.3200213484301614
-0.34594309371869236
0.11402890097531969
0.0746894367935
-0.36081603890325076
0.443283627942597
0.4284894209934547
-0.251057652154
0.117011163083452
-0.19678145554247164
0.36698616211982904
0.3850144656571967
-0.061938135962341434
-0.48442956089445816
-0.47423604680039494
-0.06077622173647021
-0.3915670010400148
-0.232101583956866
-0.22271616246885548
0.147063063460041
0.31965110009539677
0.029785915370668
-0.05183791312167003
0.452802564537728
-0.10661354768864885
-0.0480729679605878
0.40721619324290076
0.0017333954376815
-0.08815132210000669
-24.840091587821718
-0.1772025168024945
0.11783170298984
-0.09991757737759893
-0.07381163952378919
-0.25202068299893093
0.10301044651728122
-0.09660665887049051
-0.208997466484618
-0.045411153475902
0.3246046641901756
-0.07548880437779223
0.10737153609465218
-0.3008806543870353
-0.198752948754715
0.11634783707360177
-0.016964103176295733
0.4203728451342
-0.3820615418633864
-0.35294356405984517
0.16264874814874186
-0.08612546502131488
0.1876841595318
0.36717845653793124
-0.332537503182484
-0.48043887764894877
-0.3301555268655699
0.46240831769715185
-0.103086169099646
0.122960621328044
0.4795277118195216
0.26928447054206256
-0.4389683061829384
-0.458556482544518
-0.195326720938614
0.359894892293
0.2720337806676632
-0.4152529398286119
-0.4286807593575548
-0.27965134113816786
0.16584959238978272
-0.2325481712396804
-0.083752738451003
-0.3741365118596949
0.018566041885727916
0.199719832251798
-0.000440903553490912
-0.21655431613435
-0.029860034981065032
-0.49988125792835
-0.4841005321031297
-0.49340395111789365
0.09928016021991952
-0.46863053860428
-0.485980884168726
-0.29128220288735
0.04561844925914004
0.336279827865187
-0.17346721380539
-0.09642650956711457
0.184878650317349
0.061962313932262536
0.4795192299291691
-0.23063765328913166
-0.27404997996854946
-0.18943187410729093
-0.19700886926069405
0.217252485738451
-0.17727254577579651
4.2189530875907354e-05
0.279776580967
